0.00309278 0.00185567 0.00360825 0.000103093 0.00783505 0.0071134 0.00463918 0.00731959 0.0102062 0.0043299 0.00845361 0.00402062 0.00136616 0.00387588 0.00412887 0.00886619 0.00804124 0.00628866 0.00690722 0.00917526 0.00865979 0.00680412 0.00948454 0.00927835 0.00628866 0.000927835 0.00494845 0.000721649 0.00865979 0.00958763 0.00824742 0.00309278 0.00752577 0.00175737 0.00418815 0.000449722 0.009551348856725601 0.00475146 0.000529114 0.005130866073116373 0.009193821942934024 0.006385375837683827 0.0014925622313484573 0.008553380999863209 0.003230868397905525 0.009237140757204526 0.00931385 0.00448817 0.00220577 0.00663913 0.00497169 0.00721823 0.00494845 0.00247423 0.00175258 0.00391753 0.00670103 0.00505155 0.0071134 0.00927979 0.000619051 0.00846455 0.0027222 0.007577566384567494 0.006653902457653712 0.007597323965603 0.009389305872840013 0.003577897930512569 0.004519225292105636 0.007256565766506009 0.007920766914348377 0.007003938408261457 0.0036267331734889338 0.008519825687513699 0.003260645259839822 0.00505251793121006 0.0032947713561048047 0.0071351612274208704 0.0081344 0.00467848 0.000206186 0.000824742 0.000618557 0.00134021 0.00268041 0.000824742 0.00525773 0.00206611 0.000896064 0.00784616 0.00792301 0.0060034154176357825 0.000564415472425107 0.00852846938251559 0.011163362304924911 0.009231052918381454 0.008969158736482625 0.0076233419007859585 0.005229195200523591 0.008920453714077212 0.006948635686161365 0.006983380003196286 0.0045008739698165845 0.00791593793121006 0.004646230257367867 0.005788028737946396 0.00171112 0.00337651 0.00982735 0.00145759 0.00320166 0.0085567 0.000206186 0.00793814 0.00216501 0.0100017 0.000251938 0.005816502689904625 0.00603032375260689 0.005522059003147533 0.0071763094868359965 0.006962436431556389 0.007111346343007731 0.0058063432060626525 0.0031068823282522314 0.0006250049435293953 0.0023199235980358715 -0.0011253855332189057 0.007098662245155333 0.0034689688519696435 0.0041436323349748234 0.004513723804511583 0.0051158740094076425 0.008347102600842041 -0.000377343 0.00884787 0.00534198 0.00589378 0.00485068 0.0020677 0.00907216 0.00453608 0.00206208 0.00599941 0.00822307 0.002173281370401609 0.0017484754691027594 0.00568860926874837 0.008023554968868774 -0.0004899623628724342 0.008150177777121861 0.002275747011162768 0.003969886060435819 0.0031297595920500233 -0.0030180808320231247 -0.0020894198459035177 -0.00417210555043685 0.0035794053879135645 0.0012148393531268094 -0.0015226348453229149 -0.0031666705089859228 0.000169624 0.00073408 0.0033248 0.00250552 0.00767292 0.0066399 0.000628264 0.00835052 0.00268057 0.0030087 0.00575428 0.00406154 0.008806102391293303 -9.593601225593895E-07 0.005641219731763991 0.00540885391114794 0.005380104207022188 -0.004677344427782979 0.004844055952400717 -0.0013619838413472818 0.0012334334011162892 -0.005914082852899895 0.0015795484185350665 -0.0008201247388328579 -0.004421257351462193 -0.012401747506288054 -0.0035847602106340547 -0.00623306 0.00221742 0.000496765 -0.000869608 0.00331007 0.00444978 0.00889483 0.00612137 0.00350515 0.00618816 0.00318788 0.00450386 0.0055647021111388 0.004893801417869908 0.006418329099114195 0.004482498158661136 0.002743056405195062 0.005841532275145228 0.0022868637367342375 -0.00046196375085054403 -0.004017350182995569 -0.005007593460713994 0.0014602066818924955 -0.004568889537468811 -0.004022563100139 -0.004855585884458303 -0.01287403231450722 -0.005472161101609094 -0.00538586 0.000318004 0.0037217 0.000277983 0.00014659 0.00710224 0.00345713 0.00837497 0.00938523 0.00749005 0.00230375 0.00314264 0.009537883123572588 0.003591704230398701 -0.0023435635424530524 -0.0012325666694428215 0.0030809918266421353 0.0036311027263336813 -0.0032785247746871427 0.0010015360413959873 -0.0027003119913354173 0.00382996411453415 0.0030715806533574553 -0.00219497 0.0008483529158687373 -0.004709621654987062 -0.010474852242286283 -0.000581231916810107 0.000788793 -0.000362018 -0.00421667 0.00530393 0.00117089 0.00587098 0.00278437 0.00257362 0.00546392 0.00157525 0.00250104 0.004056757666733384 0.007866422572252793 0.008383784231399793 0.0018388761153096756 0.005753270237261946 -0.0029829327120098853 -0.0007807257844502603 -0.004759994043011993 0.003315264772536874 0.004500038611325581 -0.003598822208440148 0.003983212994758058 0.003601760163772123 -0.009318699898927627 -0.0024827024487160372 -0.004272282867582792 -0.0008039600875710705 -0.00536251 -0.00454744 -0.00497262 -0.0033901 8.57657E-05 0.00146664 0.00509782 0.0092762 0.00298969 0.000259911 0.00192927 0.0064152739942479236 0.009316504151362037 0.003571609287652685 0.003556948148314374 0.005513534276764558 -0.0011797943691251376 -0.0016956366844804876 -0.00018005037292403064 -0.0031225401970394404 -0.0033047033920984123 0.00509104212231308 -0.0012925080400932475 -0.0047037497072502646 -0.0064256775885800236 -0.009751517934354883 -0.006308636940230845 -0.003964277000730197 -0.00263002 0.00221936 -0.00235602 0.00194874 0.00178464 0.00260243 0.00317598 0.00154474 0.00690722 0.00183563 0.0062484900346401594 0.0006155352385355039 0.006143308208309522 0.003478411759138171 0.004044543008641091 0.005819242724423657 0.0038600628340876146 -0.005169038550952598 0.0004737148891634999 -0.0032807737609527156 -0.0030657514988462996 -0.0010149762265574693 0.0012869526548676432 0.00033586854657525377 -0.007503924423196057 -0.003475113368654435 0.00024818188386226803 -0.00145164 -0.00138716 0.00495094 0.00575471 0.00592876 0.00832719 0.00415664 0.00393644 0.000619289 0.00587629 0.00454122 0.00343404 0.009603293398416852 0.003833876578975219 0.006182439401127882 0.003027080707399556 0.006433298556842763 -0.0019602706655343074 0.001027181049370501 0.0018512875966921933 0.005066972139453262 -0.0016919020184288916 -0.0007674313830588158 0.0043584599164427935 0.002245162742226407 0.0018787930971253903 0.0008096744869271038 0.0018661824344642496 -0.002013377399157958 -0.00117111 0.00521444 -0.00205623 0.00191057 0.0107267 0.00468106 0.00706635 0.0016582 0.00896907 0.00578037 0.00229301 -0.00019850562789879586 -0.0007419168968130398 -0.001189171179670203 0.002911167049571981 0.006202259622190329 0.0026644852153592095 -0.003339217586654415 -0.003965351587530529 0.0004525454224568671 0.0062157796908171095 0.0037214469421213573 0.0002191764926236165 0.002950387174462154 -0.003394003840341909 0.0006204884617736246 -0.005070122601859629 -0.00365120714179009 0.00401258 0.00434127 0.00405971 0.00169765 0.00580426 0.00609675 0.00910817 0.00277875 0.00804124 0.00392444 0.006423922937612586 0.0007580145071565805 0.007633925024593248 0.0033478875286725054 0.004707994412514098 -0.004139371591647416 0.0014759872556855634 -0.002373238935479769 -0.0047633206600650084 -0.0012118808768454843 -0.002214408211906788 -0.005289279374748832 0.0029263757919478456 -0.003968934158471016 -0.004055915173583453 -0.0046464618328161955 0.003074431828713305 0.0005915620383674169 -0.00117354 0.00268507 0.00786084 0.00758493 0.00469439 0.00782601 0.00448587 0.00638946 0.00402062 0.00433567 0.0002286485208651159 0.009726861713280546 0.001879849192324469 -0.001621690427429875 -6.770774902313783E-05 0.004081578388018418 0.003953157144289332 0.0006612042120519356 -0.004698003871099255 -0.006291022254786685 -0.005959795066161869 -0.00021386448258301383 -0.003728887935152394 -0.004929658015508125 -0.009034217356732224 0.004257972937463173 -0.002379965077789816 0.0036019832615780773 -0.00360112 -0.000392874 0.000295837 0.00700883 0.00620421 0.00685744 0.000169791 0.00854036 0.00309278 0.00134357 0.003961263822226549 -0.00039873504318433273 0.007030759098496026 0.004410507637735655 -0.004144939505504654 0.0035110594860965805 -0.002897694325900305 0.0011886626906321507 -0.001662677579912026 -0.005051735010628034 -0.004302688614195206 0.0028512148702598632 -0.0002673871145933579 3.528472498104427E-06 -0.009801056883088109 -0.0029604251867579165 0.0003459132923491189 0.001328112712209609 -0.00314986 -0.00246418 0.00539839 0.00695656 0.00732555 0.00332694 0.0032045 0.00913107 0.00525773 0.00433088 0.0012451776667333845 0.0067099643614492235 -0.0010000771316574625 0.005736462664370352 -0.005414973413271925 -0.0023377846205471535 0.005973342576634773 -0.00024134599241170293 -0.001860540973261869 2.3660374084276996E-07 5.9986052626744655E-05 -0.004116122385769082 0.00018194131666292605 0.0002881274892947736 -0.011232165583436534 -0.006551620888068745 -0.0011400658208478025 0.002999817235841291 0.000322964 0.00199884 0.00481315 0.00415575 0.00701716 0.00504852 0.00773593 0.000814356 0.00505155 0.00453608 0.00219255 0.006446800887889664 0.0017148569347183863 -0.0005107709495421861 0.00028817197291518905 0.00274055613345829 -0.0006195815537183619 -0.0011588346588484212 0.002071850818921296 0.006893602842305335 0.006039657202779525 0.001479628338515997 0.0012955331467229205 1.292657502859083E-05 -0.0032305696938080878 -0.003880068917727213 -0.004377481961211745 0.0016508190126306302 -0.00309701 -0.00344752 0.00464022 0.00162279 -0.00172213 0.00107613 0.00280601 0.00791104 0.000515464 0.00350984 0.000754183 0.0039884961010172235 0.005289262345207231 0.0004306972687038785 -0.0021851141118691057 -0.0035533783807738715 0.00036803570698790925 -0.00020657302320182397 0.005134422864848841 0.0015858550973468063 0.006675398021431461 -0.0007979484699856329 0.006258607386281545 0.0016353832220911055 -0.001566130195212249 0.003952461374996848 0.003983457881243463 -0.0022718331675268774 0.00353775 0.00359631 0.00241103 -0.000168147 0.00340021 0.00277783 0.00470849 0.00586942 0.00876289 0.00103472 0.00879081 0.009183679154888928 0.003974453755818536 0.005160744615814925 -0.006876278626049407 -0.005146543356163779 -0.0013064409587589638 0.0025787652330056957 -0.001992158216719515 -0.00014845268291080327 -0.0007913389023726376 0.0013412927302018393 0.002822001700484535 0.0006467509378819777 0.0025068621278708965 0.0003422685677471367 -0.003646151386818342 0.0025209063004210212 -0.000177099 -0.00419598 0.00525857 0.00174069 -0.0014381 0.00145693 0.00821396 0.00680412 0.000618557 0.000309278 0.009920472881460283 0.00916991999761274 0.0005006004887838259 0.005362999863093266 0.0011091085134825732 -0.0024354325879645195 0.0019312946370191393 -0.00219379981578994 -0.0036856662019651965 -0.000797520610127989 0.0035985322718147424 0.005928270857479386 0.00204962045343945 0.00025399920406923366 0.0001634853000988106 -0.00045580386224313064 -0.00035732446902626743 -0.00133451 -0.00338486 0.00132546 0.000148296 0.00147709 0.00475256 0.0101375 0.00545272 0.000824742 0.00969072 0.00206186 0.008349998369662884 0.003591663018819266 0.004318964769527769 0.00044808775692203515 0.005682870111534182 0.004339870973604604 -0.004265496145912588 0.0014470288716748902 -0.003030966186419059 -0.0023660846265491217 -0.002203793048354854 -0.0023671714664155095 -0.009175274539702297 -0.002319909357284121 -0.002370809531254532 -0.001168161663730435 0.0036754962880154824 0.00361719 -0.00328807 -0.000840206 -0.00127367 0.00554138 -0.000220513 0.00449526 0.00959218 0.00597938 0.00340206 0.00587629 0.00805456 0.00124957 0.008069376349129605 0.0015524411822877015 0.004685563779444381 0.007400263440155159 0.0019289486816481286 -0.002930612357419258 -0.0010316201624899135 0.0031252130595362604 0.0037311864095716124 0.0037488555380245834 0.0003507782881691026 -0.003082379802865807 -0.00039675875047823624 -0.0009222991590881479 0.006153384978907092 -0.0018523750210929079 0.005136675741976463 0.00165261 0.00318603 0.00290112 0.00840323 0.00435611 0.00587237 0.00793814 0.0043299 0.00618557 0.00217417 0.000302814 0.0029659834232849155 0.010576332476138917 0.0012285939787180726 0.007391776143227462 0.0016927730873876994 -0.00031192075057913534 0.0022673141959901246 0.009389506119203474 0.0030511304546832615 0.0027672202425093476 0.002833582229759769 0.008837987973581343 0.00045341326500909085 0.0075126156378881375 0.003172325139103438 0.007227185139103438 0.006261907428311552 0.00380456 0.00523168 0.00285543 0.00633219 0.00504401 0.00618527 0.00154639 0.00381443 0.00453608 0.00639245 0.00949029 0.00811183 0.010006525748177052 0.0053652828794558596 0.00786376010019723 0.003562890609437446 0.00488872586002517 0.0035012450025303805 0.008790437766535545 0.0019339586544863386 0.0013972502513409939 -0.0009889594897940994 0.00846549752337014 7.370689733280989E-05 0.00109447 0.000382323 0.00399745 0.00511938 0.00151557 0.00412075 0.00942658 0.00149121 0.00814407 0.00927804 0.00360825 0.00618557 0.00391753 0.00783505 0.00298935 0.00238701 0.00319387 0.0066627035513914905 0.008090220362116573 0.002052082319215698 0.009572725320756516 0.004227822689904626 0.00529081375491468 0.0108128 0.007751689757428449 0.0035470670342496193 0.008101577296539412 0.0009579873140353613 0.00304486 0.00179617 0.0030641 0.00686057 0.000660159 0.0035649 0.00674721 0.00773601 0.00505155 0.00979381 0.00371134 0.00762887 0.00979381 0.00680412 0.00649485 0.00278351 0.00185567 0.00392383 0.004887609757428449 0.006626099771070046 0.00043787941228826013 0.0006435079449626112 0.009116374164641167 0.005331394407212719 0.009968813922069617 0.0019342676887494623 0.00677230708392009 0.0076964 0.0098234 0.00911124 0.00946135 0.00872994 0.00760608 0.00730481 0.00525299 0.00587629 0.00670103 0.00618557 0.0057732 0.00402062 0.00670103 0.00113402 0.00298969 0.000206186 0.00989691 0.00247423 0.00597938 0.00597938 0.00257732 0.00608247 0.00268041 0.00324124 0.00864503 0.00535868 0.00319149 0.00350515 0.00515464 0.00175258 0.00907216 0.00329897 0.00206186 0.00969072 0.00103093 0.00649485 0.00742268 0.00298969 0.000309278 0.000103093 0.00659794 0.000412371 0.00608247 0.00103093 0.00257279 0.00380759 0.00770596 0.0067121486984560354 0.00284328 0.00583127 0.006901329812337779 0.0023017549465956318 0.01002095026839916 0.0049701391221843964 0.008214907841131661 0.007274023414855738 0.0010351969396663724 0.00247042 0.00711964 0.000440275 0.00236076 0.00742425 0.00329093 0.0043299 0 0.00835052 0.00536082 0.000206186 0.00247423 0.00381443 0.00964339 0.00524146 0.00324863 0.00756028 -0.0010816542895333132 0.008626865197431065 6.348698988237645E-05 -0.0028093436019218754 -0.0015645693527991272 0.0022263581454000474 0.004280336952560129 0.00440073252643894 0.0014077212582912458 0.004767120907981551 0.0012602006830328305 0.008607161675506942 -0.0006257142330137622 0.00856240061839325 0.006439890417638703 0.00527717 0.00248514 0.00886598 0.00979381 0.00268041 0.00103093 0.0102062 0.000206186 0.00731959 0.000998516 0.00791418 -0.00021248 0.00737132 0.00606706685332992 0.0051556999471539175 0.0010298683640993643 -0.002072941687344164 0.0018861536829070736 0.003808946407951091 0.0016089832137718518 0.00017139302569559378 0.0030830854325798246 -0.001130110525361746 -0.0006902593244014225 0.004950229657031342 0.005788419766986237 0.005035100401509096 0.004337045276937412 0.0084592 0.00306464 0.000980932 0.00191499 0.00736713 0.00185567 0.00690722 0.00701031 0.00490241 0.00877268 0.00979874 0.0005707870095497279 0.0031997502793715284 0.005626997962757068 -0.0017174541960224524 0.0041062854174423 -8.852592622005243E-05 -0.0014085472099132927 -0.0011367113983904152 -0.004906592457003198 0.0018721696267370146 -0.004678278652567208 -0.009086611647644996 -0.007184942443983512 -0.0037848260222900698 0.005375518044429379 0.008371991841864768 0.008360743188743896 0.0095766 0.0027835 0.0109356 0.00741016 0.00803283 0.00492401 0.00618557 0.00824742 0.00456674 0.00732694 0.0081162 4.654667723468799E-05 -0.00010322408429581958 -0.0016672478456513594 -0.0009663475146117139 -0.00022699827904172138 0.00011491909340330967 0.0029546372633909588 -0.0012382743448057464 0.00024188800679690527 -0.01050697877431471 -0.009017753808861401 -0.012025001586615614 -0.010601149604943232 -0.010106297381067683 -0.009145394572241219 0.0032400665508035198 0.00334224 0.00251429 0.00983314 0.00805314 0.00292542 0.00160575 0.00286164 0.00103093 0.00886554 0.00583781 0.00385437 0.00298846 0.00020488120839361757 0.004773422576118843 0.005116655129558037 0.007506996079061548 0.006261564347707225 0.008487664522026954 0.0007074151123595305 0.004765538766961788 0.005886730197130385 0.00033301150830579153 0.0015545295092589005 0.00585668758692483 -0.008609143303783562 -0.007043119736654624 -0.006682500221373903 0.002293 0.00761423 0.00853305 0.0137375 0.0129401 0.00826282 0.0090206 0.00188594 0.0071134 0.00251128 0.00857657 0.00186028 0.003549294663789317 -0.0016211339730344409 -0.0011872957486248551 0.0011279253394041872 0.003759139073024762 0.007647303896748384 0.013009691575599384 0.005055662167392731 0.017806915062012534 0.02001363879687673 0.011765031430612086 0.008700049344801663 0.009001231594359737 0.006166011994472011 0.0048613267087334894 0.003117188906453075 0.0108376 0.00728017 0.00361497 0.00769255 0.00858538 0.0123509 0.00505917 0.00633068 0.00471364 0.00641455 0.00882193 0.00818746 5.194291615056838E-05 0.0015360501126785206 0.004332870532852412 -0.006540586187374821 0.008553562112674898 0.009233938186982297 -0.0011623068474661904 0.008460455905607771 0.010773203110611812 0.008773047834117247 0.016717364300994964 0.0125744 0.008035672100811042 0.001010821746478905 0.004114593955273337 -0.0007484148743409836 0.0071258 0.00452015 0.00623737 1.14931E-05 0.0129746 0.0116237 0.00385646 0.00806175 0.00876289 0.00726325 0.00607449 0.006865357114666208 -0.0007078359695793897 0.0019659341476507162 0.0069092381046215725 -0.0007845038232919344 0.005303777444643511 0.009543780483463516 0.000601860411397705 0.006251248994772319 -0.0008725527420721248 -0.0015121817302646463 -0.010210699685367683 -0.011055454756591022 -0.008745684745227663 -0.008146745184241225 0.0028121121094127253 -0.006545830791870641 -0.000675154 -0.00759119 -0.00432093 0.00141833 0.00495032 0.00332717 0.00847975 0.00335755 0.00917526 0.0100936 0.00224224 0.005890022265986384 0.00351248625819493 -0.0059831266480850805 -0.004331719038628119 0.008953749125316943 0.006956130411305174 0.00733317299126679 0.008086725509197699 -0.003981664991008278 -0.012966482816388897 -0.010502862249273142 -0.008310951573530113 -0.009008659276138474 -0.016137688827649547 -0.01118352729212566 4.005986850681157E-06 -0.0011641672777019374 -0.0123819 -0.00261987 -0.00250549 -0.00351545 0.00746032 0.00599867 0.00211411 0.00775041 0.00103093 0.0092149 0.0046605646045619845 0.003182328219125105 -0.002356474517661635 -0.001812527341409396 0.0019249552899332396 0.00034304264938067553 0.004513215857975354 0.0029920860188115167 0.005452981833384506 0.000533799913706286 -0.006588388095102902 -0.012452028321095009 -0.005859425504811116 0.003716829354092184 -0.004256213953406158 -0.0012556657055671093 -0.012757676108479448 -0.0131131 -0.0107999 -0.0023452 0.00156097 -0.000455064 0.00373961 0.00754639 0.005392 0.00733799 0.00927835 0.00599073 0.00602288 0.00753154211230839 0.004988775298160146 0.00743298347343023 0.005315017950480916 -0.002350847733967881 0.009897373255753416 0.007138439902380908 0.0040960577641890265 -0.0016632027596472623 -0.0049919145692582274 -0.00998846048177958 -0.0038135796074970914 0.0002911094735326925 -0.005076829719388586 -0.01013066464720928 -0.006261421618022187 -0.010169846811256104 -0.010879 -0.00837147 -0.00490333 0.00390228 -0.00585923 0.00584533 0.00517843 0.00866359 0.00309278 0.0088867 0.00212743 0.00586112077372352 0.004651923083993865 0.008333539266926855 -0.0021636836264096 -0.002213908010760959 -0.0008461455456012069 0.008643750303451887 0.0059984640160523454 -0.009409016557603655 -0.007654690563511792 -0.0014917579226725356 -0.0023693845775972044 -0.002933819198915033 -0.005902340354467542 -0.005255417597576705 -0.010140162681298153 -0.008723606409747007 -0.00776567 -0.00735476 -0.00405865 -0.000681262 -0.00172581 -0.00238696 0.00499724 0.00484494 0.00247423 0.00581032 -0.0003082914940007739 0.0023625682586670745 0.0066008518961548236 0.0035503332435061156 -0.0038412178821781457 -0.0045899062328238855 -0.002460270838355226 -0.002396394579990075 -0.0038333177607782734 -0.00970197380346951 -0.011566689246896264 -0.008860282714624157 -0.002205429688533037 -0.005418039260802594 -0.0008166623879968368 -0.009620393561734795 -0.0026500350133123003 0.0022571718713093594 -0.00342671 -0.0105895 0.000582212 -0.00152983 0.00215123 -0.00260734 0.00742152 0.00773046 0.00484536 0.00277733 0.0044970691419875496 0.0024530280241288104 0.010526617943696958 0.006652219203703986 0.0011258564589269248 -0.0016597040796561863 -0.0018574608656529762 0.006975368087390893 -0.0009188134581432062 0.007507916657068598 0.0032029521239905975 -0.0028591877849880134 0.0008262574869827885 -0.007211590770024806 -0.006123762726694506 -0.0020482246957337696 0.00922895986300805 0.006329436345228579 -0.00130227 -0.00113746 -0.00497576 -0.00531128 -0.00784832 0.00182159 0.00704305 0.00770972 0.0014433 0.00267622 0.00332842858345402 0.0007972744814383303 0.009152066320877561 0.00740079211333286 -0.00430402033671816 -0.0017490445110186984 0.00501099283340971 0.007358327668691968 0.010898451424979635 0.012929487761041563 0.006803725558683223 -0.0015873967298286704 -0.00592503094022249 -0.012328004449448076 -0.01247354943943833 0.0026017388776405723 0.010388517639989547 0.014767021236786502 0.00664426 0.00268768 -0.00159737 -0.00144294 -0.0016426 0.00206335 0.00144341 0.00334255 0 0.00422572 0.007673317114666208 0.00932401606310361 0.0013851676360192506 0.007231883701362945 0.00421589757911704 0.0052974341605883804 0.01213849210723825 0.006127135998573338 0.010419153810014872 0.01861196746676975 0.003013988733234688 0.0024811167842401483 0.0016565909166189666 0.0007362609230658104 -0.0020577084388547656 0.007886244902541526 0.011962489800145746 0.01089427230507767 0.0119006 -0.00246911 0.00500787 0.00120307 0.00434144 0.00752676 0.00270871 0.0063677 0.00195876 0.00649485 0.00319395 0.0023834650610111696 0.0014059786109015195 0.0003085710344213558 0.0004939175671143409 0.001135593211685152 0.008374957007046085 0.010221841937924045 0.006245225806769673 0.002161366277316789 0.003061976042013159 0.004628017122262436 0.012045184954567459 0.002975218393639718 0.006360821337285897 0.007095781139977314 0.0015764359878382363 0.00860751783115845 0.0065212 -0.00493065 -0.0046844 0.00596554 0.00577271 0.00916537 0.00857657 0.0065646 0.00412371 0.00876023 0.00607787 0.002963754026300066 -0.0017795706090121372 -0.002722249167175153 0.0015595274678322673 0.0023591674452645025 0.010999597207430416 0.009353309025867998 0.00810789085567751 0.004012220551871094 -0.003657702363777143 -0.008051449720162217 -0.0054762207294168 -0.01506726346278644 -0.013373931890517202 -0.004623678830691108 0.0023630062629409502 0.010061459550102084 -0.00372712 -0.00681613 -0.0106155 0.00964093 0.013478 0.0106288 0.00160387 0.00742179 0.00762887 0.00896059 0.00779327 0.0036521825343634106 -0.0010851252898679787 0.0020285412182597194 0.004375304383158778 -0.004056510676150434 -0.002064299035166754 0.004115995632244734 -0.0014807158157321045 -0.015876740477710267 -0.010686238382051924 -0.010555335399518827 -0.011507742580914464 -0.02086382919173577 -0.01801791820198654 -0.0026093563184221504 0.004207696994941808 0.006308966594371948 -0.00463376 -0.00562695 -0.0020636 0.0064722 0.0138188 0.0111958 0.00194351 0.00474227 0.00587629 0.00556701 0.0007058639818017866 0.0024711988182755866 0.006998471419121943 0.0027482741873003005 0.0013671061744575028 -0.0075773576341220195 -0.007351508295826562 -0.017361222151164916 -0.020426947931681556 -0.02025496871570239 -0.02532335183039632 -0.021816935211191647 -0.026559205229652633 -0.021541560128290334 -0.017536451950222295 -0.009373168379948806 0.012159675482478705 0.00641456 0.00563265 -0.00410977 0.00396452 0.00968838 0.018876 0.0145432 0.00946048 0.00608247 0.00381443 0.00835052 0.009677478474457313 0.00276836321727581 0.00580854665685791 0.002741073641917137 -0.0012143040465744939 -0.00046753195821327547 -0.01300616366277807 -0.017459278700730524 -0.01779366912819096 -0.019000416247408176 -0.016697586465479135 -0.020287757598822367 -0.018248917399968773 -0.011380228914706721 -0.0034235185195900125 0.00473425578103233 0.001875874551060477 0.00140663 0.00786001 0.0066829 0.0103513 0.0154288 0.0215668 0.0157372 0.00676829 0.00824742 0.00938144 0.00938144 0.000896741 0.00181917 0.010000022249534819 0.005374561077115152 0.007467816285853206 -0.005541508001566344 -0.01032796000535358 -0.007638545166111224 -0.004424040605034078 -0.0007164576043283685 -0.0019431382871010323 -0.004454546396222327 -0.015273841224024342 -0.0045790067555863696 -0.0014718902845035399 0.01283388551043225 0.011508347750913594 0.007549497750913594 0.002511443721237092 0.00343421 0.00590381 0.0184445 0.0178034 0.0155235 0.00259298 0.000515464 0.00989691 0.00752577 0.00992288 0.00471643 0.0032028918948424985 0.005029378768041636 0.006392218160121819 0.007368043548427043 -0.0027543212542756076 -0.0040305361358726035 0.0019514778763496659 0.002090877670614248 0.005797833787638635 0.001007879825802208 -0.003222273881949784 0.005019006319163523 0.013229957828623653 0.019243839542879653 0.008726222522502635 0.010795792522502635 0.012243610433473131 0.00550164 0.00577802 0.00472135 0.00672526 -1.57154E-05 0.000618147 0.00123711 0.00216495 0.00989691 0.0059796 0.00535504 0.00687956 0.003593080530565526 0.004158268251044289 0.004187763238010111 0.00854087536674799 0.0011136226584672554 0.002706395460848762 0.000789472629055161 0.007561261035241856 0.007285915385191759 0.004018918572623739 0.016877731801332837 0.016012457382743164 0.0192387 0.00996467 0.0129206 0.00858565 0.00521917 0.00484543 0.011958 0.00284097 0.00371098 0.00226761 0.0102062 0.00340206 0.00639175 0.00597938 0.00680501 0.00729517 0.00405028 0.002485584012326584 0.004543376036919426 0.0015115830756757215 -1.3797112366162924E-05 0.004100969009549728 0.007009735117266528 0.00796368 0.0034822672145911537 0.0063686582313693604 0.013034927664137566 0.011027159219073622 0.0104261 0.0048204 0.000646377 0.00310278 0.00937907 0.0101804 0.00384312 0.00383067 0.00329897 0.00659794 0.0014433 0.00865979 0.00340206 0.00886598 0.00536082 0.00845361 0.00185567 0.00577094 0.0017420972145911536 0.0009621756641504781 0.009058319820005926 0.000207447048804468 0.0019973417006283623 0.007169934486037209 0.003132078915219516 0.006032662813836297 0.006840894403360954 0.00207819 0.00105238 0.00280519 0.00380026 0.0101766 0.00151929 0.00632255 0.00795704 0.00402062 0.00773196 0.00309278 0.00659794 0.00608247 0.00731959 0.0056701 0.00391753 0.00793814 0.00701031 0.00278351 0.00876289 0.00701031 0.00835052 0.00546392 0.00164948 0.00287956 0.00886404 0.00527271 0.00969135 0.000206186 0.00195876 0.00659794 0 0.00474227 0.00783505 0.00948454 0.00536082 0.00474227 0.00134021 0.00391753 0.00154639 0.000927835 0.0085567 0.00381443 0.00690722 0.00814433 0.0072162 0.00225032 0.00574697 0.0006013069092190294 0.00660838 0.00556912 0.009318126079298066 0.0025842596917470748 0.006123171166253249 0.00716028743151005 0.00970014579419412 0.003508404139148777 0.008382962000614166 0.00843025 0.0035561 0.00315958 0.00304196 0.00945657 0.00803917 0.00329897 0.00979381 0.00134021 0.000927835 0.01 0.00247423 0.00134021 0.00783692 0.00453673 0.00775781 0.00295523 0.009972398843871114 0.0030520768611561524 0.008660739315615739 0.009021206451971252 0.00228548138861121 0.00859643903254268 0.0006639798687499103 0.006637880268699862 0.0075844842897437575 0.002544143014548978 -0.0017343512624489181 0.0065048617769808 0.0009038403016471485 0.006397141415178553 0.007001205388777702 0.00761061 0.00531371 0.00927835 0.0101031 0.00474227 0.00670103 0.00505155 0.00536082 0.00701031 0.00866461 0.00259953 0.00597775 0.000484124 0.0061700223761004345 0.008586760720971818 0.0063696479439244265 0.004672194788692959 0.0089910786805684 0.0037346800094252633 0.008939074150497908 0.002365917551778666 0.0005279204925581995 0.00609558675027039 0.006914770186818464 0.0010787735793305366 0.0011979773016471485 6.651565280170158E-05 0.008406124035637275 0.0086642 0.00519108 0.00235442 0.00412 0.00882923 0.0101031 0.00896907 0.00907216 0.00958909 0.0014298 0.00931344 0.003968932168394781 0.004531145890616955 0.00959303125712723 0.007840762962343267 0.0017015485670331609 0.006110375161936749 0.002036489336958892 0.0032839982910886903 0.001990581670956925 0.003360189333144148 0.00673076755852824 0.010387445723123176 0.008944278136903624 -0.0007216918294512021 8.3109445923804E-06 0.0020145961912609433 0.0009042760917487659 -0.000846029 0.00851529 0.00298902 0.00916359 0.00921843 0.00319144 0.000927835 0.00185567 0.00268597 0.00617185 0.00672781 -0.00019422385447138033 0.0034581480335001713 -0.004089448747802804 0.002219213211744203 -0.0011988047822821914 0.0012430997357195446 0.0071635065332342675 0.0019286401024692114 -0.0015226769853125387 -0.00010797026964741358 0.00011918434138997655 -0.0012896695154276895 -0.0017092514933059798 0.008846668451747846 0.0030587855066867785 0.012314158773375421 0.0140763 0.00956094 -0.00114844 0.00413496 0.00502543 0.00839095 0.000328712 0.00886598 0.00804149 0.00718419 0.00814066 0.00323608 -0.0010446662650741413 7.570985625845635E-05 0.0018287224520666212 -0.004899987293952672 -0.010136644766280579 -0.0033906801037982366 0.0005702430508615636 -0.0009484817381662967 -0.0002658303346039428 -0.005117369050631791 -0.005975502977509976 0.004663344128646954 -0.0026246121409564793 0.001835148838899271 0.001715062991775397 0.00242957 0.0107986 0.00820421 0.00524776 -0.00240252 0.000509802 0.00731434 0.00189825 0.000618557 0.00958415 0.0048422 0.00742743 0.006827894327742628 0.0020964663178740846 0.0017687774739465446 0.0027524428858456255 -0.005103962359926352 0.002345926398482591 -0.003758830361735318 -0.003459021732818321 0.00270291008849307 0.0003890500378014954 -0.007494047686766432 -0.009906419275448703 -0.0012498423189686628 -0.0035146798840897577 -0.006149777956015398 0.007808250605755069 0.00906866 0.00965009 0.0159262 0.0139192 0.000137848 0.00481524 0.00640963 0.00361371 0.00311343 0.00980769 0.00397902 0.00126209 0.0009923225716370922 -0.0003939495931616598 0.0037849454913954713 0.00033047180960517775 -2.763288638140077E-05 -0.00422579258067508 -0.009442308627277417 -0.006305928380081061 -0.008956365606771054 -0.0007364061067524508 0.0017575407114341025 0.00690956 0.004845846786045102 -0.0024757075524673984 -0.0046730646337226 0.000404315450775128 0.00681641 0.00560245 0.0119556 0.0185639 0.0118517 0.00437316 0.000447946 0.00968935 0.00824742 0.00604773 0.00887244 0.0019148484118018747 -0.000770380197441242 0.0006168461269996628 -0.004358880208640501 -0.003122854554519431 0.0041565122522968356 -0.0065235047714830505 -0.005350742928442993 -0.010068818968016577 0.0007404812190521075 0.008315675150810987 0.010694655586617401 0.007460962554172252 -0.004510976561542956 -0.004595958003721516 -0.014548782701638851 -0.0017874904039753192 0.00363949 0.00942706 0.0218989 0.0167108 0.00553552 0.00384059 0.00819797 0.00454328 0.00670103 0.00493415 0.000997105 0.0011252502135670028 -0.0021318525970873514 0.0007316233767812606 -0.0025365011039847735 0.006350004633891972 0.005012823698222864 -0.008119342488837129 -0.0059419341996530825 -0.000170592404070309 0.006168341704252336 0.0020103917761234956 0.0043976718115494645 0.004960793044107393 0.0031861244052448154 -0.00331730501485797 -0.015130318188699938 -0.0109800001588667 -0.00324078 0.0117327 0.0215864 0.0226347 0.0175403 0.00680605 0.00149497 0.00196819 0.00639175 0.00641642 0.004178216321906119 0.0021885849031735194 0.004240751134992217 0.0008382994964251732 -0.0034269716897584487 0.0008047657356527216 -0.002016694079491612 -0.0033156022882482724 -0.006761248471620184 0.00014647618252547955 0.005238299393215988 -0.0002356838062580078 0.002300444592646416 0.005315148274750505 -0.003619162140079733 -0.017243132169993583 -0.011528332725616028 -0.0131228 -0.0107901 0.0110544 0.020482 0.0188048 0.0157784 0.00831507 8.64548E-05 0.00113846 0.00979381 0.00227888 0.00852423 0.0018543368341451924 0.006285721932446735 -0.0024594607364868907 4.3737354951619974E-05 0.003114063284446754 0.0009128024220611834 -0.0070697218060772225 -0.007631723756230318 0.0002183614124644417 0.0018508025440988414 0.0030052416471825117 -0.00013594359360211752 -0.008719767219680674 -0.01130687913440065 -0.01127881469319723 -0.008909517934725995 -0.007806072908251234 -0.00707448 0.004193 0.00699981 0.0122397 0.0152463 0.0010766 0.00368606 0.000934276 0.00969072 0.0102139 0.00750922 0.0067009173523885504 0.007507406062448815 -0.0009536918876441196 0.0058272458036959605 0.0010510664379471527 0.0002802681141743115 0.0053024846986251045 -0.0006403624982176904 -0.006639590754932518 0.001575376164423106 -0.004462795751215154 -0.004255717917119044 -0.0031022543672899485 -0.02009783283036842 -0.015339368682235057 -0.010475712285960436 -0.008243900855449533 -0.00805321 0.00418844 0.00240241 0.0065184 0.00966483 0.0116901 0.00276964 0.00485339 0.00103093 0.00256782 0.0003688419449156636 0.0030464475456578603 0.0009143836187718584 0.0020190444672728114 0.0027923705532913513 0.012069191789877465 0.009680544988640278 0.0034111067311058444 -0.0012175078472736636 -0.007324145144499744 -0.01159240610763604 -0.007282983574781676 -0.004884313488552232 -0.013954492415475797 -0.015736619856408705 -0.014135069879764255 -0.009566390037249345 -0.010133092418488341 0.00110518 0.00369029 -0.00191178 0.00575436 0.00483198 0.00619377 0.0011549 0.0102094 0.00608247 0.00440409 0.005565516367234137 0.007654354597695598 0.00901567604789275 0.014272261518005118 0.0057329336565964195 0.005218121729323335 0.006164592821329857 -0.0034932191707852845 -0.005705413949151373 -0.004290654646723224 -0.010993082207628105 -0.011088158427076635 -0.009656536850895688 -0.008406002695125028 -0.008405285115227748 -0.004248477709879891 -0.013406661264608594 -0.006379132488454469 -0.00478466 0.00204334 0.00318093 0.00856626 0.00363343 0.00198386 0.00564801 0.00818629 0.00556701 0.00431596 0.00867943859210313 0.008771971022024703 0.01240817940222534 0.011483867261031072 0.009200564790066118 0.010617095563508492 0.0038740554380358736 -0.002722002283409814 -0.003980747514106265 0.0003337085607539748 -0.007501097408440918 -0.010234908678480616 -0.006138367592312032 0.0013961316441152942 -0.003969865317228095 -0.006814670904366689 0.0022523145938398454 0.0034403728303571057 0.00447433 -0.00416938 0.00740352 0.00748057 0.00160179 0.00146749 0.00499674 0.00135342 0.00329897 0.00195402 0.009619408411801875 0.003852435390333464 0.01304300335253531 0.01279741722515405 0.011495882410490465 0.0029839356070225334 -0.0005684668300788076 -0.004844091702411602 -0.0053484560612995155 -0.006186540508142563 -0.007652261564104798 -0.0025838807309787 -0.006832183950723252 -0.001178202351449858 -0.009945077597520988 -0.006272877498214897 -0.0007511491744466514 0.0038720463062653612 -0.00617412 0.00606924 0.00774114 0.00899888 0.0033125 0.00913919 0.00456972 0.00922806 0.00453608 0.00525773 6.74409E-05 0.003936063051589806 0.013296969240015019 0.007326133598033836 0.011890927884859358 0.005015952898133776 0.00427931998841886 -0.002770968117636196 -0.0003542969143861094 -0.004518644341679832 -0.008189048308192214 -0.006832688144281463 0.001239864555695847 -0.001789675304564857 -0.0011233797061659834 0.005155006716106747 0.0036256350735252 -0.0025171836237685118 0.00301443 0.000208828 0.00419819 0.00925913 -0.000169789 0.0012672 0.000544098 0.0091812 0.00329897 0.00217716 0.00312031 0.008516941370896366 0.009777698632807965 0.00766475268050157 0.006237265166211971 0.0004785299973339661 7.895031423524967E-06 0.0012363000558826293 0.0006920172154814 -0.002702130153108865 0.00048093499326209483 -0.00461195103911884 0.003807089669155823 -0.002079545884070331 0.0008718574944894355 0.0079750243226664 0.0021797290613042295 -0.0010573420607297027 -0.000930014 -0.00160197 0.000342095 0.00310527 0.00512771 0.00620063 0.005469 0.00401976 0.0042268 0.00961134 0.00577863 0.0042199015313559 0.013523606873267991 0.016244898195514952 0.008928354476028171 0.003219711027860548 -0.0006652243094748511 -0.003867603405910571 0.0015197951275513052 -0.004757653290466013 -0.006327618745639997 -0.0072602657855211205 -0.008386944333584554 0.002407448600777141 0.003274612939379947 0.0006780228663041911 -0.0008256072649266703 -0.004876326454125618 -0.0071131 0.00316094 0.00513803 0.00268971 -0.00221654 0.00317489 0.00790014 0.00876289 0.00319588 0.00154639 0.0015516868314390604 0.007439685387196843 0.007334785951858023 0.004983589944075547 0.012384015177948262 0.006584322243099008 0.002510617253593999 -0.0023237758078452127 -0.006481419374065909 -0.00811754057121949 -0.0057308377764537614 -0.0037437905549214225 -0.00341252048488317 -0.00023522474994470545 0.0009887632080989783 -0.005887956755277238 -0.011189235263070151 -0.00695716 6.47547E-05 0.00198642 -0.00230496 0.00596722 0.00539035 0.00995904 0.010294 0.000824742 0.0014433 0.00134021 0.0067486935077561 0.0075870003247196 0.0061166250813342385 0.009894511070515203 0.014360306470302795 0.0150772108649707 0.013293137444244764 0.0068549802773528404 0.007312000120536031 0.008267420999013049 0.0009487751343465143 0.00702657823776876 -0.006059291417311416 0.00035145044133917257 -0.005389184581831651 -0.0026239592905165114 0.00027118734218631584 0.00463177 -0.00580728 0.00159592 0.00410466 0.005626 0.00716807 0.00780288 0.00831633 0.00608247 0.00268041 0.00752577 0.0046548 0.0054698 0.00828561620597522 0.003967407173798233 0.0067197381656908485 0.008175614201068115 0.0024521913040962363 0.010241768897003305 0.004442755144921362 0.0013795905896550396 0.008723006084859234 0.0024689312397338436 -0.00788148609734811 0.0011945705096023335 0.0012889145801222236 0.0020779016728241484 -0.005478510655900383 -0.007523000655900384 0.0030969844399623353 0.00694152 0.00329071 0.00682305 0.0070475 0.00327812 0.00193645 0.00257732 0.00360825 0.00639175 0.00988585 0.00525507 7.21087443609653E-05 0.007027842273773776 0.003056873529580948 0.0088979691644151 0.007678510845240711 0.004035634712381837 0.004968977211137293 0.00760489654121735 0.006145429564570176 -0.004644960023390075 -0.005737513670504851 0.007881324144906613 -0.004057576991560588 -0.0038831331881806043 -0.0027085931483310606 -0.0004930751483310605 0.0033247921392570946 0.00122682 -0.000378641 0.00415816 0.00574075 0.0087792 0.00371311 0.00536082 0.00835052 0.00474227 0.00968988 0.00588011 -9.03592E-05 0.002127484940225684 0.004418992257787225 0.0019613451049134596 0.0016942352738069668 0.002804098319931926 -0.0017117518586230506 0.0008741259096150556 0.00064226883918448 -0.0006505247168073014 0.0003375132151314176 -0.002305705704942336 -0.0033932889802652843 0.00135837 0.00023921 -0.000159742 0.0013357 0.0054667 -0.000550417 0.000540559 0.00479866 0.0067026 0.00742456 0.000721649 0.00515464 0.00618557 0.00876289 0.00948404 0.00312634 0.0076449 0.00409587464323319 0.002533184318236138 -9.016344444658237E-05 0.008580700981499654 0.0055538221683947816 0.0009704125779486542 0.00143409 0.0013737042375939947 0.00512369121062148 0.008450337822566892 0.0006103319455314177 0.00627555 0.00863644 0.00292912 0.00132144 0.00955694 0.00325213 0.00243599 0.0101026 0.0071134 0 0.00123711 0.00917526 0.00845361 0.000515464 0.00134021 0.00742268 0.00350515 0.00144188 0.006579734237593995 0.0061123626729324395 -0.00028628677552187503 0.009913445237218177 0.007205063266917427 9.891762932343192E-05 0.0020393475045114213 0.007457721039473727 0.0024222596096418266 0.0011133 0.00942225 0.00965875 0.000727842 0.00210374 0.00922649 0.00366766 0.00591757 0 0.0057732 0.00845361 0.00556701 0.00896907 0.00494845 0.000721649 0.00752577 0.0102062 0.00412371 0.00123711 0.01 0.00154639 0.00278351 0.00876289 0.00814433 9.80093E-06 0.0101475 0.00476784 0.00556808 0.00371134 0.00134021 0.00164948 0.00659794 0.00206186 0.000206186 0.00824742 0.00195876 0.00154639 0.00216495 0.00845361 0.00948454 0.0071134 0.00927835 0.0042268 0.00824742 0.00237113 0.00463601 -7.57743E-05 0.0072938 0.006056689909848025 0.00499327 0.00569535 0.010091517183690411 0.007980961643539123 0.002477227878847991 0.0027726913808954873 0.004648953162878156 0.00636020459932998 0.007270355276183816 0.00408855 0.00880532 0.00832651 0.00266258 0.0012087 0.00618397 0.00659794 0.00350515 0.01 0.000206186 0.00876289 0.00907216 0.00247423 0.00834563 0.00566842 0.0094825 0.00894174 0.005014823102789165 0.001185566839186991 0.010991223521706492 0.005600604041154645 0.008377487809510229 0.0013685766903098796 0.006264191571564317 0.00041893514091041674 0.004288647038166024 0.0018726577311900794 0.003131375027336599 0.0047669867449137 0.010070144754945455 0.00387288908113282 0.007564020497690601 0.00585777 0.00371196 0.00525773 0.00515464 0.00536082 0.0102062 0.00195876 0.00958763 0.00690722 0.00081033 0.00681731 0.00419156 0.00662524 0.007206396093269203 0.006929730361419261 0.0014821759097938877 0.004797928303328761 0.0009980974272259318 0.007765388743168468 0.005020097261348274 0.0033416930555632313 0.009532392892857408 0.007558255739010603 0.007211870013969763 0.003003668677421599 0.002373054754945455 0.005416667166884438 0.004939797878954083 0.00998414 0.00833456 0.000917846 0.00349463 0.00949914 0.00164948 0.01 0.00721649 0.00680541 0.00897078 0.00192791 0.0024356753701054563 0.0065462922035874095 0.010314394538301208 0.005072531089945705 0.01042906739965966 0.0034270864650195686 0.004375759044966713 0.009111263314460577 0.002652799461360872 0.008625105639184625 0.00395078736504596 0.0023572962463345895 0.006684170214359318 0.009514838521341575 0.005606218498637951 0.005640802350609014 0.004561635390501079 0.00903235 0.00327391 0.00108138 0.00392052 0.000496458 0.00607333 0.000927835 0.000309278 0.00227294 0.0011427 0.00846756 0.006269558389601898 0.0005955403904457982 0.0090622846935334 0.0022851967829903845 0.00979343495959503 0.009444679647182274 0.008076899524935071 0.003928005042626815 0.0010863819965960008 0.0005228072451555983 0.0004177911880423407 0.0032374527275837606 0.0007683631043599334 0.005703019960635344 0.008998982500509132 0.004911855909016606 0.00477119 0.00686495 0.00459882 0.00136342 0.00434913 0.00250097 0.00730531 0.00453608 0.00350556 0.00179983 0.00594709 0.00785095 -0.00010565929132819192 0.004030234552870212 0.006952404981249735 -0.0014357881865780986 -0.0004200265842549961 -0.0017207045062874453 0.000508548202638672 -0.005290277761842884 -0.003212880795620113 -0.009675119198540437 -0.0020493647957033623 -0.010436239631109899 -0.01000835718219656 -0.009118782067296695 0.005795443663503985 0.00252713 -0.00260551 0.0016581 0.00689023 0.00742413 0.00405989 0.0097232 0.00489016 0.00958763 0.000734531 0.00690452 0.00376885 1.8926532563352164E-06 0.004195456409177358 0.001418729471979543 -0.001699172902527253 0.004680036180008302 -0.004613669082195884 -0.00595318495001241 -0.0048802220429932175 -0.003819439595309158 -0.005904821369673364 -0.007931909910073571 -0.013309087789050676 -0.008257842126007192 -0.013156821098000654 -0.009003675513460917 -1.8375855850281964E-06 0.00530567 0.0038884 0.000130424 0.00254583 0.00368055 0.00389832 0.00603598 0.0067265 0.00123847 0.00363305 0.00421514 0.00460405 0.0031456521011024746 0.005944303159803386 0.00047855073441642004 0.0027490501472637804 -0.002734730098453434 -0.006022723954442793 -0.007809173379537097 -0.0076203490675762426 -0.007725706463497398 -0.006399915110779677 -0.001522002148829593 -0.00588911 -0.006943534019775896 -0.011008882361079199 -0.006431934153360053 0.002457236954580551 0.000187453 0.00505802 0.00399994 0.00566248 -0.00144284 0.00266099 0.00626949 0.00833427 0.00556701 0.00302267 0.00924952 0.009820648407506107 0.007585419793762357 0.0010510725251374952 0.004326992581543471 -0.004569307768623252 -0.0016548647102106995 -0.005529484201989429 -0.007448435155430282 -0.007647978696995666 -0.0003719064375869576 0.0024772497800494403 0.002429364518621833 -0.0014792750526876988 -0.00361551599708964 -0.0010491722249392184 -0.0044902013565040035 -0.001595462901176289 0.00136133 0.00402974 0.0015684 0.000131117 0.00219391 5.77714E-05 0.00024458 0.0055998 0.00938144 0.00255916 0.00699557 0.002224682133370054 -0.0017824739739535093 0.0038595504676553474 0.0036794178348918275 -0.003974906319588033 -0.009724320933293269 -0.008816352597621238 -0.00890332706063238 -0.008264404375542047 -0.0007767386451778401 0.0022341622851944115 0.003506605250153546 0.0059639310818188915 -0.0019442132827702811 -0.0004120394525434877 -0.0006443912728441605 0.005416412342234044 -0.00226685 -0.00371639 0.00234828 -0.00378332 0.00593542 -0.000173084 0.00860574 0.00772315 0.00103093 0.00269296 0.0026564851058381404 0.009062420340988621 0.0067432654144214 -0.0016289813550566907 -0.004075979384341064 -0.00904759249664573 -0.0083344822730907 -0.008189594425414394 -0.00877357788377417 -0.0025745282551743686 -0.001636919772496566 -0.0029579899556071813 0.0014020522591620945 0.0024806053845270763 -0.003849397239936774 -0.0014158566357250096 -0.009175722288223397 -0.00344395 -0.00823131 -0.00272586 -0.000282958 -0.0021024 0.00680505 0.00788704 0.00111962 0.003502 0.0071134 0.00474962 0.00611244 0.004876864138591589 0.006055337400853632 0.0038143980764124936 -0.003360016356941248 -0.004043183023713679 -0.0037382158037741237 -0.00247456912630268 -0.00710925279762226 0.00211683177362125 0.00015567327078869615 0.0025702810436445296 0.0034321536355899646 3.3473838811514594E-05 -0.008929941838362718 -0.006019006025939955 -0.00288872881341533 -0.005070774609498921 -0.0029789 -0.00492043 0.00175687 -0.00131192 0.00230661 0.00646989 0.00785868 0.00342212 0.00268041 0.000823907 0.00468669 0.003083510298612113 0.0062682852654796254 0.003226401607866609 -0.006570839341103878 -0.008422627438597502 -0.004351796729529474 0.0029470403497807874 -0.0015699803258079968 -0.00017152480103868264 0.0012184913074844083 -0.0017112849174008335 -0.005571764411158541 -0.00854677096686089 -0.011484875812001182 -0.010159485138236161 -0.005399674902480029 -0.011308137442614483 -0.00588541 -0.00055111 -0.00358391 0.000619826 0.000893474 0.00613416 0.00477871 0.0063417 0.01 0.00692246 0.006739601062666555 0.003952502026249535 0.002435368857642884 0.0025774423022353232 0.0009129806296464268 0.002803090199551374 0.0009219340952401021 -0.0009024704796726675 0.0029665514357749482 0.0011903636548316445 0.0031072960855863018 0.0004080911562117387 -0.0013830502966919451 -0.008172968830876209 -0.006360817545055837 -0.00613530110934734 -0.00017917417116474312 -0.004109109425795377 -0.00186952 0.00541249 0.00156862 0.00559647 0.0107409 0.0047392 0.00624862 0.00856422 0.00649485 0.00467356 0.005536651352351547 0.00424332873857458 0.004757061800854684 0.005940957832983638 0.0067147022520514426 0.0058992918220137905 -0.0006234163018887958 0.005105002819166329 0.0019148669385689015 -0.0016290989352977187 0.0024087152579413173 -0.0019949531150138013 -0.01133142652123696 -0.0036559753048396224 -0.009636233626676075 0.001980158921743712 0.002745278219471643 0.004952884119389832 0.00395963 0.00159085 0.0078318 0.00640552 0.0084114 0.00292024 0.0109186 0.00253564 0.00340206 0.00352076 0.005397982956490121 0.0072226656360901845 0.0009747695963542979 0.008759141740204169 0.005688486669268695 -0.001983545526351396 0.0032058950501246235 0.005736005559963616 0.001779567110350389 0.0037104471933267027 -0.00576614257931893 -0.001206418388013587 -0.0035821608676802736 -0.002713112845595753 -0.002586680245774195 0.00293843697431008 0.007971354410110735 -0.00023491883773436005 0.0051021 0.0104551 -0.000357184 0.00174095 0.00518559 0.00122134 0.00614905 0.00358533 0.00948454 0.00309837 0.006058748407506106 0.0029368671955326852 0.00879360781432574 0.007642379500047254 0.003838418841679046 0.003188185663043994 0.006888113097491572 0.006083586136936257 0.00396660554785832 -0.002196949055548911 -0.0024634277243386835 0.004041851513812673 -0.0009171850570531613 0.005293426846269009 0.0012699813103701045 0.005733089145336553 0.009469529877741146 -0.001168835597298613 0.00829905 0.00969125 0.00169562 7.98784E-05 0.0016694 0.00474904 0.00585065 0.00323226 0.000824742 0 0.00419913 0.0027246960124224337 0.005396206024061269 0.0025732769710968746 0.004784502343074992 0.0057735155202660255 0.001731603723221884 0.002956457838055537 0.0019320043597516603 0.004739768744209424 0.0008356099259261187 0.004362375560971852 0.006493077278203301 0.0034473863185363975 -0.0007128594119512163 0.007517121271728383 0.0044942039396078425 0.0030464308575161793 0.00385323 0.00328262 0.00193048 -0.000447352 0.0109191 0.00862584 0.00777969 0.0071572 0.00371134 0.000817665 0.00848065 0.0009761906775608418 0.011322400445271491 0.01310555704261133 0.01066144399702971 0.0075788293146657505 0.0012107224717612594 -0.0001824945839332574 0.003929776202479695 0.0023335135839775123 0.0029083915723027124 0.001470974080686359 0.010136150712211047 -0.003222189262066756 -0.0007837301907906289 -0.0028005757028030133 0.0006262068167516595 0.006913642840697073 0.00696566 -0.0012945 0.00326975 0.00151515 0.0103711 0.00743626 0.00131241 0.00320256 0.00639175 0.00729366 0.00501689 0.00748809342012417 0.001822078914900924 0.004837817938860079 0.0040613684968291075 0.004295002633718212 0.005101239276238382 -0.0027582905013583793 0.004103819074183643 0.0016272129984429581 0.002548640782246492 0.0020359169445400144 0.0027582467791217122 -0.006155482002738326 -0.0007945683380788478 0.004767575484239131 0.002613644983669875 0.0026923426952505393 -0.000263055 0.00290633 0.00926103 0.00976222 0.00365659 0.00892011 0.0080922 0.00628866 0.00701031 0.0057732 0.00174438562046578 0.000814060617182162 -2.4972500925074597E-05 0.00949221722844606 0.0043004839355643264 0.00424813565758326 0.0007157951159045355 -0.0008884230612368378 -0.000289380772201222 -9.529613469919508E-05 -0.006339536354956751 -0.005625828287868522 -0.0008760006825326885 -0.006447555145903886 0.001589655974328811 -0.006401932144044013 -0.0028190042990172658 0.00910142 -0.000580405 0.00353521 0.00726185 0.009862 0.00687903 0.00430736 0.00594479 0.00618557 0.00257732 0.00185567 0.006157761011472931 0.004345798545427984 0.00701221673808955 0.0009852911952891834 0.002800657510456903 -0.0014223865944952348 -0.0012058310115598068 0.00195646859186064 -0.0011515096356955528 -0.0021327925073484416 -0.00483647260913588 -0.00046847631840311616 -0.0025440569380640278 -0.006892686628125204 -0.002780607020576014 -0.002920880090003151 0.003249456114636862 0.00692169 0.00584649 -0.000770078 0.00185786 0.00442563 0.00430369 0.000977893 0.00747484 0.00938144 0.00154639 0.00948454 0.00139785 0.00821637 0.0006832435485487804 0.007845667937566763 0.0022335727011554615 0.006376192038922444 0.0015553523268905223 -0.0026628650686372694 0.0010241069251586711 -0.0028910861482855234 -0.0052645261327020675 -0.007189891309313486 -0.0044682917247602216 -0.010108784986774064 -0.002245343312812005 -0.005715461186200324 -0.004763415410468828 0.005057934589531171 0.00014064879987810074 0.000929992 0.00411973 0.00918765 0.000503989 0.00901395 0.000574512 0.00927835 0.00536082 0.00268041 0.00864393 0.00110746 0.004575629538183542 0.006621090064453722 0.008458177540739131 0.005079370749204065 0.004204666495352709 0.002610980701344915 0.002069548396508535 0.0029997542748914177 -0.003307386402497417 1.792497835443918E-05 -0.00494273894041656 -0.005919523377426155 -0.0013427467762536487 0.007446420765128583 0.006047787120511009 0.00243019712051101 0.004896368751551798 0.00593886 -0.000566756 0.00251117 0.00910963 0.00973247 0.0079438 0.00154639 0.00525773 0.00556701 0.0010297 0.00990473 0.00138272 0.00247120046692636 0.0032283396560811102 0.009217444254362413 0.0014529136899819666 0.0011174535410006074 0.0005130798353774707 0.006772884775182068 0.0013767611054939224 -0.004181835443342899 -0.0038672041986265423 0.005051143568313738 0.004007908354620577 0.00736345 0.00718421 0.00679219 0.00336598 0.000106541 0.00627974 0.00447056 0.00900377 0.00330399 0.00773797 0.00762887 0.00628866 0.00917526 0.00278351 0.0102052 0.00657857 0.00717704 0.0059336932480449096 0.002028811729935248 0.005899915553921137 0.006272155949835222 0.0037877353701054562 0.008038455305117318 0.00832439 0.00296974377510516 0.004224308774955799 0.0027582530863020623 0.001903829945908815 0.00580103 0.00331147 0.0068512 0.00567108 0.00961846 0.0047114 0.00135605 0.00133806 0 0.00979381 0.00845361 0.00587629 0.00309278 0.00814433 0.00175258 0.00103093 0.00731959 0.00401162 0.00249040377510516 0.002889364969933054 0.00012912345414529245 0.004437547685807811 0.006726769407695956 0.004439295632590795 0.0010392931828011158 0.002093220266085077 0.006137594612346507 0.00873675 0.00579578 0.000268838 0.00757366 0.00205498 0.00837388 0.00443315 0.00154767 0.00360825 0.0028866 0.000206186 0.00742268 0.00670103 0.00896907 0.000515464 0.00237113 0.000103093 0.00113402 0.0014433 0.00402062 0.0056701 0.00701031 0.00886598 0.0085567 0.00772335 0.00633243 0.00450266 0.00422971 0.00618557 0.00371134 0.00443299 0.00360825 0.00804124 0.00845361 0.00938144 0.00969072 0.00103093 0.00886598 0.00752577 0.00278351 0.00670103 0.00278351 0.00701031 0.00278351 0.00103093 0.00762904 0.00340792 0.000207009 0.0007814369917704253 8.1514E-05 0.0091974 0.009312879936595065 0.0067383749479513755 -0.0015207278129882214 -0.0011180260060499483 -0.0008722409792884444 0.0032512539551633876 0.005843154516517186 0.00917406 0.00641672 0.00423388 0.00436115 0.00163816 0.00835005 0.0101031 0.00237113 0.00505155 0.01 0.00257732 0.00443299 0.000103093 0.00970231 0.00712064 0.00182244 0.00234595 0.002260716059931716 0.007983871396109914 0.007960203009049236 0.003880336105954389 0.002898542985153804 0.005606586998123333 0.004147612108398553 -0.00022979479073618737 -0.005177604034687205 -0.008004144170528962 -0.01769172915745633 0.00011325471162929387 0.0069757765563524515 0.011824664072346478 0.009391337132137396 0.0035876 0.00670069 0.00917526 0.0056701 0.00670103 0.00412371 0.00257732 0.00298969 0.00876289 0.00194979 0.00336106 0.00122588 0.000722611 0.000321010090927166 0.004620860078239786 0.010570022364222952 0.004600392455538406 0.004159236667544709 0.026740424598738415 0.036381423467638764 0.052522148696120735 0.045556227696134974 0.035505651737021485 0.02681933545063317 0.00776480995016204 -0.007779843443647548 -0.014531926119581838 -0.005274214467265228 0.00175902 0.00536271 0.00655531 0.000411481 0.00368518 0.00659794 0.00783505 0.00876289 0.00783949 0.00432553 0.0058375 0.0055601554734611945 0.004930836099718299 -0.001561965786111607 0.0036542839034779395 0.000907510204399104 0.003971448285787089 0.009568926700416255 0.02932170812380926 0.03980869862209535 0.04791026406144407 0.07035145383844349 0.08343193183521784 0.07215733361386377 0.031437309209807134 0.011423297328683203 0.00432982208658806 -0.00279677012795221 0.00267846 -0.0123197 -0.00431714 -0.00477944 0.00706851 0.00894594 0.00958763 0.00268041 0.00259424 0.00688268 0.00143414 -0.006327981139665671 0.001208294276556092 0.0005034417261767098 -0.011698891613693068 -0.013071633164845725 -0.01826403367599958 -0.020860185150827965 -0.005231273013860356 -0.004260772286485065 0.00368980252945873 0.029996358469125302 0.037583203271011084 0.035793852756526724 0.04484924472025317 0.04638368562053923 0.03365257752792538 0.0366954 0.020801 -0.00524887 -0.00804998 0.00534073 0.00665327 0.00891828 0.00515464 0.00989787 0.0084914 0.00328471 -0.00161537 -0.0005784021093282607 -0.005459538947640181 -0.005928298742942761 -0.01448686916392681 -0.024925588014741616 -0.02985074068884063 -0.01399822425284643 -0.014503925803904728 -0.01915919388398625 -0.042260779251914134 -0.026125321919972473 -0.016510874086575585 0.0030292048302641666 0.008588228992718782 0.0058657464107063784 0.00554579 0.0377874 0.0286796 -0.00587224 -0.000420851 -0.0036939 0.0060059 0.000179632 0.00649485 0.00976592 0.00844802 0.00255344 0.0070998924099670456 -0.0028227854021591267 -0.005803252228383087 -0.0027325032169562076 -0.011207404117796254 -0.00917322830304 -0.013994677607463264 -0.007187041495507903 -0.021003162170034402 -0.03660465118669196 -0.056782103377302724 -0.04843998625809568 -0.04786931048484317 -0.018108549062795763 0.007954112305794552 0.040129763320993266 0.00977983 0.0208412 0.0261935 0.00915331 -0.000659971 -0.00181111 0.00621541 0.00968969 0.00418657 0.000738062 0.00444473 0.0087382 0.0035456337213592287 -0.00037325678193861155 -0.005758525607505349 -0.006347853671633328 -0.0051163742716223565 -0.003822419839951249 -0.020878612484953242 -0.049605876144518155 -0.05279452953908834 -0.06217554324040371 -0.030557141238807414 -0.0219263 -0.025181940158235185 -0.02851840456817474 0.02377590234315216 0.04157888140021108 0.0319637 0.0312328 0.0218972 0.0149806 -0.0139403 -0.00384269 0.00549411 0.00708291 0.00154639 0.00824428 0.00335808 0.008956162045431102 -0.0010239411431229764 -0.008888049324143967 -0.01463590884565083 -0.02020422820477462 -0.015727802907834623 -0.023173481308167845 -0.041136018136515067 -0.060300509937183576 -0.04058852070807545 0.0008535436741445409 7.365565814462921E-06 -0.006108003998888495 -0.013265641902702541 -0.021432625637355013 0.009037172350200403 0.025123883013378395 0.02989 0.0334269 0.0396376 0.0225877 0.00493554 -0.000256735 0.00838209 0.00730439 0.00690722 0.0067831 0.00363235 0.01088329632974792 -0.006716679772831816 -0.013530255795518904 -0.0044760389654715915 -0.011804543254740816 -0.014412424223792564 -0.015794097033838737 -0.018077120105973482 -0.007953334793752678 0.013774574765997027 0.018703368687129733 0.017686545965085454 0.0036036335389731332 -0.008035934502559119 -0.02111317423010924 -0.01877540253505818 0.0026520207355982444 0.0142729 0.0229222 0.051356 0.0215335 0.00406791 -0.00263581 0.00467164 0.00555667 0.00309278 0.00851397 0.006517520139676314 0.00039210076876044575 -0.005083840778136115 -0.01150267297497007 -0.013989663457539532 0.0028352300581254686 0.0025282933345192036 0.01682780548126143 0.024614298406528866 0.026806422819114748 0.005488324931928223 0.015227967562073076 0.01740635431362881 -0.017041974110157145 -0.03224503998781952 -0.03377297806223839 -0.047432623027949775 -0.0185041 -0.00690698 0.006038 0.0452803 0.0158684 0.00395589 0.00203506 0.00482177 0.0050632 0.00298969 0.00578862 0.000702605 0.008833341650127701 -0.009175900207060262 -0.012060831685374264 -0.0027387419689283467 0.0017575596508383458 0.02966089608043015 0.032572756778851866 0.033262930865536965 0.02406023809982976 0.00853249567266255 0.0036638244462838146 -0.009345415232398105 -0.039997607670612785 -0.046907950630736 -0.03788421279276868 -0.0380043567540883 -0.033906060127952206 -0.0207854 0.00167308 0.0326 0.0114797 0.00411102 0.00730225 0.00763966 0.000463407 0.00453608 0.00496828 0.00753462 0.0010171789163073975 -0.009209822545955223 -0.010125292713639952 -0.016554888158841638 -0.0026321223413693124 0.02014418631381394 -0.0018077216049040535 -0.008243235987871819 -0.0014323293282404882 -0.020134651397661952 -0.02347530238887326 -0.028365403812109447 -0.03153967079801459 -0.031736641740388316 -0.048748246045042055 -0.04754992476209835 -0.015087586247534047 -0.00134534 0.0105012 0.0153826 0.0142159 -0.00775593 0.00779425 0.00109098 0.00838646 0.00175258 0.00306018 0.0037801340766649852 0.008350433102771448 -0.0039326640364379965 0.009035250205290703 -0.012662517683618639 0.0033654029356023946 0.0028625728258433263 -0.002881795463789249 -0.03769473494388685 -0.028134269588498406 -0.026589486528765544 -0.006437880068280402 -0.019802986461876736 -0.044310896062020405 -0.0462001518042757 -0.028062032534155283 -0.029016892587722488 0.003799345468758666 0.00379755 0.0129903 0.0209273 0.000408543 -0.00543531 0.00331937 0.00792594 0.0012458 0.00412371 0.00909337 0.004614400704318963 0.01199799916003369 0.015377652541236884 0.024553206844273107 -0.007475473261573688 -0.01803410748394994 -0.005551222031399994 -0.005664627987596451 -0.03101841655177934 -0.034548661173604125 -0.0002501631943217643 -0.0026903354920525028 -0.026904381441789717 -0.03675130949867673 -0.04495517341812496 -0.03461422899180869 -0.004371508378695008 0.015561473240657112 0.00516676 0.00863113 0.00328159 -0.00651783 0.00263656 0.000780103 0.00652013 0.000580514 0.000103093 0.00411721 0.0007111448531704716 0.007675212119968876 0.036298156675393246 0.028765142770001098 -0.02597372612838602 -0.0030816467639869713 -0.0018729769980063168 -0.01607874859687235 -0.023087443853629062 -0.0017593889631787646 0.008260696084775651 0.005257499117701833 -0.013085470118570967 -0.023937764702115553 -0.022887951751764758 -0.0065126593103552195 0.020326395335460334 0.010021928144692955 0.00648944 -0.010423 -0.00528309 -0.00327011 -0.00506088 0.00401309 0.00355882 0.00512219 0.0071134 0.0101255 0.003480652045431102 0.0038209628937768947 0.037122595281915215 0.01541730189065524 0.005044798061671671 0.017747471828881686 0.009207655049598636 -0.018704842144203072 -0.00279520541808326 0.005262897929115045 0.0004909340822187471 -0.016251416259378995 -0.0271886906652427 -0.03310742142801455 -0.01915503914912366 -0.0016003213581388365 0.013957752388516707 0.015517025852615296 -0.0262353 -0.0189879 -0.00723066 -0.00751378 -0.00251457 0.00883063 0.00727808 0.00947213 0.000515464 0.000721649 0.00662856 0.015363872531855276 0.021901098278472125 0.016888322106603123 0.009902672677583801 0.025371215824170536 0.028111865092529647 0.02215919597263926 -0.0006128419886831154 -0.0073526640852732 -0.019348216376656974 -0.03898864298136618 -0.029227830070610635 -0.0029100780561886704 0.019481738752254445 0.014116513011783065 0.025011237894092805 -0.01626370191928315 -0.022431 -0.00215265 0.00440095 -0.0104992 0.00121585 0.00187735 0.00387329 0.00127393 0.00670103 0.00301487 0.00483493 0.001979529400945744 0.022999647848370382 0.03288094425438452 0.009836706546624644 0.018169051177386483 0.026950685006667627 0.028246011637688254 0.0017159004191680113 -0.005176185564999398 -0.0058812263837462065 -0.013212296426319674 0.011537897044865256 0.012253375139510404 0.0016369300080243995 0.019296129363206824 0.0006861177817570642 -0.021232533635575864 -0.0217108 -0.0164014 -0.0114722 -0.00415914 -0.000281755 0.00800157 0.00402615 0.00309867 0.00453608 0.00158744 0.00920261 0.019673719534827112 0.018794499673521026 0.019277232737859373 0.0022185751589592372 0.0029915578351689073 0.02247693747403695 0.0339553674203166 0.018657193148435763 0.019404239321813885 0.026596523855053882 0.026051313029217094 0.03379574767010544 0.014108555407717386 0.005938915463455941 -0.0014154799284363888 -0.011635804052243848 -0.020321330063976104 -0.0264328 -0.0311132 -0.0248929 -0.0140554 0.00370774 0.00274088 0.00640932 0.00350515 0.00907216 0.000618557 0.007596351644307922 0.01999920282473398 0.015560380764334742 0.004598150279057267 -0.0008024463428844995 -0.008425524962127982 0.023453053198324574 0.007129428419662055 0.01586633241536895 -0.006205535535210754 0.0007031049789507469 0.011028206354426173 0.038908776389238446 0.03470770057893038 0.008639815202801326 -0.00385698660361806 -0.014791062383355962 -0.00026971 -0.0256651 -0.0266186 -0.0265201 -0.00666951 0.00493725 0.0089546 0.0071941 0.0028866 0.00907216 0.00948454 0.005358046347076945 0.017958875937231333 0.003217485665890014 0.010778251063648403 0.01422414859379275 0.002953216511014259 -0.004453126359871264 -0.01431475915580406 -0.012945345910457082 0.002780633731169215 0.024539964933244694 0.04563567675838143 0.02727622639942758 0.01609961582717657 -0.00988561481492907 -0.006249943262786956 -0.0023823011726374 -0.0155576 -0.0194288 -0.0277048 -0.0100984 0.00607565 0.00587071 0.0077291 0.00767778 0.00195876 0.000309278 0.000927835 0.00661822 0.00546229 -0.0007205412234335971 0.006418457649715046 0.01272170719558701 0.004913465611674378 0.0012677478755027997 0.00843463234014127 0.02279057504859523 0.013764363642672755 0.004003812428910843 -0.007632003083133804 -0.019529870310051527 -0.025091368519199898 -0.04091497883835428 -0.02716956001793465 -0.017595797107696865 -0.016879697107696864 -0.005408787326210474 -0.00231253 0.00933566 0.00168299 0.00148494 0.00387195 0.00471985 0.00587629 0.000412371 0.00618557 -0.00132681 0.00349198 3.6027050302012426E-05 0.0003967118089908937 -0.0022335687330340944 0.005671589402440453 0.003614504477905261 0.0021066471832271168 -0.0015421962768306446 -0.013329391317996025 -0.019497307792923305 -0.02511758059064511 -0.02829050348974585 -0.01322362688670699 -0.02260621827882241 -0.0038358196317288444 0.0031027185736570632 0.002690628573657063 -0.00010019608188377428 0.0022086 0.00755823 0.00671346 0.00576982 0.00801779 0.00578166 0.00195876 0.00123711 0.000206186 0.00989711 0.00526821 0.00529309 0.001106957691921139 -0.0011362610368108716 0.00348767267068651 -0.0014858408886983358 0.0036101504839002605 0.005082138525749946 -0.002170625867416387 -0.0064728870595704945 -0.009474360112449723 0.00011553368741487694 -0.00249842836801583 0.001809197897659862 0.00190106 0.0036687 0.00172021 0.0036787 0.00430002 0.00574248 0.00183209 0.0070028 0.00732711 0.00918426 0.00742268 0.00690722 0.00927835 0.00412371 0.00463936 0.000173948 0.00642527 0.0013286728745553675 0.002161062158916253 0.007224838079988673 0.0030135994463022903 -0.0005197475265388057 0.003623800850550747 0.0043748 0.004978503853892617 0.00046663257771371056 0.003818935196849698 0.0012549493950622553 0.00568764 0.00806281 0.00802493 0.00239673 0.00892076 0.00834022 0.00267313 0.00175442 0.0102062 0.00773196 0.00195876 0.00226804 0.0028866 0.00896907 0.00195876 0.00824742 0.00103093 0.00725607 0.008580853853892617 0.0022671133562919446 0.006442542649145658 0.0014414725092869107 0.005070872991023488 0.0007140821371308705 0.005724346844916105 0.0008936738607802007 0.007056570664612829 0.00396624 0.0102885 0.000959866 0.00565429 0.00349611 0.00435052 0.00691511 0.00424935 0.0043299 0.00670103 0.0043299 0.00608247 0.00659794 0.00402062 0.00804124 0.000515464 0.00391753 0.00659794 0.000618557 0.01 0.0014433 0.00762887 0.00649485 0.00134021 0.000831462 0.00115412 0.000418367 0.00237138 0.00969072 0.00969072 0.000206186 0.00154639 0.00340206 0.00731959 0.00309278 0.00175258 0.00340206 0.00412371 0.00618557 0.00103093 0.00731959 0.0101031 0.00907216 0.00123711 0.00752577 0.00371092 0.00724916 0.000148479 0.004532504350596937 0.00535775 0.00800201 0.003635472301734955 0.006526527644831933 0.0012911193923601015 0.006892257845750453 0.0024623915452266975 0.005687084929136604 0.003804091355564548 0.00059498 0.00575192 0.00143426 0.000819796 0.00421514 0.0074217 0.00113402 0.00546392 0.00865979 0.000515464 0.0101031 0.00216495 0.00989691 0.00103225 0.00185612 0.00121259 0.00372703 0.009647813144155701 0.0010572542375425265 0.004489709091609967 0.008052204266339633 0.005488830744185164 0.00047095764942400186 0.009604267402814382 0.0027021445786855466 0.004209952906651196 0.00718492055546311 0.003676124780601772 0.008765581574439631 0.009399722178517301 0.0034466692602373463 0.0038325671204389477 0.00477765 0.0051585 0.00814433 0.00123711 0.00474227 0.00402062 0.00257732 0.00463918 0.00649485 0.00289022 0.00980042 0.00115351 0.00295348 0.007942043046310516 0.004890581148010234 0.00443598802941569 0.0006322427977085843 0.0070614560042195 0.007042084322518113 0.009571502652663905 -0.0001514083739353734 0.0033907780645313274 0.009286881991104792 0.005202502216827397 0.007922020681225961 0.006806782178517301 0.009232824279596798 0.0074664189484343725 0.0102631 0.00245234 0.00952221 0.000779057 0.00566387 0.000824742 0.00824742 0.000824742 0.00649539 0.00989251 0.00205019 0.008989041013319845 0.007335141123548133 0.0025085794753145077 0.005898621099286898 0.005580109498072645 0.0035600680745583807 0.0009689764317659276 0.0005280458170398612 0.001424908711125018 0.004349685745088888 0.007475532728856057 0.007131707942365959 0.0014663373084034402 0.002052936707268091 0.0014839594140792322 0.004912524717658876 0.004296113346239634 0.00585526 0.00161191 0.00473309 0.00124239 0.00770934 0.00577352 0.00886598 0.0071134 0.00165157 0.0039653 0.00365958 0.001847207308980816 -0.0015817748964508341 -0.001991844958407895 0.005045141430426333 -2.3428529672874575E-05 0.00037240677195374576 -0.0015476198816812595 -0.005526573088882173 0.0025640130269226867 0.0005359104919786667 0.0005240824047543559 -0.0035377018651400025 3.380342051717211E-05 -0.0035042600467765695 0.005632853591209474 0.005291763953582139 0.00566511 0.00613598 0.00981859 0.0060291 0.00826928 0.00535431 0.000310067 0.00618557 0.00319596 0.00804056 0.00166131 0.000775212 0.0021870362102616274 0.00323372399064049 0.006487560753682996 0.0037049415657551873 0.0004205754283050429 -0.0019241903696736364 0.002992269170207963 0.0020719942121519832 -0.001843208904724462 -0.00048600270357062784 -0.0002832141382156603 -0.004212037717958183 -0.0010667792061982552 -0.006798684407558514 0.002017044944726819 0.00276894 0.00243793 0.00603013 0.00656773 0.000435057 0.00736872 0.00579486 0.00395033 0.00927835 0.00915634 0.00522224 0.0012054 0.006408867582000622 0.00019332151072208717 0.00165531580348602 0.002885824723563618 0.003081717215297756 0.0005957911002621055 0.002848423459147612 -0.0037353322224114864 -0.0054554188159504895 -0.0008000480348112137 -0.00270847727767044 -0.009619487374494862 -0.008729409433733466 -0.004560125786866561 -0.009846749159746856 0.0009844864360294206 0.000193473 0.000249945 0.00463575 0.0089813 0.00403159 0.00423567 0.007635 0.00651393 0.00466199 0.00311219 0.00929709 0.0020874 0.00221276132854598 0.0015540445625667235 0.0019868006472085766 0.0038568981394439764 -0.0016880668643363904 -0.0032986065603376837 -0.0029272489135615995 -0.0003092759123034447 -0.00020927201346405267 0.00016913892718139461 -0.004807984431389888 -0.00388177 -0.007955228148746218 -0.007991353945380267 -0.009292105587131998 -0.0005728626788885366 -0.00256552 0.00180443 -0.00123591 0.00995233 0.00561965 0.00494388 0.0066796 0.00587402 0.000309278 0.00414813 0.006076 8.204120636820778E-05 0.002474508044128097 0.006363553588866485 0.004346877064631229 -0.002592548953729518 0.001141207530223768 -0.0022040063380384194 -0.004160931523496702 -0.004018383104072928 -0.0018595071265230694 0.004367711400837041 -0.004454737416211114 0.0011166109159804192 -0.0028276194837922094 -0.011406061356186452 -0.008775430680535299 -0.0025183516398436345 -0.00335388 -0.0029965 -0.000516088 0.00900738 0.000672795 0.00500375 0.00125559 0.00907952 0.00608247 0.00535315 0.00419016 0.002823480552299319 0.004888221892922997 0.006131180572755576 0.006076875685069218 0.0017118360417654967 0.0054033615462643365 -0.0029542339717153797 0.00011511524718924466 -0.0010042744000166833 0.0014654286167618338 -0.002353824049655767 -0.001146621324066876 -0.0044349100991278945 -0.007427595701498549 -0.005032588864766035 -0.004061826265243622 -0.003783347386455362 0.00151601 3.61275E-05 -0.00112047 0.0072424 0.00444218 0.00375008 0.00656681 0.0061874 0.000824742 0.00961977 0.002747665113096012 0.0031486024455525076 0.006036853897147234 -0.001284145686135947 -0.001148026803664698 0.006846610954396809 0.003783672647257353 -0.0004207119193170059 -0.0034451867850237264 0.005002124305125779 0.00022336842576628632 -0.003296560032240024 -0.0068202095955995756 0.00024622924343593427 -0.007935014961148333 -0.005680504541732 -0.003717362646394274 -0.00025111 -0.00425012 -0.00276143 0.00369472 0.00701818 0.00826463 0.00478883 0.00306199 0.00938119 0.0042268 0.00629991 0.00729094 0.0065211602941495205 0.0010005283538823662 -0.002403066606859176 0.005447216286272069 -0.00017070669762633877 0.0036808637802739266 -0.0014250858560784312 -0.0021729221901677642 0.000912026940404773 0.0030791520852760123 0.001440177004498773 -0.004478637565412018 -0.0017095446992362422 -0.010585877467269288 -0.00874146703086436 -0.0017982845872004083 -0.006613976653760366 -0.00162967 0.00117452 0.00397141 0.00269494 0.00998994 0.000869812 0.00222126 0.0064918 0.00340206 0.00567605 0.000377681 0.004651319786722423 0.005701561131144913 0.0012964994840114514 0.0008583512875735414 0.001666140923204241 0.0019487493881465323 0.0007456551123896105 -0.003459048987781405 -0.000673501970181242 0.004634447844563145 0.003396601707660139 -0.008659206202252119 -0.006459814212891465 -0.005965579195401218 -0.005739842885272969 -0.0018043879589285552 -0.008826742374163568 -0.00663179 0.00427262 0.000816799 0.00539483 0.00806766 0.00457733 0.00735891 0.00155076 0.00371134 0.00195539 0.00964473540449635 0.007351259805726767 0.0016531875049320024 0.00895713047804059 -0.0011290553579208762 -9.596923255013722E-05 0.0059697269444165466 0.003108734969210234 0.0005835371811555774 0.0017339296194002838 -0.007389484704287315 -0.007714782574078796 -0.006561165735618523 -0.011893640950260765 -0.005409058974561046 -0.006015478817411221 -0.0008350902018221018 -0.0066127493784458105 -0.00192369 0.00696818 0.00432566 0.0104279 0.0121757 0.00346437 0.00662405 0.00556916 0.00907216 0.00359463 0.0048971483825448045 0.005459195418636001 0.0021921034053598415 0.0009250772340255975 0.004788656256240893 0.0044639362899607325 0.005525497075763675 -0.001921407492640858 0.0016054260750856754 -0.0022674222510619224 -0.008711970078446698 -0.007835487555056524 -0.004149250941538972 -0.003399818800483034 -0.012796948294353926 -0.00419596484203837 -0.0049990050433252955 0.0010933710107949675 -0.00448799 8.7342E-05 0.00211734 0.00908843 0.0029066 0.00538041 0.00574589 0.00147891 0.00247423 0.00679588 0.0016584491432770708 0.007223016500539656 0.009448393364311044 0.00921751645669437 0.0018928273848678766 0.0007621369684640005 0.0030762077278531277 0.001916310330021812 0.0056634092891413804 0.0026581853140325066 -0.003512041094243804 0.0007663041638250885 0.0007574134569596373 -0.00036837863539330344 -0.006456320766842228 -0.006833014743048703 -0.0016723712164110828 -0.0020934414795253068 0.00554428 0.00265559 0.00976924 0.00869 0.00159758 0.000881416 0.00118677 0.00206175 0.00907216 0.000513138 0.002483436906368208 -9.41881586014601E-05 0.0013111957167270627 0.00590229289527838 -0.001524591108870051 0.0036944998236556692 -0.0030533989589933224 0.0013823544862014208 0.006063891211845004 0.005132992917168696 -0.00045775665284986133 -0.0003132634180877998 0.0013158775846510663 0.0020518269887421967 -0.009267756293298072 -0.00825256141907422 0.0013545767819275326 0.0010509905828352875 -0.0017296 0.00592427 0.00252631 0.00476907 0.00183382 0.00524502 0.00302349 0.00621959 0.00659794 0.00226804 0.00753493 0.004036935938248509 0.001802064319284957 0.004589459676928575 0.0015091626884870877 0.0019612166980860373 0.005045821278856058 0.0003960101372984337 0.008563608288990145 0.005513558122809119 0.005981469381132488 0.0033442011392452236 0.006551914190590371 -0.0041978672583159555 -0.0007402958698539559 -0.0032727299407397507 -2.6586475704312245E-05 0.00553158019359451 0.00681542 0.00453678 0.00261631 0.00363925 0.00249652 0.00749748 0.00188289 0.0100065 0.00886598 0.000214692 0.00176549 0.0035560568650364758 0.003265762423208738 -0.0013411784902067469 0.006246216818746938 0.002544310997265768 -0.003355379196842702 0.0059906641725300065 0.007923731080942574 0.003388108248575506 0.0068276359825837855 0.006837582682228506 0.006037261649128444 0.0008546811552896782 0.005013004307649155 -0.00043223714127859866 0.006600279391519532 0.002599737197876752 0.00502783 -0.00238353 -0.000142777 0.00327975 0.000411088 0.0100503 0.000752569 0.00793568 0.00113402 0.00547592 0.00890722 0.009516319852655608 0.005345240076153163 0.003973886084256811 0.005018862506298107 -0.004136164167756433 -0.002540852592454651 -0.0019966931919999137 -0.0024843675467305796 -4.354919066117135E-05 0.008778504221934434 0.0022637885194545363 -0.0027057821957981384 -0.0012945362663024345 0.002779851454599014 0.0014474308322822748 0.0025231549162455643 0.003827721673119817 -0.00155178 0.00629472 0.00112523 0.00358457 0.00324644 0.00153856 0.00211769 0.00628866 0.00546392 0.0071134 0.004635887064380294 0.005735608918175113 0.005239165274683201 0.006475695239156851 -0.001107891891949034 -0.0039884953469011665 -0.005173245733317687 0.0017956967290189343 0.0020051479319799425 -0.0015272612189914279 -0.004612237512315731 -0.004833857041831172 -0.0035684989894686253 -0.003169664187004226 0.0011832112591988538 -0.0017793707310609515 -0.0011020097700259201 -0.0035465 0.000450433 -0.00364836 0.00245531 0.0033296 -0.000710902 0.00497789 0.00497532 0.00793814 0.00938144 0.00701031 0.0012057587680362183 0.0027405982769326243 0.00261606458450019 0.0001993550039912601 0.0032365275992569174 0.005374107625553059 0.0010446508087707572 0.0033418829287244806 0.001261557783104115 0.0013145222438988653 0.0017209776314192746 -0.0010272058876375039 -0.009385681655364408 -0.00011310053869394699 -0.005554574711202129 -0.0006636272545336645 -0.002603702922967736 0.00532569 0.00360722 0.000740595 0.0040632 0.000416226 0.00586677 0.00949078 0.0090757 0.00113402 0.00948454 0.000618557 0.00330097 0.00758106 0.009103235794935025 0.0022660437528551317 0.0016028976541947034 0.004882212410867865 -0.0031339473799409825 0.0015729049343348454 -0.0051368425363519515 0.0023600909718558684 0.0007784396675059008 0.003922522950500788 -0.0012155037732391194 0.0032766471444736715 0.0011219471626919212 -0.000929662008692003 -0.0017808316746239486 0.0008694483253760515 0.005741955641895101 0.000369133 0.00335133 0.0018885 0.00289017 0.00804132 7.40967E-05 0.00226804 0.00453608 0.00835052 0.00854081 0.0041925 0.009125566238088478 0.00042004273773031355 0.004606624896270418 0.008643777674781835 0.005936789910330159 -0.0009662012232263661 0.001392937421957918 0.005231615961079685 0.007552871924724697 -0.0027035400898952535 -0.005812789011015762 0.00610722401246509 0.0007054328995004679 0.0010146452442238198 4.218709588075212E-05 0.0048692880958807515 0.006976750045437902 0.0051292 8.9781E-06 0.00337239 0.00365871 0.00908701 0.00309554 0 0.0057732 0.0101031 0.00865836 0.00443421 0.00764337 0.002291835722514602 0.00794309670131491 0.0030400349264536734 0.004701321438379272 0.0054341150898210965 0.006720699096350368 -0.0007642748244010802 0.00159887607897574 0.0007642912267131465 0.004700526494040848 -0.0005154559105677473 0.004854322200624906 0.000596441 0.00886724 0.00690319 0.00594182 0.00576327 0.00195461 0.00010074 0.00285133 0.00340451 0.00278643 0.0014433 0.00824742 0.00298969 0.00381443 0.00639118 0.00512111 0.00946182 0.006172312215189895 0.001101767041187525 0.0035176415709481444 0.0024325528418509285 2.3562913319845773E-05 0.0031231766944499455 0.00238281 0.009293744805859766 0.004042230544445204 -0.00021027887340808196 0.004793564610358162 0.00124721 0.00851127 0.00956093 0.00885576 0.00854369 0.0083739 0.00168773 0.00515344 0.00525773 0.0028866 0.00556701 0.00525773 0.00371134 0.00494845 0.00402062 0.00783505 0.00835052 0.00608052 0.007415364805859766 0.005781631565922365 0.007337074159114497 0.009389469229839308 0.0032257785805717798 0.009005283774712013 0.002657843386431545 0.005799117275636475 0.005195584707566825 0.00980031 0.000236105 0.00225774 0.0011082 0.00801771 0.00957995 0.00869483 0.00441546 0.0043299 0.00649485 0.00701031 0.00154639 0.00597938 0.00927835 0.00402062 0.000412371 0.00257732 0.00175258 0.00402062 0.00845361 0.00793814 0.00907216 0.00907216 0.00113402 0.000438132 0.00407659 0.0061215 0.00120869 0.00257732 0.00824742 0.01 0.00134021 0.00845361 0.00340206 0.00319588 0.00628866 0.00123711 0.000515464 0.00206186 0.00721649 0.00752577 0.01 0.00175258 0.000618557 0.000103093 0.000234199 0.0048067 0.0069631 0.0015993097534833126 0.000181691 0.00199515 0.0033507000171905214 0.005261540691918488 0.004358193541051035 0.008130375406469466 0.005490307633076978 3.93420874160435E-05 0.006438419929305483 0.00740388 0.0103507 0.00946419 0.00970788 0.00270377 0.00398134 0.00587629 0.00927835 0.0071134 0.000103093 0.00721649 0.00319588 0.00556701 0.00700983 0.00783489 0.00164461 0.00527278 0.005548521526334725 0.010544210145325198 0.011174611093684122 0.009826699528301733 0.0065994490851616775 0.0026641547863649247 0.004658823618989183 0.004752723009182647 0.0035159704169316123 0.0032148288788732557 0.002463637619451289 0.0010039290571315993 0.0022291383184530854 0.005103399363903033 0.011454005954651203 0.00779459 0.00204787 0.000206186 0.00824742 0.00938144 0.000824742 0.00103093 0.00216495 0.00515464 0.00206107 0.00124035 0.00157768 0.00287572 0.0027116055122678104 0.008858142815272758 0.0056949569670038955 0.01008918241128578 0.015363259947271805 0.013426816328555118 0.006789378565915445 0.0016463799429375487 -0.00538462833211021 0.0009778327444937651 0.0007296982522674582 -0.01323726223602031 -0.005585501681546914 0.01112012681850366 0.005925761409656433 0.00718731 0.00847399 0.0115404 0.0040691 0.00419184 0.00701031 0.00628866 0.00835052 0.00918705 0.00206246 0.00651321 0.010347270561529722 0.00955461606886273 0.008579735262671511 0.0014786815790773689 0.002543118309513836 0.0019314093645440968 0.0020595577155602565 0.004093602739411012 -0.005888057675626794 -0.01632826363911034 -0.008101319601299001 -0.02122100826337905 -0.010265704394531743 -0.011071002648206171 -0.011998999736913742 -0.015700574724429154 -0.017691028363599582 -0.00363742 -0.00256856 0.00394291 0.00808738 0.0100166 0.00317875 0.00340206 0.00195876 0.00942642 0.005932 0.00779305 0.004106655847488599 0.0041807768450225465 -0.006515544277095675 -0.003504485910784959 -0.004464097372931096 -0.011383942204182724 -0.002172450091227244 -0.0013034935094449042 -0.023114487863493405 -0.015374270175789575 -0.014652967986040365 -0.002606054395818662 0.002694741612116845 -0.00739400178911462 -0.025019921054720035 -0.01796611133447476 -0.00909937 0.00233784 0.0111406 0.00897134 0.00787484 0.00466347 0.00538538 0.0056701 0.00762903 0.00658946 0.00242644 0.00669323 0.004021269236869789 0.005277484504716353 -0.009313340370650354 -0.011605770680064189 -0.015428778411380203 -0.027613741562032966 -0.013238500097322723 -0.020570356871074627 -0.03861640419863314 -0.026888061551536436 -0.010502874638204986 -0.0012145182645878709 0.004612124088457305 -0.012526951724953784 -0.023070365724591178 -0.0226362 -0.0144505 0.0157249 0.0175527 0.0248827 0.026258 0.0148818 0.0061843 0.00216495 0.000820111 0.00211046 0.00106282 0.008931997897200636 -0.0005335737663976238 -0.006859121167188194 -0.03244792904435137 -0.015093101204157237 -0.016810365986157982 -0.02059070836894116 -0.004839940153426307 -0.017272328507309854 -0.03252873099619872 -0.028231746018796525 -0.028885548142853948 -0.01127320135494132 0.003235903499054879 -0.01491594090474827 -0.021914382388580785 -0.00379302 0.0110024 0.0150658 0.00466978 0.00859346 0.0052415 0.0106287 0.00462068 0.0098291 0.00449973 0.00252168 -0.00129756 -0.0041507333714305775 -0.012346491968937532 -0.011977901013629617 -0.02902941019884232 -0.016431861041158655 -0.02139147738661104 -0.01143578581865055 -0.00352315669132261 -0.04426914249070162 -0.03213919913565498 -0.0421171979602794 -0.0398812 -0.030701026972564587 0.007731372644826379 0.013404956892245402 0.008184165008574043 0.00452874 -0.00743071 -0.0190537 -0.0154711 -0.00742267 0.0020596 4.35681E-05 0.00953713 0.00876289 0.00103577 0.00155223 0.004704763341718984 -0.00787786508681393 -0.0077434333413989075 -0.019393011040792964 -0.013952648628768244 -0.028459381080007045 -0.028946643750137196 -0.026686240228915876 -0.012865798472553966 -0.025252303407334763 -0.05378911348388562 -0.03998025840000454 -0.002507025975134957 -0.008296530387688015 0.012469627509202193 0.024589288555852 -0.004231962596999259 -0.00544977 -0.0244002 -0.0389047 -0.0334216 -0.0146165 -0.0112867 0.0048151 0.000553127 0.0057732 0.00916228 0.00196481 -0.0040944093640814 -0.02085575382894546 0.00019412058381008374 0.0011993235488042273 -0.007443861507657318 -0.019941141244230937 -0.027722673640587177 -0.0175097663129972 0.0064084105546141044 -0.0002550379510565416 -0.03385040346513591 -0.011030560762825409 0.03669704138950781 0.049322122003256724 0.025690974891247696 -0.005939080453229952 -0.009152842931404203 -0.0304309 -0.0332993 -0.0380044 -0.0199575 -0.00865761 -0.00464001 0.00345595 0.00024013 0.00113402 0.00561793 0.009267574144879278 -0.006524044787244912 -0.01807611532052296 -0.015441121214214558 -0.013404893976452854 -0.015130096510030238 -0.03254375345544951 -0.02936133605374626 -0.0061748351987400965 0.008908816745700515 -0.005798054296718607 0.006867394999774214 0.031641885425700664 0.03829739679035652 0.037040237626303624 -0.010447186689387194 -0.03058633393112646 -0.0253868 -0.0424764 -0.0321426 -0.0178207 -0.00608143 -0.00424938 0.00346345 0.00203535 0.00460874 0.00824742 0.00713483 0.00656453 -0.0021635005868341265 -0.006505833241011817 -0.019127953078392598 -0.01919709872823078 -0.025347512689697642 -0.0326663643436191 -0.0353600439518498 -0.021450259082839433 0.010570344329433507 0.015311477095676245 0.044089448568878455 0.03601383072328946 0.005716152549987256 0.007397111782806782 -0.02697954477125287 -0.016257039593095338 -0.04296042836359958 -0.0354891 -0.0210994 -0.00618782 -0.0156911 -0.00425563 0.0129418 0.00486152 0.00844998 0.00762887 0.00484917 0.00182671 0.004085148845329156 -0.0050098469126276576 -0.008195580591533743 -0.019168735755041036 -0.010292098407009398 -0.024158419801605532 -0.02051379810269398 -0.005009036523104437 0.0008574317213408685 0.015739134781560245 0.03968523647684985 -0.0004177188240392707 -0.007902257099475096 0.01094598086981169 -0.011656508362034855 -0.008838431398485275 -0.04549350154509592 -0.0192479 -0.0123955 -0.00157367 0.0153724 0.0192322 0.0180744 0.0118511 0.00298786 0.00515464 0.00225206 0.010093840639150786 0.001399369871842702 -0.002552411884636353 0.00020972928328498358 -0.007174575084554899 0.0036406620719888496 0.010983530678294953 0.03466150229349821 0.024169500525851265 0.016391975840531613 0.006150059098667926 0.01335519403325787 0.023648723702045512 0.03397220557999403 0.025901417231555528 0.02039120591584039 0.001525116376283594 -0.02213046277214336 -0.0122112 0.00731165 0.017452 0.02753 0.0231103 0.0176152 0.00998517 0.000872198 0.0085567 0.0012113 0.007087815550738649 0.01073630488117062 0.001754416826291046 0.0023790381145266104 -0.011538142853527006 -0.004157021839022369 0.014904703909938411 0.04293228891665553 0.03920145146261086 0.01925859536501747 0.024904217309706125 0.03243510095492356 -0.005748153242895828 0.009413411753640294 0.023557110807946615 0.015165469973148694 0.007429356020036242 -0.020000314999494246 -0.0253622 0.0044693 0.0171265 0.0294338 0.0294399 0.0259378 0.00922957 0.000615343 0.0014433 0.00480404 -0.0001664388480268193 0.008000887884090504 0.0006715454368354341 -0.010221879838167367 -0.010833056751677296 0.0022243782540450337 0.005191729258389975 0.023665130671328166 0.04245729255356439 0.02990567637778059 0.022200045375981383 0.021477299326308163 0.017855645833426408 0.03629280016064134 0.010542596532041745 0.024767658147312105 -0.007724724956016451 -0.011707461272193933 -0.00321743 0.0287332 0.0268904 0.0169672 0.0237024 0.0343596 0.0184367 0.00450979 0.0042268 0.0102004 0.004098403341718983 0.0036302213831029156 0.005404709518282608 0.016446437596620313 -0.005662665848906769 0.0029661981713965196 -0.0032493424774446234 0.036697520249034964 0.0493201332220999 0.03785733950145767 0.005598194287035629 0.009372526473221031 0.03133379288233516 0.04114708384304486 0.0024677532808588284 -0.004253962914416612 0.00710311817523729 -0.014563377681344613 -0.00206599 0.00932532 -0.00740563 -0.003035 -0.00976385 0.0254008 0.0120803 0.00279364 0.00835052 0.0057732 0.00609665 0.0043433833998780536 0.014839136632607138 0.026218968002110966 0.010545599408747816 0.027193152311818774 0.01712326749983267 0.03797332389294511 0.0491278816987375 0.012499868063540143 -0.01702293328064763 -0.006160528770038447 0.04154957862738884 0.04541939225772293 0.018077783180153607 0.013386671734389096 0.04020257953525882 0.024832874546006276 0.0152406 0.0278126 0.0142903 0.0220224 0.00871844 0.0158096 0.00703943 0.00869103 0.00927835 0.00499533 0.000994237 0.0073748116605384766 0.01861483493193342 0.011031006956271192 -0.007587259106296294 0.00808029187402682 -0.000683118454721914 0.011881299766055363 0.008730178041735688 -0.009346044473246232 -0.047110178699527064 -0.038854253320758536 -0.009812654370786687 0.005367395420624751 0.00860698830104007 0.008941157759758313 0.034634401436672284 0.024155735773053712 0.0196974 0.0311426 0.0348327 0.0382571 0.0313167 0.0211233 0.0143821 0.00209444 0.00824742 -0.000653476 0.00396283 0.009192426128941491 0.012812769426465847 0.009004113619651751 -0.012200303435146345 -0.007269550685538261 -0.010281297879081311 -0.007008744382323422 -0.02221206891176719 -0.03041692998288216 -0.04529186762302825 -0.04276317694538882 -0.02712395424476661 -0.03689709993220666 -0.03452051540657955 -0.025902079018452845 0.0008409398232633229 -0.005738684181799791 -0.00280774 0.00103571 -0.0008984 0.0107924 0.0197415 0.013558 0.00952376 0.00824742 0.0028866 0.0043299 0.0019464020547390573 0.008100427407611799 0.0034411713136286814 0.0037093573433279493 0.0010950586922434116 -0.0018891886120344984 -0.015679661837841627 -0.020262269904794124 -0.02196926919666126 -0.023299094292593844 -0.03547268375918163 -0.05549026911764015 -0.06577125499292974 -0.05446632470972182 -0.04935820060933721 -0.04187275565326422 -0.017907079839249638 -0.0157531 -0.0102874 -0.0111487 -0.0215041 -0.0155399 0.00524836 0.000453223 0.00665811 0.000515464 0.00329897 0.00360825 0.00985477829092753 0.00917754099138388 0.00542855603415348 0.011787749468570604 0.002478535723544346 -0.012516953901711168 -0.014524861439552585 -0.01296977410280646 -0.013578249136970047 -0.017463578349616725 -0.04303655101209635 -0.04571554989768773 -0.05840870823748695 -0.042503008875366545 -0.041394277242409974 -0.0420969264709446 -0.02842764689909473 -0.0249598 -0.0176552 -0.0073632 -0.0152163 -0.0169421 0.000114 0.000346641 0.000192531 0.00690722 0.0043299 0.00639175 0.00271268 0.0057967 0.00337323338088308 0.00792341488425678 0.012071868407478783 -0.0037840442437467882 -0.005891973071098091 -0.019228939165319994 -0.01987184848860468 -0.030912856126896787 -0.04332623709669107 -0.05335477364198079 -0.04310508961762016 -0.03562584265380013 -0.03401982500106837 -0.032836624258945075 -0.027621392444451057 -0.02273139244445106 -0.018590114606409514 -0.0133972 -0.00714524 -0.0173635 -0.00716008 -0.00194784 0.00729781 0.00474227 0.00835052 0.00371134 0.00686424 0.00497541 0.004237541955009884 -0.001700295530230077 -0.0056286522162997225 -0.0028890413371980422 -0.010562518899056107 -0.02242360953346155 -0.02416079814315315 -0.021162522602538095 -0.02964546711740885 -0.03244850659975021 -0.023928292007519152 -0.01656081218191791 -0.019265757800729727 -0.02202420105986479 -0.007415106233531185 -0.013447716233531186 -0.021291382719406556 -0.00490668 -0.00743454 -0.00560655 0.00134533 0.0100954 0.00398736 0.00608247 0.00886598 0.0028866 0.00442718 0.000927462 0.00236469 -0.0026844272395004135 -0.0026707573994822374 -0.006032871044590423 -0.010163715457534467 -0.00979358209522699 -0.004431820235400043 -0.011071775468085483 -0.010939985372281849 -0.015006424053636308 -0.020372403770982258 -0.000977608848364326 -0.004590478732527875 -0.013225 -0.0137551 -0.0174141 -0.00188025 0.00804667 0.0105735 0.00965373 0.0090056 0.0030517 0.00852781 0.00670103 0.00927835 0.0014433 0.00773196 0.00742293 0.000902017 0.00105067 0.0024557204614592243 0.0017460585202147987 0.00380498246843809 0.0033602457022742825 0.0009716885615297219 -0.005144380391666535 -0.00300553 -0.00341792816076771 -0.007656651148696012 0.0023050146881433307 -0.0016946721479100125 -0.000478731 -0.00358841 0.00405201 0.00121459 0.000826071 0.00428092 0.00708144 0.00215936 0.00340206 0.00701031 0.0014433 0.000412371 0.00649485 0.00257732 0.0043299 0.00608247 0.00494845 0.00966152 0.00354037183923229 0.00020484569136326058 -0.0007315423301541185 0.005573155059539949 0.0010688152894439851 -0.0010754065497883046 0.00043026712867627495 0.008035458046641268 0.005833037939978244 0.00763683 0.00444028 0.00696382 0.00919455 0.00532909 0.00554003 0.00489964 0.00854844 0.000824742 0.00247423 0.000309278 0.00639175 0.00175258 0.00123711 0.00206186 0.00206186 0.00639175 0.00989691 0.00917526 0.0042268 0.00948454 0.00835052 0.000206186 0.00628866 0.00483717 0.000607982 0.00495664 0.00443333 0.00917526 0.00113402 0.00515464 0.000515464 0.00402062 0.00917526 0.00257732 0.00525773 0.00340206 0.00371134 0.00979381 0.00845361 0.000618557 0.00494845 0.00505155 0.000721649 0.00742268 0.00216405 0.000387966 6.15343E-05 0.008254372833206826 0.000373285 0.0045412 0.009178014228223078 0.008489595185978863 0.010433977043708482 0.0072458491347052465 0.009429610521987446 0.0018431475730927799 0.0017719740803424455 0.00778669 0.00080951 0.00761571 0.00379357 0.0096807 0.000720926 0.00989691 0.00814433 0.00979381 0.00340206 0.00876289 0.00814433 0.00752577 0.00422559 0.00206144 0.00870434 0.00341947 0.0005626225643810167 0.007974904560084992 0.0062725444849514355 0.003642216278226444 0.008586488481178673 0.004383055260720325 0.0016008139625158363 0.005299137801551257 0.0010951978632560459 0.002974724320638979 0.00731022557513976 -0.00016679296429412935 0.0004691517088621198 0.007433412459559372 0.003541393733963199 0.00125238 0.00875264 0.00793814 0.00659794 0.00927835 0.00773196 0.00412371 0.00123711 0.00484536 0.00381004 0.000136342 0.00349023 0.00315695 0.0025077632658640162 0.003963279373217937 0.00040275279074960987 0.009938885680717865 0.008429776582926924 0.010879108052057005 0.00961201597284284 0.011228457056221225 0.0029452520466502425 0.00976257107508837 0.005746464167002469 0.0031984197747052345 0.00612124870886212 0.0025836974511923455 1.3588064237978475E-05 0.0043998 0.00538607 0.00835571 0.00141199 0.00563377 0.000206186 0.00474227 0.00463918 0.00773549 0.00659608 0.00315096 0.0003797929188114184 0.0070640424688385335 0.0016477874484051407 0.006494044757161726 0.0010222189660696254 0.00868148969600269 0.004966031961090997 0.008381930458668281 0.005691765245716578 0.0010596077421272225 0.006395679152601605 0.0009656110247455542 0.00859862214907138 0.006406242767683706 0.006771796540646703 0.006194933604992779 0.0024432899944219822 0.00574117 0.00562526 0.00664822 0.000171372 0.000469572 0.00355319 0.00979381 0.00175258 0.00609595 0.00263979 0.00347535 0.00907280023263006 0.007876037956790633 0.00785464639282562 0.0037238112678065313 0.005772609947549852 0.00644807506345036 -0.0025255787834281476 -0.0021018055714760965 7.952600186653829E-05 -0.0016556029373494638 -0.0023570677725787163 -0.002537807663561929 -0.0008604553282782335 0.0026202976344464344 0.00547022511947122 0.006334444535513012 0.00378931 0.00655506 0.00605371 0.0103227 0.0101434 0.00292215 0.00280141 0.00350515 0.00762912 0.00383103 0.00275672 -0.000398044 0.0077655326345788004 0.003177068432191085 0.006743405458564477 -0.004355952743131836 -0.000584085461006574 -0.00423418880969458 -0.0016859939753852515 0.00034146985544260765 0.0010056545650613308 -0.008820653714566227 -0.004156777839217542 -0.005451039500126843 -0.0022409328676885674 -0.010528171255727968 -0.0030146200879969964 0.00251806 0.00694057 0.0123299 0.00700343 0.00748526 0.00106363 0.00120829 0.00646963 0.000824742 0.00609005 0.00674797 0.00570485 0.003949982442156409 0.0005372008484386254 -0.002263160400375171 0.002852696415450921 -0.003956605887612269 -0.0005410101107322948 0.0004698389292114665 -0.004275162423457853 -0.0029463368156829365 -0.004231500340309629 -0.00763725331187382 -0.009290873493619232 -0.006653527753584767 -0.010638148188300604 -0.006439532072644616 0.005226105890779383 0.007712 0.00972642 0.0114786 0.00553321 0.0111315 0.00430007 0.00394858 0.00544925 0.0097995 0.00695318 0.00100979 0.00631771 0.008006203900631906 -0.0008511355330218025 -0.0010951226452770046 0.002709861420451642 -0.0012492120243102018 -0.002741097857436572 -0.004865087402585589 -0.007408090738098584 -0.0055627251148961925 -0.011611965849043785 -0.008153996713154024 -0.00213984 -0.003448137658259574 -0.003981449854377668 -0.006903019095655727 0.0035249426409012987 -0.00196494 0.00869336 0.0113541 0.00575979 0.00611096 0.00426513 0.00855746 0.00823227 0.00123711 0.00552596 0.00655315 0.0040617844229476775 0.008116217207831728 0.004982893176939328 0.00622090196030011 -0.0045551369981132375 -0.00020113071485026716 -0.0085764676547113 -0.008919226659764544 0.0001530168316772038 -0.0009417969389129829 -0.005665573160248556 -0.0038356252681208147 0.005023394656778582 -0.002604576275089482 -0.010403266718990459 0.0008549557176788208 -0.002638577892229623 0.00972303 0.0100682 0.00926653 0.00121598 0.00164973 0.00292214 0.00157312 0.00392219 0.000206186 0.00823092 0.00667198 0.0033771231465377404 0.006206636391995847 0.0037231190918648395 0.0017976632652026013 -0.0026560578382373613 -0.0013767426594815287 -0.004600822435659869 -0.00925600941330872 -0.004412812844456869 0.0022827524863407622 -0.002445308888922136 0.004487976250147735 0.000253166212420037 0.004835857256733779 0.006699331905634302 0.001857363288546462 0.004944957458111947 0.00921296 0.00215279 0.00629018 0.00885606 0.000371669 0.00156731 0.00131978 0.00236832 0.000721649 0.00449187 0.006145592988090918 0.0077511435736672095 -0.00018260043959499096 0.004069258349294821 0.004468795098360045 -0.001991713763827367 -0.0038163195837655306 0.00034796677121945555 -0.003459683797088857 0.001985925138231291 0.00026654495898352043 0.009178518875634758 0.007392535049008453 -0.0011693365704373404 -0.003382589044125657 -0.00027574369100647416 -0.004376799704999408 -0.00389751 -0.00400764 0.00189393 0.00647671 0.00735424 0.00452219 0.0082627 0.00193572 0.00886385 0.00329897 0.000601994 0.000517722 0.0017222229058331583 0.003932332385436642 -9.414347427060775E-05 0.0006109587554595538 0.0016039006201310697 0.0004370312457858438 0.0002611434164168533 0.0019718483482636254 0.0008029401160455965 -0.0007253970187880377 0.00846348557353837 0.002380850750147161 0.00098564328339604 -0.008573459701063504 -0.00872716209091192 -0.0014039959238847067 -0.0025550600055780177 -0.00262626 -0.00544723 0.0020515 0.00852125 0.0059618 0.0008569 0.00863131 0.00897135 0.00742268 0.00658859 0.00539969 0.006685144604306622 -0.0012439275023569194 0.0026025857605721037 0.004449441315678639 -0.004877914866387406 0.0005795738901954361 0.0003376385101347251 -0.003229234539966126 -0.003464736848145681 -0.0027060209732753075 0.0033360107046676826 0.0025656813054725173 -0.009275900054779074 -0.0063131418575474016 -0.009239684228641881 -0.004113467576634587 0.00019215644561432782 -0.0083755 -0.00451663 -0.00507576 0.00848582 0.0082566 0.00975503 0.00214076 0.00846118 0.00134021 0.00484997 0.010363226838724206 0.006212804092578783 0.0002917931872630195 0.0022783483008514595 0.004163481819410086 0.006895849999962675 0.006688682846534938 0.002086397572616909 0.0009880644483401548 -0.006212415310261899 -0.0014414134179790421 -0.009269343077443343 -0.0096011374077695 -0.011634980814848529 -0.014967844363202596 -0.005411436863332972 -0.002342181722151841 -0.0016783863385510303 -0.00268319 -0.00629252 0.00613742 0.00937747 0.00966321 0.00468439 0.000272114 0.00464157 0.00474227 0.00455798 0.008940414110807102 0.00012409455218101784 0.005134541090469051 0.006814391181232927 0.011120706649280465 -0.0011395990488602323 -0.0014365633366249905 0.0016537974506080713 -0.004389006981307107 -0.005067282847143409 -0.005682173539226965 -0.005294449730171928 -0.01100799663371404 -0.00430678254909218 -0.008382109774233492 -0.0018628849217921086 0.00033568729375292583 -0.002481782576697743 -0.00205591 -0.00563502 -0.00275053 0.000849155 0.00209499 2.64401E-05 0.00623318 0.000753109 0.00649485 0.00825832 0.007182534066953433 0.010387683072261443 0.007664848883249167 0.00924236407697718 0.002976885218107351 0.009939907774775969 0.006162960135326282 0.003555157553382244 -0.0023775389678581693 -0.0026509452667052595 -0.0008591389575671357 0.0018142928106397208 0.001190818985434844 -0.004392402572764931 -0.004822681826994171 0.004623285564356598 0.0012945295984062015 -0.003929125080881256 -0.00558157 0.00140839 0.003607 0.00521184 0.00418654 0.00424697 0.00334253 0.00204908 0.0014433 0.00464279 0.008957674422947677 0.00919701922368998 0.0040857856884845035 0.01157506097746156 0.01348496428143385 0.003379330880912314 0.0006556380154547354 