0.00309278 0.00185567 0.00360825 0.000103093 0.00783505 0.0071134 0.00463918 0.00731959 0.0102062 0.0043299 0.00845361 0.00402062 0.00136616 0.00387588 0.00412887 0.00886619 0.00804124 0.00628866 0.00690722 0.00917526 0.00865979 0.00680412 0.00948454 0.00927835 0.00628866 0.000927835 0.00494845 0.000721649 0.00865979 0.00958763 0.00824742 0.00309278 0.00752577 0.00175737 0.00418815 0.000449722 0.00955141 0.00475146 0.000529114 0.00513091 0.00919559 0.00638588 0.00149251 0.00855306 0.00323051 0.00923696 0.00931385 0.00448817 0.00220577 0.00663913 0.00497169 0.00721823 0.00494845 0.00247423 0.00175258 0.00391753 0.00670103 0.00505155 0.0071134 0.00927979 0.000619051 0.00846455 0.0027222 0.00757745 0.00665382 0.00759672 0.00938877 0.00357864 0.00451952 0.00725591 0.00791961 0.00700299 0.00362589 0.00851895 0.00325988 0.00505213 0.00329439 0.00713501 0.0081344 0.00467848 0.000206186 0.000824742 0.000618557 0.00134021 0.00268041 0.000824742 0.00525773 0.00206611 0.000896064 0.00784616 0.00792301 0.00600346 0.000563828 0.0085271 0.0111637 0.00923037 0.00896892 0.00762294 0.00522878 0.00891964 0.00694812 0.00698264 0.00449995 0.00791555 0.00464577 0.00578722 0.00171112 0.00337651 0.00982735 0.00145759 0.00320166 0.0085567 0.000206186 0.00793814 0.00216501 0.0100017 0.000251938 0.00581647 0.0060302 0.00552216 0.00717568 0.00696342 0.00711161 0.00580618 0.00310833 0.000626556 0.00232107 -0.00112549 0.0070985 0.00346855 0.00414312 0.00451361 0.00511582 0.00834705 -0.000377343 0.00884787 0.00534198 0.00589378 0.00485068 0.0020677 0.00907216 0.00453608 0.00206208 0.00599941 0.00822307 0.00217327 0.00174848 0.00568856 0.00802452 -0.000489958 0.008150184034323936 0.002276721088948864 0.003972744243406575 0.0031331774085540387 -0.003016188875039386 -0.0020889580123816024 -0.004172124422916964 0.00357901216175812 0.0012147922772996343 -0.001522529696703525 -0.0031665817284774415 0.0001697001097644386 0.00073408 0.0033248 0.00250552 0.00767292 0.0066399 0.000628264 0.00835052 0.00268057 0.0030087 0.00575428 0.00406154 0.00880605 -4.27363E-07 0.00564212 0.00540897 0.005380493460234106 -0.004676459485140966 0.004846196560547286 -0.0013568061040621477 0.0012376351677373808 -0.005909325510198464 0.0015839903910479301 -0.0008175327742746926 -0.004420922563454732 -0.012401379807902476 -0.00358466 -0.00623301393356363 0.002217642320627702 0.0004969292368601044 -0.000869608 0.00331007 0.00444978 0.00889483 0.00612137 0.00350515 0.00618816 0.00318788 0.00450386 0.00556468 0.00489378 0.00642004 0.00448247 0.002743215085809839 0.005842245918258173 0.0022903149655157076 -0.00045757983724024085 -0.004015167542846997 -0.005007028912548314 0.0014620231395035955 -0.004565408218772409 -0.004019114331489195 -0.004855317008279433 -0.012872891548830444 -0.00547176890900025 -0.00538586 0.000318004 0.0037217680982102874 0.000277983 0.00014659 0.00710224 0.00345713 0.00837497 0.00938523 0.00749005 0.00230375 0.00314264 0.00953782 0.00359198 -0.00234394 -0.0012322 0.0030821020062780508 0.0036328825344598705 -0.003274408548618765 0.0010024416110710188 -0.002699160114476767 0.003830551533035347 0.0030735490717050482 -0.0021910001119273396 0.0008516046014379053 -0.004708053022466178 -0.010473293672268468 -0.0005795690586621399 0.0007889942619903719 -0.000362018 -0.00421667 0.00530393 0.00117089 0.00587098 0.00278437 0.00257362 0.00546392 0.00157525 0.00250104 0.00405675 0.00786636 0.00838425 0.00183863 0.005753291663038694 -0.0029820446203238987 -0.0007786549656446047 -0.004759487002460415 0.003315311211971578 0.004500220505214094 -0.003599873886422393 0.0039815212320332485 0.0036004217589848224 -0.009317977185179514 -0.002482588171370854 -0.004272262188188004 -0.0008038616545270192 -0.005363091385841588 -0.00454818368884952 -0.00497262 -0.0033901 8.57657E-05 0.00146664 0.00509782 0.0092762 0.00298969 0.000259911 0.00192927 0.00641523 0.00931656 0.00357189 0.0035565769805353245 0.005514127161316422 -0.0011774323279841385 -0.001692606519134057 -0.00017678034737827388 -0.003122563119647916 -0.0033014965730552505 0.005089299094630293 -0.0012939240722301699 -0.004705042244430624 -0.0064269447089303315 -0.009751791077043702 -0.00630833 -0.00396417 -0.0026303853208383605 0.002218916396124848 -0.00235602 0.00194874 0.00178464 0.00260243 0.00317598 0.00154474 0.00690722 0.00183563 0.00624849 0.00061546 0.00614364 0.00347798 0.004043846980535325 0.0058201649646313115 0.0038637294140840043 -0.005166071441725407 0.00047527968118427484 -0.00327893325275638 -0.003060857494803564 -0.0010174145950534322 0.0012881607137964803 0.0003372916407744378 -0.007503506034630318 -0.003475436463304362 0.00024828767742705947 -0.001451602457632599 -0.0013879624011271135 0.004950887811308806 0.00575471 0.00592876 0.00832719 0.00415664 0.00393644 0.000619289 0.00587629 0.00454122 0.00343404 0.00960323 0.00383437 0.00618163 0.003026759865843283 0.0064348032403282246 -0.0019545833848697105 0.0010321775553912033 0.00185231213393528 0.005068782145306542 -0.0016889946900060038 -0.0007707484249123037 0.004358367645706451 0.002245827376942452 0.001880465963335675 0.0008113657041735164 0.001866809873527559 -0.002012734134968615 -0.0011712451184997857 0.005214875579495429 -0.0020558645561860383 0.00191057 0.0107267 0.00468106 0.00706635 0.0016582 0.00896907 0.00578037 0.00229301 -0.000198296 -0.000741615 -0.00118925 0.002912012120944442 0.006206067682294073 0.002669875904497804 -0.003336184443523762 -0.0039622652190705815 0.00045570756353229593 0.006218341683990096 0.003721331062592035 0.00021943183019414509 0.0029509642132259425 -0.003392545754490696 0.0006210359003436261 -0.005068825649863659 -0.0036519012895514158 0.004012625090875622 0.0043413841646466585 0.0040600053081324946 0.0016979379254291821 0.00580426 0.00609675 0.00910817 0.00277875 0.00804124 0.00392444 0.00642391 0.000758435 0.00763466 0.00334816 0.004709286496671105 -0.004135946125729141 0.0014798096611380266 -0.0023703425464358216 -0.004760019875206634 -0.0012077749604906456 -0.0022138061480579544 -0.005288594991568506 0.0029265989996196964 -0.003966837988105301 -0.004053413079254264 -0.004645602197331294 0.0030759617254980803 0.0005904735392040385 -0.0011732314018494114 0.0026853263697328455 0.007860864034662454 0.007585384036253711 0.00469439 0.00782601 0.00448587 0.00638946 0.00402062 0.00433567 0.000228739 0.00972713 0.00188035 -0.00162169 -6.629835041635879E-05 0.0040846541777099475 0.003956297457542712 0.0006639598254752127 -0.004695814703324632 -0.0062884834776616725 -0.005963375054427806 -0.00021203446266935053 -0.0037293171304548568 -0.004929758426392915 -0.00903078296815556 0.004261109906229583 -0.002379994236685495 0.003601829224626987 -0.003600559238749442 -0.0003927838700157964 0.00029601525707986933 0.007009247122737148 0.00620421 0.00685744 0.000169791 0.00854036 0.00309278 0.00134357 0.00396159 -0.000398381 0.00703161 0.00441087 -0.004142820389090057 0.003513630717222437 -0.002894705504067858 0.0011904512940674264 -0.0016616507532391986 -0.005049609296338873 -0.004307764889695275 0.0028526051743581506 -0.00026548137641350874 5.021725006218677E-06 -0.009798610930974836 -0.002953726863813168 0.00034662353988699395 0.0013282753161912716 -0.0031490947923301827 -0.00246418 0.005398638358178695 0.006956988196792116 0.00732555 0.00332694 0.0032045 0.00913107 0.00525773 0.00433088 0.00124517 0.00671 -0.000999716 0.00573648 -0.005413661000642849 -0.0023359427777766505 0.005975562655637591 -0.0002391391761972741 -0.0018599903720179043 1.787075048717152E-06 5.4900876808715395E-05 -0.004112669585118011 0.00018268964059356852 0.00028845522211985177 -0.0112321540590461 -0.006548060427723792 -0.0011368963339129306 0.003000306147145373 0.0003238303325921381 0.0019988821717421418 0.004813404366844309 0.0041561265178689305 0.00701716 0.00504852 0.00773593 0.000814356 0.00505155 0.00453608 0.00219255 0.00644686 0.001715118486471714 -0.0005109181622027859 0.0002888456028263803 0.0027426035907122076 -0.0006177860309944322 -0.0011556194648488598 0.002072586579828436 0.006893537999038269 0.006035434068183702 0.0014814448788088238 0.0012954678700347892 1.3291117403553017E-05 -0.0032304376600338163 -0.003878061582089166 -0.0043737600559503 0.00165131085572964 -0.0030962196751105424 -0.0034474546337996802 0.004640527419805193 0.0016232624930119911 -0.00172213 0.00107613 0.00280601 0.00791104 0.000515464 0.00350984 0.000754183 0.00398855 0.005289343091883028 0.00043034276747745676 -0.0021844041043580648 -0.003551097507257717 0.0003690369555408101 -0.00020254724217319285 0.0051353497116101415 0.0015846897825811277 0.006673173454102817 -0.0007966063166728972 0.006258907451080785 0.0016354167988735634 -0.0015649047734069544 0.003953838267090773 0.00398736102951283 -0.0022716145002156106 0.0035385481344224912 0.00359637536620032 0.002411699172267499 -0.00016806209891190787 0.00340021 0.00277783 0.00470849 0.00586942 0.00876289 0.00103472 0.00879081 0.00918378 0.00397393 0.0051603063296255846 -0.006875148379543446 -0.0051434355375557 -0.0013038840316856484 0.0025805105881998697 -0.0019882254445760905 -0.00014988957457072108 -0.0007908336531471245 0.00134382964212736 0.002822006518163078 0.0006474338471767366 0.0025082123208747713 0.00034411972296820884 -0.003642682311653296 0.0025213951256903818 -0.00017647014185556185 -0.004195978301862004 0.00525887489416267 0.00174069 -0.0014381 0.00145693 0.00821396 0.00680412 0.000618557 0.000309278 0.00992028 0.00916982 0.000500496 0.005362138551298171 0.0011083739635526118 -0.0024363929004742654 0.0019329910619040147 -0.002192144082880484 -0.0036839957788430216 -0.0007966233130889572 0.003602512212920388 0.00593150674764076 0.002050590548889264 0.00025628484774071147 0.00016562794730213295 -0.00045260559426123394 -0.0003549896151663558 -0.0013340798807051715 -0.003383963006440991 0.001325280715293132 0.00014846223974864214 0.00147709 0.00475256 0.0101375 0.00545272 0.000824742 0.00969072 0.00206186 0.00834998 0.00359119 0.00431877 0.000447145 0.00568166954665641 0.0043392456357077966 -0.004265675103736907 0.0014490672709186838 -0.003027876884008412 -0.002364771299341575 -0.0022014095932665445 -0.0023621220974439716 -0.009173053270510064 -0.002317216832319076 -0.0023680154409500267 -0.0011659285986517522 0.0036763644713288 0.00361736989375783 -0.0032883673629853435 -0.000840036495309877 -0.00127367 0.00554138 -0.000220513 0.00449526 0.00959218 0.00597938 0.00340206 0.00587629 0.00805456 0.00124957 0.00806979 0.00155207 0.004684176183766057 0.007398997548753495 0.001928268987161011 -0.00293109599152128 -0.0010307455367123677 0.0031263636617139367 0.0037322591981246646 0.003752522645565748 0.0003525235757774356 -0.003081630806008298 -0.0003962855246981085 -0.0009212217397801806 0.006154072532033316 -0.0018518245815942263 0.005136936311962089 0.0016526340346624544 0.00318603 0.00290112 0.00840323 0.00435611 0.00587237 0.00793814 0.0043299 0.00618557 0.00217417 0.000302814 0.00296618 0.0105767 0.00122862 0.00739138 0.001692001440270253 -0.0003123201610199947 0.002266818077118155 0.009388423335571557 0.0030503267083300326 0.0027684613096939756 0.002833888892854471 0.00883874843544194 0.0004548822381430189 0.007513761686801418 0.0031726047057608776 0.00722725 0.00626197 0.00380456 0.00523168 0.00285543 0.00633219 0.00504401 0.00618527 0.00154639 0.00381443 0.00453608 0.00639245 0.00949029 0.00811183 0.0100069 0.00536555 0.00786378 0.00356288 0.0048888 0.0035013027780684642 0.008789195451134161 0.001933715808570621 0.00139830131974064 -0.0009878214480394522 0.008466462274677332 7.46176911427433E-05 0.00109447 0.000382323 0.00399745 0.00511938 0.00151557 0.00412075 0.00942658 0.00149121 0.00814407 0.00927804 0.00360825 0.00618557 0.00391753 0.00783505 0.00298935 0.00238701 0.00319387 0.00666304 0.00809067 0.00205226 0.00957279 0.00422779 0.0052898415095320485 0.010812686099610759 0.00775172 0.00354811 0.0081023 0.000958024 0.00304486 0.00179617 0.0030641 0.00686057 0.000660159 0.0035649 0.00674721 0.00773601 0.00505155 0.00979381 0.00371134 0.00762887 0.00979381 0.00680412 0.00649485 0.00278351 0.00185567 0.00392383 0.00488764 0.00662644 0.000438415 0.00064392 0.00911679 0.00533178 0.00996926 0.0019344 0.00677257 0.0076964 0.0098234 0.00911124 0.00946135 0.00872994 0.00760608 0.00730481 0.00525299 0.00587629 0.00670103 0.00618557 0.0057732 0.00402062 0.00670103 0.00113402 0.00298969 0.000206186 0.00989691 0.00247423 0.00597938 0.00597938 0.00257732 0.00608247 0.00268041 0.00324124 0.00864503 0.00535868 0.00319149 0.00350515 0.00515464 0.00175258 0.00907216 0.00329897 0.00206186 0.00969072 0.00103093 0.00649485 0.00742268 0.00298969 0.000309278 0.000103093 0.00659794 0.000412371 0.00608247 0.00103093 0.00257279 0.00380759 0.00770596 0.00671205 0.00284328 0.00583127 0.00690132 0.00230136 0.0100209 0.00497014 0.00821486 0.00727397 0.00103517 0.00247042 0.00711964 0.000440275 0.00236076 0.00742425 0.00329093 0.0043299 0 0.00835052 0.00536082 0.000206186 0.00247423 0.00381443 0.00964339 0.00524146 0.00324863 0.00756028 -0.00108227 0.00862514 6.12356E-05 -0.00281122 -0.0015662 0.00222384 0.00427801 0.00439812 0.00140508 0.00476455 0.00125789 0.00860591 -0.000626844 0.00856129 0.00643945 0.00527717 0.00248514 0.00886598 0.00979381 0.00268041 0.00103093 0.0102062 0.000206186 0.00731959 0.000998516 0.00791418 -0.00021248 0.00737132 0.00606531 0.00515323 0.0010274 -0.00207556 0.00188507 0.0038069 0.00160701 0.00016933 0.00308114 -0.00113185 -0.000691655 0.00494902 0.00578729 0.00503376 0.00433469 0.0084592 0.00306464 0.000980932 0.00191499 0.00736713 0.00185567 0.00690722 0.00701031 0.00490241 0.00877268 0.00979874 0.000570798 0.00319982 0.00562576 -0.00171957 0.00410688 -8.67888E-05 -0.00140429 -0.00113122 -0.00490144 0.00187573 -0.00467671 -0.00908594 -0.00718442 -0.00378415 0.00537567 0.00837201 0.00836059 0.0095766 0.0027835 0.0109356 0.00741016 0.00803283 0.00492401 0.00618557 0.00824742 0.00456674 0.00732694 0.0081162 4.65505E-05 -0.000102958 -0.00166955 -0.000967604 -0.000224124 0.00012139753874752659 0.002957031695131825 -0.0012411153805043052 0.00023803988572768152 -0.010505505638031949 -0.00901841438793704 -0.012024619150974677 -0.010602482688417422 -0.010109770323001295 -0.009148565040782668 0.0032366040587278985 0.0033408267471453203 0.00251429 0.00983314 0.00805314 0.00292542 0.00160575 0.00286164 0.00103093 0.00886554 0.00583781 0.00385437 0.00298846 0.000205203 0.00477293 0.00511446 0.00751075 0.0062663209248286006 0.0084840130812129 0.0006975144640999613 0.004703528638901925 0.005799136787596651 0.0002495625120015445 0.0014759976080862929 0.005788900264792242 -0.008619369465575438 -0.00704548555999158 -0.00668217 0.0022921446101142728 0.007610101814029752 0.00853000034910306 0.0137375 0.0129401 0.00826282 0.0090206 0.00188594 0.0071134 0.00251128 0.00857657 0.00186028 0.0035494 -0.00162078 -0.00118818 0.00112929 0.0037644238468688166 0.007642325484607485 0.012977423641068407 0.004992719439402995 0.017733464822169826 0.019988971285828033 0.011729914155176602 0.008661080311782181 0.008928046703394678 0.006082807960908333 0.004832335271636167 0.0031105473530197046 0.0108376 0.00728017 0.003613705510603708 0.00769255 0.00858538 0.0123509 0.00505917 0.00633068 0.00471364 0.00641455 0.00882193 0.00818746 5.23396E-05 0.00153569 0.00433186 -0.00653376 0.008549185696526018 0.009204190077738652 -0.0011808290341207995 0.00839777232014675 0.010764369246583933 0.008775430047632081 0.016701568020413494 0.012541471686494922 0.00802956947479856 0.0010016428031911447 0.004108246637995141 -0.0007772351231289114 0.007122683939721887 0.00452015 0.00623737 1.14931E-05 0.0129746 0.0116237 0.00385646 0.00806175 0.00876289 0.00726325 0.00607449 0.00686539 -0.00070738 0.0019654 0.0069129 -0.0007849686909492487 0.005285871727139191 0.009504635322625994 0.0005955454769544734 0.006195065644213023 -0.0008773433604031095 -0.0015350123254810296 -0.010223173035950805 -0.011060056399314218 -0.008746655572233959 -0.008132925585217688 0.0028163881566395355 -0.006542897735167447 -0.0006769884823514658 -0.007591440395893403 -0.00432093 0.00141833 0.00495032 0.00332717 0.00847975 0.00335755 0.00917526 0.0100936 0.00224224 0.00589027 0.0035127 -0.00598191 -0.004329142201332852 0.008943477509526709 0.00692193228571789 0.007317516519176522 0.008038711359680475 -0.00401780323212566 -0.013008149757688332 -0.010507279740355629 -0.00830882011314165 -0.009012557727728349 -0.01613938687545242 -0.011178176902299636 3.86323E-06 -0.00116434 -0.012382023001491495 -0.0026200193589539593 -0.00250549 -0.00351545 0.00746032 0.00599867 0.00211411 0.00775041 0.00103093 0.0092149 0.00466057 0.00318287 -0.00235676 -0.00180779 0.0019235477986671479 0.0003269059168653354 0.004480337906086276 0.002986487352598061 0.005390322850586632 0.0004809647665371503 -0.006617571592996152 -0.012457652560672697 -0.0058730182342935115 0.003701802101839852 -0.004256228368285275 -0.0012584174154515813 -0.012762077377888733 -0.013113020674270776 -0.01080017016399025 -0.002345217571641642 0.00156097 -0.000455064 0.00373961 0.00754639 0.005392 0.00733799 0.00927835 0.00599073 0.00602288 0.00753205 0.00498934 0.00743649 0.0053144396932729016 -0.002375825394149582 0.009862619358007418 0.007126606943552563 0.00401146164660976 -0.001697704268856801 -0.004999701709147797 -0.009983055420793944 -0.003822401175646884 0.00029327971948005065 -0.005075681207780915 -0.010125417007372992 -0.006255516191168533 -0.010169225325309563 -0.010878305746365577 -0.008368105684482718 -0.004900507396303297 0.00390228 -0.00585923 0.00584533 0.00517843 0.00866359 0.00309278 0.0088867 0.00212743 0.00586112 0.00465613 0.00833785 -0.0021645623235920296 -0.00224555050163141 -0.0008822884432938513 0.008630132629100042 0.005887595962825503 -0.009455802205643004 -0.007719820078016701 -0.0015629619301535235 -0.0024465610791730126 -0.0029865309184548584 -0.005960578584765709 -0.0052970195200257 -0.010148745542184494 -0.008716156074741788 -0.00777001137300508 -0.007356879879282019 -0.004056369108123875 -0.000679038130420779 -0.00172581 -0.00238696 0.00499724 0.00484494 0.00247423 0.00581032 -0.000308236 0.00236316 0.006612 0.00355408 -0.0038596972795602404 -0.004612956149030645 -0.00247583739767065 -0.0024167982899942113 -0.003948150883493311 -0.00977003462629401 -0.011604786508961053 -0.008891241579496221 -0.002261136615070616 -0.0054724690147909365 -0.0008305630957763187 -0.009649765742275381 -0.002714840708333805 0.0022428327769470338 -0.003421260474932535 -0.010594260430668393 0.0005817657096248381 -0.0015263231287404593 0.00215123 -0.00260734 0.00742152 0.00773046 0.00484536 0.00277733 0.004497 0.00245292 0.0105343 0.00665231 0.0011050010417245895 -0.0016768153788169554 -0.0018738541232450844 0.006905105289967606 -0.000968427736003439 0.007499884972803007 0.0032079829809547687 -0.002859989321008129 0.0008282966355322111 -0.0072262567471087225 -0.006197911549391676 -0.0020694471033238767 0.009225449409284667 0.006268689625893523 -0.001294322750101441 -0.0011391335889068572 -0.004979069986949117 -0.0053080582402249745 -0.00784832 0.00182159 0.00704305 0.00770972 0.0014433 0.00267622 0.00332797 0.000797004 0.00915823 0.0074007 -0.004326272484324128 -0.0017644481543485177 0.0049950868558582525 0.007280284118534282 0.010865017152367111 0.01292473186358557 0.006809202232216185 -0.001595431011568128 -0.005921050488205791 -0.012332538012294392 -0.012496006378614612 0.0025289563236002483 0.010389683842944806 0.014741087115834679 0.006612429856469903 0.00268768 -0.0016019816672100064 -0.00143963270677962 -0.0016426 0.00206335 0.00144341 0.00334255 0 0.00422572 0.00767335 0.00932566 0.00139077 0.00723265 0.004195151514746411 0.005283378132611252 0.01212560338991991 0.006039731004873681 0.010387756914946063 0.018607620021982085 0.003013705689463842 0.0024760776615010928 0.0016622004828585467 0.0007330771812694263 -0.0020617926768499357 0.007831854560491918 0.011930503976017448 0.010886868773782267 0.011855548596147748 -0.002468321516308148 0.005003146760196204 0.0012059781371420583 0.00434144 0.00752676 0.00270871 0.0063677 0.00195876 0.00649485 0.00319395 0.00238559 0.0014115865776942722 0.00031091558865924867 0.0004760732634454027 0.0011209861917222152 0.008363947854032317 0.010137945664686917 0.006214320882301424 0.0021507984483899005 0.0030667685405636937 0.004627448884758492 0.012054045970730398 0.002971039914465169 0.006352956701996129 0.007065325540829995 0.0015311305885813403 0.008600377384378483 0.006470606167557491 -0.004929427850277629 -0.004688555488834781 0.005969189427001798 0.00577271 0.00916537 0.00857657 0.0065646 0.00412371 0.00876023 0.00607787 0.00296582 -0.0017747500533834366 -0.0027180488760649396 0.0015484078946058173 0.0023453359277499 0.010996468870384468 0.009277504754989471 0.008060864702018264 0.0040051585755025015 -0.0036516609071930014 -0.008048239931120558 -0.005467462855500169 -0.015073887297892188 -0.013384395340612231 -0.00465059119199976 0.002323432024863211 0.010055248141847377 -0.003778110479975345 -0.006814907850277629 -0.01061686139628653 0.009641585756414387 0.013478 0.0106288 0.00160387 0.00742179 0.00762887 0.00896059 0.00779327 0.00365404 -0.00108205 0.002033161872744619 0.004364184838163624 -0.004060239298707158 -0.002063640480133537 0.004069236760636832 -0.0015488912170728915 -0.015874938214102116 -0.010680202290538749 -0.010549904789508523 -0.011512164108908053 -0.02087350234411825 -0.018026583277862884 -0.0026394439425191734 0.004173706658604351 0.00630496503117651 -0.004683916112973876 -0.005628055391891921 -0.0020683126590659456 0.0064722 0.0138188 0.0111958 0.00194351 0.00474227 0.00587629 0.00556701 0.000705565 0.00247238 0.00700244 0.00274909967969938 0.0013499347490015792 -0.007586895749855172 -0.007376730313681991 -0.017399316502256276 -0.020491488511809732 -0.020264046433497065 -0.025341115167809528 -0.021828482674058455 -0.026574486884843707 -0.021555056805091857 -0.017552859642073915 -0.009407118769596412 0.01213209731752317 0.006417821018933693 0.005583296378060099 -0.004117145530395464 0.0039614331582384634 0.00968838 0.018876 0.0145432 0.00946048 0.00608247 0.00381443 0.00835052 0.00967745 0.00276763 0.00581392 0.00273981 -0.0012241545023132557 -0.0004881592484346504 -0.013010153441502078 -0.01748534209858478 -0.017871993213403572 -0.019021168698312454 -0.016710341593237307 -0.020312108566501244 -0.018262277437844955 -0.011394299224869484 -0.0034464103304058568 0.004718476251097622 0.0018525556220170963 0.0013701011178276587 0.007823114982558659 0.0066771776335445565 0.0103513 0.0154288 0.0215668 0.0157372 0.00676829 0.00824742 0.00938144 0.00938144 0.000896741 0.00181917 0.0100068 0.00537464 0.007466019893233126 -0.005555151206606724 -0.010338722095493143 -0.007640217499635824 -0.004459801432193845 -0.0008070877572915755 -0.0019518693828492295 -0.004461748261818189 -0.015283894451294387 -0.004596463345403373 -0.001492327445921063 0.0128211604799702 0.01144843458413762 0.007495720924894916 0.0025077733866235427 0.0034337637096248383 0.00590381 0.0184445 0.0178034 0.0155235 0.00259298 0.000515464 0.00989691 0.00752577 0.00992288 0.00471643 0.00320577 0.00503477 0.00639292 0.00736702 -0.002759444335528085 -0.004048073731304496 0.0019349690612527719 0.0020221714864161323 0.005707838045550295 0.0009573354384688628 -0.003270954354001125 0.004975662446327457 0.013168981889697878 0.0191597888779498 0.00869247284765715 0.0107963 0.0122441 0.00550164 0.00577802 0.00472135 0.00672526 -1.57154E-05 0.000618147 0.00123711 0.00216495 0.00989691 0.0059796 0.00535504 0.00687956 0.00359856 0.00416221 0.00418837 0.00854248 0.00111417 0.0027063729829440086 0.0007872239224361669 0.0075314494517425504 0.007232245560896643 0.003961406496573269 0.016826838938407578 0.01597983058381455 0.0192387 0.00996467 0.0129206 0.00858565 0.00521917 0.00484543 0.011958 0.00284097 0.00371098 0.00226761 0.0102062 0.00340206 0.00639175 0.00597938 0.00680501 0.00729517 0.00405028 0.00249051 0.00455012 0.00151464 -1.39232E-05 0.00410098 0.007011078337580123 0.00796385158525641 0.00348271 0.00637483 0.0130388 0.0110271 0.0104261 0.0048204 0.000646377 0.00310278 0.00937907 0.0101804 0.00384312 0.00383067 0.00329897 0.00659794 0.0014433 0.00865979 0.00340206 0.00886598 0.00536082 0.00845361 0.00185567 0.00577094 0.00174254 0.000967157 0.00906499 0.00021348 0.00200343 0.00717558 0.00313861 0.0060346 0.00684047 0.00207819 0.00105238 0.00280519 0.00380026 0.0101766 0.00151929 0.00632255 0.00795704 0.00402062 0.00773196 0.00309278 0.00659794 0.00608247 0.00731959 0.0056701 0.00391753 0.00793814 0.00701031 0.00278351 0.00876289 0.00701031 0.00835052 0.00546392 0.00164948 0.00287956 0.00886404 0.00527271 0.00969135 0.000206186 0.00195876 0.00659794 0 0.00474227 0.00783505 0.00948454 0.00536082 0.00474227 0.00134021 0.00391753 0.00154639 0.000927835 0.0085567 0.00381443 0.00690722 0.00814433 0.0072162 0.00225032 0.00574697 0.000601307 0.00660838 0.00556912 0.00931814 0.00258482 0.00612355 0.00716029 0.00970016 0.00350842 0.00838297 0.00843025 0.0035561 0.00315958 0.00304196 0.00945657 0.00803917 0.00329897 0.00979381 0.00134021 0.000927835 0.01 0.00247423 0.00134021 0.00783692 0.00453673 0.00775781 0.00295523 0.00997278 0.00305297 0.00866233 0.00902207 0.00228657 0.008598 0.000665615 0.00663988 0.00758665 0.00254626 -0.00173252 0.00650576 0.000904673 0.00639796 0.00700153 0.00761061 0.00531371 0.00927835 0.0101031 0.00474227 0.00670103 0.00505155 0.00536082 0.00701031 0.00866461 0.00259953 0.00597775 0.000484124 0.00617079 0.00858754 0.00637137 0.00467431 0.00899292 0.00373727 0.00894146 0.00236871 0.000530261 0.00609774 0.00691614 0.00107963 0.00119881 6.75036E-05 0.00840786 0.0086642 0.00519108 0.00235442 0.00412 0.00882923 0.0101031 0.00896907 0.00907216 0.00958909 0.0014298 0.00931344 0.00396888 0.00453086 0.00959195 0.00784189 0.00170237 0.00610963 0.00203516 0.00328358 0.00199132 0.0033603 0.00673009 0.0103874 0.00894425 -0.000721666 8.15572E-06 0.00201451 0.000904389 -0.000846029 0.00851529 0.00298902 0.00916359 0.00921843 0.00319144 0.000927835 0.00185567 0.00268597 0.00617185 0.00672781 -0.000194242 0.00345671 -0.00408861 0.00222059 -0.00119864 0.001242164549257989 0.007163236173922642 0.0019292916455835919 -0.0015211735777889903 -0.00010779165416270939 0.00011885122266531532 -0.0012905429149032124 -0.0017094883537660261 0.00884777425068681 0.0030600205866887008 0.01231511062046417 0.014076748974230197 0.00956094 -0.00114844 0.00413496 0.00502543 0.00839095 0.000328712 0.00886598 0.00804149 0.00718419 0.00814066 0.00323608 -0.0010457 7.50503E-05 0.00183025 -0.00489948 -0.010136933385794819 -0.003390531761130165 0.0005709806958757145 -0.0009459215945260913 -0.00026206375335158434 -0.005113161779186015 -0.0059738938723540875 0.00466545474819593 -0.002624872930642158 0.001834707215770379 0.00171499 0.002429841747560382 0.010799911477356627 0.00820517883912832 0.00524776 -0.00240252 0.000509802 0.00731434 0.00189825 0.000618557 0.00958415 0.0048422 0.00742743 0.00682755 0.00209515 0.00176919 0.00275302 -0.005103443626855027 0.0023468469757922557 -0.0037549225517837844 -0.003452579300830928 0.002714905474134188 0.0003984342656808701 -0.007483494311764474 -0.009907405591883611 -0.0012553168067780858 -0.003514631297719057 -0.00614978926033093 0.007808429887701704 0.00906866 0.00965009 0.015926601713784915 0.0139192 0.000137848 0.00481524 0.00640963 0.00361371 0.00311343 0.00980769 0.00397902 0.00126209 0.00099105 -0.000394197 0.00378577 0.000330376 -2.7131898444662168E-05 -0.004221155205032026 -0.009445540490432827 -0.0063005193446691535 -0.008959563664781494 -0.0007485575077330826 0.0017380175269693372 0.006899052933341638 0.004830021968462955 -0.002488810506039351 -0.004675805821792466 0.00040384137826837344 0.006816774587880851 0.00560245 0.0119556 0.0185639 0.0118517 0.00437316 0.000447946 0.00968935 0.00824742 0.00604773 0.00887244 0.00191474 -0.000771831 0.000616682 -0.00435793 -0.0031221858910245523 0.004158118944614709 -0.006517202110283593 -0.005352732726529569 -0.010066286980551401 0.0007382877160541415 0.008305685654321923 0.010695992390650227 0.007461985221689983 -0.004516103540865507 -0.004610379442484874 -0.014550998513448203 -0.0017886750562970918 0.003640789374662763 0.009428267009347497 0.0218989 0.0167108 0.00553552 0.00384059 0.00819797 0.00454328 0.00670103 0.00493415 0.000997105 0.00112445 -0.00213295 0.000730284 -0.002536449017154419 0.006350514486280172 0.005017254179100168 -0.008120350245171028 -0.005939753267165894 -0.0001676194359512767 0.006167316181411343 0.0020070927666456357 0.00439529190688551 0.004963577780808179 0.0031828014358505382 -0.0033249733745381828 -0.0151306 -0.01098 -0.0032401870831275446 0.011733419970487982 0.0215864 0.0226347 0.0175403 0.00680605 0.00149497 0.00196819 0.00639175 0.00641642 0.0041782 0.00218686 0.00423972 0.000838908 -0.003425509017154419 0.000806667320056005 -0.002012200777858677 -0.003318548813593643 -0.006758819159655048 0.00015111138883981942 0.005239156179717307 -0.00023765709714493116 0.002297558077150038 0.0053136333332050424 -0.003632674795491963 -0.017243239240417544 -0.011527313407301006 -0.01312304117613879 -0.010788797700440857 0.011054484702410352 0.020482 0.0188048 0.0157784 0.00831507 8.64548E-05 0.00113846 0.00979381 0.00227888 0.00852423 0.00185258 0.00628524 -0.00245804 4.4204603745712894E-05 0.003117283974504632 0.0009156821166174935 -0.00707420357594347 -0.007629200817854196 0.0002207183310087111 0.001849801762411483 0.0030025488643161276 -0.0001327647861219699 -0.00873253948649664 -0.011322288203905033 -0.01129339746710334 -0.00892081536202247 -0.007810755086237469 -0.007076783856407391 0.004188745560384901 0.006996240597272078 0.0122397 0.0152463 0.0010766 0.00368606 0.000934276 0.00969072 0.0102139 0.00750922 0.00669952 0.00750687 -0.000953564 0.005827505091051788 0.001053374628725159 0.00028399181613324837 0.00529864257681269 -0.0006358960039348925 -0.006637673246853979 0.001577569323031136 -0.004460879172795506 -0.004252241284471569 -0.0031105083867697977 -0.020099424560640875 -0.015338361640066776 -0.010478487978920682 -0.00825292915915586 -0.008051657384299176 0.004189113461345295 0.0023995256341592546 0.006515587743305273 0.00966483 0.0116901 0.00276964 0.00485339 0.00103093 0.00256782 0.000368659 0.00304517 0.000912532 0.00201854 0.002793571349513205 0.012072554405366849 0.009680772847801451 0.0034034208274552735 -0.0012163085835144765 -0.007325688630804106 -0.011597481524863663 -0.007287254413165625 -0.004881667692306053 -0.013951734732004714 -0.015736688321943946 -0.014140321397127257 -0.009565673571851747 -0.01013602270805001 0.0010985184842004126 0.003691802334249083 -0.0019116382186641486 0.005749925287519855 0.00483198 0.00619377 0.0011549 0.0102094 0.00608247 0.00440409 0.00556511 0.00765311 0.00901435 0.0142722 0.005734235208553379 0.005221779039489653 0.006164324114926704 -0.003491938937212637 -0.005702456763755332 -0.004291112358254058 -0.010995176767862425 -0.011087334013470515 -0.009657759052464208 -0.008406734359507595 -0.008398181101502202 -0.004250330389271633 -0.013410960880825239 -0.006375821774328228 -0.004796693762754155 0.002043871680009443 0.0031819815449075656 0.008562185833249946 0.00363343 0.00198386 0.00564801 0.00818629 0.00556701 0.00431596 0.00867908 0.0087708 0.012407 0.0114837 0.00920299155190435 0.010620425748739322 0.0038736979548212695 -0.0027190246095756257 -0.003978563918174625 0.0003330366124409579 -0.007500992230945635 -0.010228777531275206 -0.006144830326253607 0.001394156218508542 -0.003967217608299238 -0.00681216283672474 0.002247201372557175 0.00344214172812822 0.004464019505407922 -0.00416938 0.007404985073803799 0.0074763876695309196 0.00160179 0.00146749 0.00499674 0.00135342 0.00329897 0.00195402 0.0096193 0.00385107 0.013042 0.0127973 0.011497879266815884 0.0029869524378952628 -0.0005687635046810655 -0.004840906722877895 -0.005346478683194231 -0.0061870619930149365 -0.007647823721078817 -0.002583776107429677 -0.006838145772076638 -0.0011784317192620915 -0.009942711863205419 -0.0062695950506842825 -0.0007554125471527185 0.0038728931359643596 -0.006184439126985469 0.006068242336282712 0.007742640519137762 0.00899520243355305 0.0033125 0.00913919 0.00456972 0.00922806 0.00453608 0.00525773 6.74409E-05 0.00393451 0.013295101274250059 0.007323558504187661 0.011892171203626628 0.005018765597930407 0.004279722124257171 -0.002770379984744616 -0.0003561742159048168 -0.004513854170155112 -0.008188673379945288 -0.006832533525560157 0.0012343069277792951 -0.0017882869802402076 -0.00112086128591966 0.005156910851117127 0.003622616800560028 -0.002516118837846022 0.0030064717900599764 0.000207281621238204 0.00419907820063565 0.009254515014654808 -0.000169789 0.0012672 0.000544098 0.0091812 0.00329897 0.00217716 0.00312031 0.00851556 0.009776370764550036 0.007659067772925357 0.006236207839753663 0.0004796413827786911 4.668624349861032E-06 0.0012368142782501672 0.0006902667686747319 -0.002699885165057897 0.0004792050427608138 -0.004613323759243812 0.003801236486965327 -0.002076119065492402 0.0008722530544578136 0.007977371186446472 0.0021756410931384885 -0.0010574838152205823 -0.0009380317551139246 -0.0016035163787617962 0.0003394498524807371 0.0031044407448207858 0.00512771 0.00620063 0.005469 0.00401976 0.0042268 0.00961134 0.00577863 0.00421936 0.0135234 0.016238463983462913 0.008925447847516255 0.0032154141983995617 -0.0006723850746924085 -0.0038635035964961315 0.001515823080286259 -0.004764464909942073 -0.00633259337390238 -0.007264379510673852 -0.008387433919845625 0.0024099738428046916 0.003274488639222013 0.0006793442198634596 -0.0008290342507167731 -0.004881377335321713 -0.0071183899650582435 0.003160395516754022 0.005138456558839338 0.00268971 -0.00221654 0.00317489 0.00790014 0.00876289 0.00319588 0.00154639 0.00155207 0.00743987 0.00733381 0.004981284587300211 0.012384531416559994 0.006590730059517779 0.002520055527185553 -0.002325352287205394 -0.0064803393236768075 -0.008126589153656586 -0.005731483234998053 -0.003743616320930315 -0.003409610649215146 -0.00023550899905878586 0.000989077436329641 -0.005892705373907584 -0.01119327634740328 -0.006964933379693142 5.766625569947216E-05 0.001989848150500253 -0.0023039793457603603 0.00596722 0.00539035 0.00995904 0.010294 0.000824742 0.0014433 0.00134021 0.00674873 0.00758794 0.00611686 0.00989546 0.01435909217344787 0.015082573333538803 0.013294958075944054 0.006857337148146717 0.0073095912832427685 0.008259322555125504 0.0009429091275649284 0.007026804415145813 -0.006063695373612356 0.0003462338277924776 -0.005396274135728396 -0.0026337109784805826 0.0002650198112369797 0.004630479383727009 -0.005801431469349593 0.0015982059622974432 0.00410466 0.005626 0.00716807 0.00780288 0.00831633 0.00608247 0.00268041 0.00752577 0.0046548 0.0054698 0.00828473 0.00396825 0.00672070152910007 0.008172175925118824 0.002448986500878481 0.010240117367475801 0.004444108655169783 0.0013825409817954546 0.008717360273928134 0.002458665609612983 -0.007892683060668057 0.0011870663267264988 0.0012857203377052609 0.002077333977697559 -0.0054746009175675354 -0.007520310248086632 0.0030979760320226637 0.006941661781335851 0.00329071 0.00682305 0.0070475 0.00327812 0.00193645 0.00257732 0.00360825 0.00639175 0.00988585 0.00525507 7.16912E-05 0.00702707 0.00305708 0.00889886 0.007678231562123891 0.004034458329971909 0.004967255834304312 0.007604888149029977 0.00614641099732852 -0.004643163448612882 -0.005733865028293367 0.007883904013103024 -0.004056044254489719 -0.0038810134442503973 -0.0027080132497199322 -0.000493492 0.00332439 0.00122682 -0.000378641 0.00415816 0.00574075 0.0087792 0.00371311 0.00536082 0.00835052 0.00474227 0.00968988 0.00588011 -9.03592E-05 0.00212669 0.00441845 0.00196151 0.00169434 0.00280433 -0.0017114916760698658 0.0008742424328645434 0.0006436742153534656 -0.0006484564600974681 0.000340754556416861 -0.002304555690708059 -0.00339294667666767 0.00135837 0.00023921 -0.000159742 0.0013357 0.0054667 -0.000550417 0.000540559 0.00479866 0.0067026 0.00742456 0.000721649 0.00515464 0.00618557 0.00876289 0.00948404 0.00312634 0.0076449 0.00409516 0.00253221 -9.05954E-05 0.00858076 0.00555377 0.0009700763448526473 0.0014340676189970685 0.00137364 0.00512383 0.00844968 0.000610332 0.00627555 0.00863644 0.00292912 0.00132144 0.00955694 0.00325213 0.00243599 0.0101026 0.0071134 0 0.00123711 0.00917526 0.00845361 0.000515464 0.00134021 0.00742268 0.00350515 0.00144188 0.00657967 0.00611164 -0.00028721 0.00991257 0.00720418 9.80986E-05 0.0020384 0.00745744 0.00242226 0.0011133 0.00942225 0.00965875 0.000727842 0.00210374 0.00922649 0.00366766 0.00591757 0 0.0057732 0.00845361 0.00556701 0.00896907 0.00494845 0.000721649 0.00752577 0.0102062 0.00412371 0.00123711 0.01 0.00154639 0.00278351 0.00876289 0.00814433 9.80093E-06 0.0101475 0.00476784 0.00556808 0.00371134 0.00134021 0.00164948 0.00659794 0.00206186 0.000206186 0.00824742 0.00195876 0.00154639 0.00216495 0.00845361 0.00948454 0.0071134 0.00927835 0.0042268 0.00824742 0.00237113 0.00463601 -7.57743E-05 0.0072938 0.00605654 0.00499327 0.00569535 0.0100915 0.00798027 0.00247575 0.00277266 0.00464937 0.00636067 0.00727059 0.00408855 0.00880532 0.00832651 0.00266258 0.0012087 0.00618397 0.00659794 0.00350515 0.01 0.000206186 0.00876289 0.00907216 0.00247423 0.00834563 0.00566842 0.0094825 0.00894174 0.00501479 0.00118506 0.0109917 0.00560076 0.00837655 0.00136828 0.00626331 0.000419786 0.00428935 0.00187323 0.0031321 0.00476773 0.0100704 0.00387314 0.00756412 0.00585777 0.00371196 0.00525773 0.00515464 0.00536082 0.0102062 0.00195876 0.00958763 0.00690722 0.00081033 0.00681731 0.00419156 0.00662524 0.00720571 0.00692947 0.00148252 0.00479718 0.000996957 0.00776321 0.00501643 0.00333889 0.00953164 0.0075576 0.00721231 0.00300462 0.00237331 0.00541697 0.00494033 0.00998414 0.00833456 0.000917846 0.00349463 0.00949914 0.00164948 0.01 0.00721649 0.00680541 0.00897078 0.00192791 0.00243568 0.00654629 0.010313 0.00507257 0.0104276 0.0034239 0.00437287 0.00910558 0.0026457 0.00862008 0.00394812 0.0023563 0.00668429 0.00951499 0.00560617 0.00564081 0.00456167 0.00903235 0.00327391 0.00108138 0.00392052 0.000496458 0.00607333 0.000927835 0.000309278 0.00227294 0.0011427 0.00846756 0.00626956 0.000594971 0.00906146 0.00228361 0.00979091 0.00944270843017334 0.008074944497961749 0.003925267433741787 0.0010816731201785377 0.0005224977107888065 0.00041778020753326214 0.003236840235473239 0.0007694558823457912 0.005705004369735642 0.00900055165439836 0.004913617195366149 0.004771896313020358 0.00686495 0.00459882 0.00136342 0.00434913 0.00250097 0.00730531 0.00453608 0.00350556 0.00179983 0.00594709 0.00785095 -0.000105878 0.00402897 0.00695067 -0.00143833 -0.00042100961518828244 -0.0017206035473998752 0.0005078929049106285 -0.005280832944285807 -0.0032012225351561807 -0.009663969243100656 -0.0020350362895145 -0.010424826809028743 -0.01000403595207122 -0.009117987512387384 0.00579448 0.002527557505249164 -0.002603446822493164 0.0016596241491491942 0.00689023 0.00742413 0.00405989 0.0097232 0.00489016 0.00958763 0.000734531 0.00690452 0.00376885 1.82952E-06 0.00419507 0.00141664 -0.00170094 0.0046779760754333535 -0.004612879573918942 -0.005948135747409509 -0.004868825844331199 -0.0038144402977923608 -0.005902558246993961 -0.007922551600772166 -0.013294710210742671 -0.008238528661903766 -0.013147265387450653 -0.009000316864847738 -2.1795773278223774E-06 0.00530567 0.0038884 0.0001310559642813732 0.00254583 0.00368055 0.00389832 0.00603598 0.0067265 0.00123847 0.00363305 0.00421514 0.00460405 0.00314538 0.00594351 0.000477219 0.00274641 -0.0027343731549432106 -0.006017519740667127 -0.007801806128416819 -0.00761717870617392 -0.007720542275541373 -0.006389212970087315 -0.001502229781593106 -0.005871012975533795 -0.00692597684042273 -0.010994447061649546 -0.00642772154115374 0.002461043069159981 0.00018928561106130431 0.00505802 0.00399994 0.00566248 -0.00144284 0.00266099 0.00626949 0.00833427 0.00556701 0.00302267 0.00924952 0.00982063 0.00758509 0.00104913 0.00432526 -0.004570067456676627 -0.0016520069935933204 -0.005517511412787848 -0.007447225797200228 -0.007640523885584702 -0.0003666013181431251 0.0024921403501401815 0.002437998734603342 -0.0014719686290933615 -0.003608447347816703 -0.0010383748552609583 -0.004490027437065043 -0.0015952093661710293 0.0013636599394838027 0.004031245542401098 0.0015684 0.000131117 0.00219391 5.77714E-05 0.00024458 0.0055998 0.00938144 0.00255916 0.00699557 0.00222452 -0.00178297 0.00385676 0.003678913284508014 -0.00397212697507224 -0.009716763922409787 -0.008810442027611541 -0.00889980390177954 -0.008257931888730356 -0.0007677485031566609 0.002242365114566547 0.003510795572470888 0.005966923310679739 -0.0019368790606860945 -0.0004055476236754131 -0.000645231 0.00541615 -0.0022661104353117415 -0.0037154919571642576 0.00234828 -0.00378332 0.00593542 -0.000173084 0.00860574 0.00772315 0.00103093 0.00269296 0.00265648 0.00906203 0.00674203 -0.00163147 -0.0040769667154919855 -0.009046581190450643 -0.008326702004657583 -0.00818900740486364 -0.008768841777772962 -0.002565571936802411 -0.001628176887452479 -0.0029501930980193225 0.0014122524482764944 0.0024912341514803783 -0.0038323375115821177 -0.0014127943894266894 -0.009173825566513985 -0.003443652548607445 -0.00822968559898829 -0.0027257543479016775 -0.000282958 -0.0021024 0.00680505 0.00788704 0.00111962 0.003502 0.0071134 0.00474962 0.00611244 0.00487643 0.00605268 0.00381219 -0.003361175298164972 -0.0040397498191951575 -0.0037265306057903086 -0.002470987603873172 -0.007100568485073883 0.0021249339061913315 0.00015850588065895386 0.0025729826334874905 0.003434062508838968 4.699592432211385E-05 -0.008913892120750255 -0.006007937243529011 -0.0028795453018009088 -0.00506382530765345 -0.0029730755413967 -0.004917139235859844 0.0017596308953379278 -0.00131192 0.00230661 0.00646989 0.00785868 0.00342212 0.00268041 0.000823907 0.00468669 0.00308253 0.00626611 0.00322529 -0.006572487857979656 -0.008415474279398415 -0.004342453944701131 0.0029505407505841536 -0.0015573655135213199 -0.00016371773327089622 0.0012278156598949218 -0.001703104402033778 -0.005560368706426294 -0.00853800075776742 -0.01147538014701301 -0.01015500486101122 -0.005396535151372795 -0.011299769998165623 -0.0058826585556346934 -0.0005500505304694625 -0.003581678973464301 0.0006220012508723066 0.000893474 0.00613416 0.00477871 0.0063417 0.01 0.00692246 0.00673957 0.00395105 0.00243174 0.00257651 0.0009154816583195713 0.0028094294504278578 0.0009260705203354249 -0.0009015181049446023 0.002980182451562496 0.0012007208696332872 0.0031181651210042184 0.0004178763077225032 -0.0013650838443332054 -0.008161976079081168 -0.0063576709662385815 -0.006125750499780901 -0.00017426224783750934 -0.0041023242997244 -0.0018654989181507665 0.005414869159647523 0.0015688430462169553 0.005599900203298637 0.0107409 0.0047392 0.00624862 0.00856422 0.00649485 0.00467356 0.00553629 0.00424226 0.00475429 0.00594083 0.006718380293232241 0.005903540806808837 -0.0006154847158865614 0.005115728916345682 0.001925799728322725 -0.0016246133059344171 0.0024163895102715743 -0.0019948255243448666 -0.011329997936193784 -0.0036542591581514247 -0.00962315414133094 0.001988655300394042 0.0027506288027797318 0.004958785093165467 0.0039666526480602 0.0015916864233135822 0.007833454259442417 0.006408671324981675 0.0084114 0.00292024 0.0109186 0.00253564 0.00340206 0.00352076 0.00539706 0.00722141 0.000971297 0.00875778 0.005690210403679876 -0.001979818314474367 0.0032114250056371183 0.0057430012838620625 0.0017826040701431041 0.0037107993004250554 -0.005761108002340859 -0.0012095942332810221 -0.0035779630218763783 -0.00271257453906954 -0.0025838156092874206 0.002957155873789476 0.00797841442686499 -0.00023170705400563565 0.005110834499075095 0.0104551 -0.0003548791890914624 0.0017441849884767637 0.00518559 0.00122134 0.00614905 0.00358533 0.00948454 0.00309837 0.00605873 0.00293633 0.00879139 0.00764172 0.003841265505616517 0.0031923416517313555 0.006894312543960419 0.006094426847530617 0.003969313955351731 -0.002195385329873996 -0.002457307564538051 0.0040397721236405115 -0.0009150811516403086 0.0052957305917052154 0.001268301386227153 0.005747992937890847 0.00948223655941135 -0.001166308105230319 0.008308833636674935 0.00969170520904642 0.0016979805724627764 8.272295883301641E-05 0.0016694 0.00474904 0.00585065 0.00323226 0.000824742 0 0.00419913 0.00272404 0.005394644388081094 0.0025743320672230083 0.004787285838160841 0.0057775020138791265 0.0017374491122379694 0.0029704327117622293 0.0019373346172323613 0.004743603784459988 0.000840331101649577 0.004358493630787511 0.006492538675302716 0.003448530200715945 -0.0007105484108453624 0.007527160769255666 0.004508618417766437 0.003048998322322452 0.0038620791517433375 0.0032833255740219503 0.0019332310162156776 -0.00044378235754288136 0.0109191 0.00862584 0.00777969 0.0071572 0.00371134 0.000817665 0.00848065 0.0009756 0.011321210632848657 0.013108274767294674 0.010662751739303707 0.0075830125547690815 0.0012168549088671908 -0.000167684386805827 0.003940647455135412 0.002339074424942692 0.002910486258659563 0.0014666740549150459 0.010135308124129577 -0.003221993260664069 -0.0007777552229775965 -0.0027916657327112194 0.0006404920195642985 0.006915874512172772 0.006974638427268072 -0.0012937944259780495 0.003275234023721909 0.0015157914201290134 0.0103711 0.00743626 0.00131241 0.00320256 0.00639175 0.00729366 0.00501689 0.00748767 0.00182124 0.004840984935971713 0.00406220053413436 0.004297297099334984 0.005106875511528798 -0.002749126302293684 0.004121876088995577 0.0016370377806795438 0.0025510773593804084 0.002030573822728986 0.0027616828342175814 -0.006153906025855983 -0.0007892951416334871 0.004779182600681616 0.002626058273362556 0.002697133722338796 -0.0002566509184462436 0.002909676946676607 0.009266325647632113 0.00976222 0.00365659 0.00892011 0.0080922 0.00628866 0.00701031 0.0057732 0.00174448 0.000813843 -2.59503E-05 0.009494573797091939 0.004305923577542029 0.004248005544902324 0.0007212747339506248 -0.0008769103521688247 -0.00028060468971375003 -7.710068325549503E-05 -0.006330362567669798 -0.0056249581358659975 -0.0008708665632671579 -0.006442172811112573 0.0015985785143520467 -0.0063836100512409495 -0.0028100147351922244 0.00910631582943402 -0.0005712235395402936 0.003540180717981727 0.0072633927363339405 0.009862 0.00687903 0.00430736 0.00594479 0.00618557 0.00257732 0.00185567 0.00615777 0.00434603 0.00701117 0.000985246 0.0028069712819113377 -0.0014185839519026309 -0.0012071867401443582 0.001960997392501672 -0.0011372540099442584 -0.002120897360335825 -0.004817698351673753 -0.0004564549885061907 -0.0025296881651954216 -0.006877100678658045 -0.0027596479506710185 -0.002902841423353796 0.003259335058624382 0.0069298466712028875 0.005850584611310697 -0.0007675580232563172 0.00185786 0.00442563 0.00430369 0.000977893 0.00747484 0.00938144 0.00154639 0.00948454 0.00139785 0.00821637 0.000681817 0.00784554 0.0022347612656973127 0.006383842350099808 0.0015603090794239164 -0.0026620858763505848 0.001028872709285522 -0.0028781681039635396 -0.005252474314864854 -0.007178009055845221 -0.004448191894256001 -0.010089760741689525 -0.0022327207162929487 -0.005711104735878951 -0.004757548703155423 0.00506262296948632 0.00014249441595259724 0.0009302150462169553 0.00411973 0.00918765 0.000503989 0.00901395 0.000574512 0.00927835 0.00536082 0.00268041 0.00864393 0.00110746 0.00457502 0.00661994 0.00845777 0.00507954 0.004206499100127134 0.002616719773109068 0.0020756962523755685 0.003010213678213555 -0.0032947383310295854 2.3680742794620012E-05 -0.004935623224027667 -0.005915476187090232 -0.00134059684811189 0.0074511175136903465 0.00604942232030942 0.00242996 0.00489614 0.00593886 -0.000566756 0.00251117 0.00910963 0.00973247 0.0079438 0.00154639 0.00525773 0.00556701 0.0010297 0.00990473 0.00138272 0.00247004 0.00322748 0.0092171 0.0014522 0.00111681 0.0005127213729862107 0.006774743179335487 0.0013791289129099513 -0.004180444983425952 -0.003865845125760669 0.0050527063867427825 0.004008454668642522 0.00736345 0.00718421 0.00679219 0.00336598 0.000106541 0.00627974 0.00447056 0.00900377 0.00330399 0.00773797 0.00762887 0.00628866 0.00917526 0.00278351 0.0102052 0.00657857 0.00717704 0.00593265 0.00202737 0.00589923 0.00627181 0.00378774 0.008039524984172715 0.008324528358580028 0.00296965 0.0042215 0.00275628 0.00190374 0.00580103 0.00331147 0.0068512 0.00567108 0.00961846 0.0047114 0.00135605 0.00133806 0 0.00979381 0.00845361 0.00587629 0.00309278 0.00814433 0.00175258 0.00103093 0.00731959 0.00401162 0.00249031 0.00288831 0.000127304 0.00443627 0.00672548 0.0044381 0.00103791 0.00209281 0.00613695 0.00873675 0.00579578 0.000268838 0.00757366 0.00205498 0.00837388 0.00443315 0.00154767 0.00360825 0.0028866 0.000206186 0.00742268 0.00670103 0.00896907 0.000515464 0.00237113 0.000103093 0.00113402 0.0014433 0.00402062 0.0056701 0.00701031 0.00886598 0.0085567 0.00772335 0.00633243 0.00450266 0.00422971 0.00618557 0.00371134 0.00443299 0.00360825 0.00804124 0.00845361 0.00938144 0.00969072 0.00103093 0.00886598 0.00752577 0.00278351 0.00670103 0.00278351 0.00701031 0.00278351 0.00103093 0.00762904 0.00340792 0.000207009 0.000781688 8.1514E-05 0.0091974 0.00931289 0.00673878 -0.00152239 -0.00111848 -0.000872764 0.00325067 0.00584286 0.00917406 0.00641672 0.00423388 0.00436115 0.00163816 0.00835005 0.0101031 0.00237113 0.00505155 0.01 0.00257732 0.00443299 0.000103093 0.00970231 0.00712064 0.00182244 0.00234595 0.00226117 0.00798574 0.00796204 0.00388148 0.0028993 0.00560828 0.00414684 -0.00022826 -0.00517539 -0.00800188 -0.01769 0.000113189 0.00697622 0.0118251 0.00939151 0.0035876 0.00670069 0.00917526 0.0056701 0.00670103 0.00412371 0.00257732 0.00298969 0.00876289 0.00194979 0.00336106 0.00122588 0.000722611 0.000322976 0.00462272 0.010572 0.00460144 0.00415711 0.0267346 0.0363716 0.0525122 0.0455516 0.035502 0.0268201 0.00776438 -0.0077794 -0.0145314 -0.00527329 0.00175902 0.00536271 0.00655531 0.000411481 0.00368518 0.00659794 0.00783505 0.00876289 0.00783949 0.00432553 0.0058375 0.0055599 0.00492988 -0.00156111 0.00365525 0.000903538 0.00395906 0.00955614 0.0293034 0.03979 0.0478954 0.0703387 0.0834234 0.0721555 0.0314352 0.0114223 0.0043294 -0.00279671 0.00267846 -0.0123197 -0.00431714 -0.00477944 0.00706851 0.00894594 0.00958763 0.00268041 0.00259424 0.00688268 0.00143414 -0.00632807 0.00120783 0.000505412 -0.0117028 -0.0130808 -0.018268641235451005 -0.02086934470007865 -0.00523939025960816 -0.004267960173340372 0.003688959570711482 0.029991392635863447 0.037575803496481985 0.03578997950307547 0.044851379148129374 0.0463853490682665 0.03365461916587668 0.03669653966280121 0.020801 -0.00524887 -0.00804998 0.00534073 0.00665327 0.00891828 0.00515464 0.00989787 0.0084914 0.00328471 -0.00161537 -0.000578806 -0.00545809 -0.005934 -0.0144925 -0.02492681506713739 -0.02985801853176504 -0.014002874019169201 -0.014486024717077241 -0.019133722327784812 -0.04223519213157377 -0.026102042445403827 -0.016492709812067442 0.0030294815857986844 0.008586836585129539 0.00586498 0.005546479795905996 0.03779072901502459 0.028682059272360505 -0.00587224 -0.000420851 -0.0036939 0.0060059 0.000179632 0.00649485 0.00976592 0.00844802 0.00255344 0.00709978 -0.00282319 -0.00580565 -0.00273851 -0.011207753088627507 -0.009175457325224082 -0.013983212706157967 -0.007155430999536674 -0.020976019597800107 -0.036582849589520273 -0.05674122129890655 -0.048387919137488265 -0.04781838946495397 -0.01808850938018659 0.007957565220962411 0.04013187232165924 0.00977983 0.0208412 0.02619451969829582 0.00915331 -0.000659971 -0.00181111 0.00621541 0.00968969 0.00418657 0.000738062 0.00444473 0.0087382 0.00354513 -0.000372511 -0.00576552 -0.00634934 -0.005115813222902286 -0.00381451498005455 -0.02086721228540455 -0.04958747887131619 -0.05278093813821934 -0.06213891816798664 -0.030496009970163218 -0.021863839707249394 -0.02513068578856833 -0.028483954106939845 0.023778842727315775 0.04158670539665306 0.0319665683812368 0.0312328 0.0218972 0.0149806 -0.0139403 -0.00384269 0.00549411 0.00708291 0.00154639 0.00824428 0.00335808 0.00895613 -0.00102456 -0.0088913 -0.0146394 -0.020203170868392264 -0.015729259223776722 -0.023149101989846998 -0.04113545032926076 -0.06028393903337372 -0.04057973354907605 0.0008888254008229254 1.7847220982788922E-05 -0.006090857227218176 -0.013241993459149465 -0.0214070158508145 0.009030758034408356 0.025120411001072106 0.0298902862718648 0.033425607890526766 0.0396376 0.0225877 0.00493554 -0.000256735 0.00838209 0.00730439 0.00690722 0.0067831 0.00363235 0.010883 -0.00671688 -0.0135381 -0.004475970263748309 -0.011802108763242334 -0.014398172000589687 -0.015783581354519276 -0.018067564371240102 -0.007940275559693144 0.013794047862419532 0.018717609353458273 0.01769886568758169 0.0036196589135116075 -0.008000842213401265 -0.021094113907725198 -0.0187749 0.00265246 0.014272265279557007 0.02292142926803351 0.051356 0.0215335 0.00406791 -0.00263581 0.00467164 0.00555667 0.00309278 0.00851397 0.00651751 0.000391369 -0.00508316 -0.011511 -0.013995490263748309 0.0028285979206551515 0.0025431199142040267 0.01681540060674585 0.024613081157728277 0.0268120653470774 0.005493541797578074 0.015227152205948183 0.01742352468430447 -0.017010781405956032 -0.03218147791304554 -0.03376770939345796 -0.04742532444514198 -0.01850327647185113 -0.006908374118115859 0.006037909325651001 0.0452803 0.0158684 0.00395589 0.00203506 0.00482177 0.0050632 0.00298969 0.00578862 0.000702605 0.00883275 -0.00918315 -0.0120703 -0.002743696669647133 0.0017572071374899515 0.029685711607777686 0.03257067817911978 0.033275817331025984 0.02407092340801465 0.008535268696184496 0.003656946347042031 -0.009350151873527529 -0.039960305960564955 -0.04685276447166556 -0.03784997345683734 -0.03797004675328236 -0.03388804762263207 -0.020774480330207575 0.0016834575637412808 0.03260870660008802 0.0114797 0.00411102 0.00730225 0.00763966 0.000463407 0.00453608 0.00496828 0.00753462 0.00101771 -0.00921596 -0.0101273 -0.016561104800614443 -0.002622841157038662 0.02017018569298713 -0.0018051234154309813 -0.008217038562012979 -0.0014147738650345139 -0.020113101571987223 -0.02345494419867659 -0.028330284583742774 -0.031519147270184976 -0.03170462192975383 -0.048737910096190565 -0.04753812608357875 -0.015064136543634147 -0.001341725511494752 0.010502909494201816 0.015389635636434766 0.014222759745523898 -0.00775593 0.00779425 0.00109098 0.00838646 0.00175258 0.00306018 0.00378008 0.00835143 -0.0039433 0.00903431 -0.012660138934170012 0.0033813459427566605 0.002874974205010984 -0.002887457420371621 -0.03767338182758188 -0.02811697667019207 -0.026578859836151283 -0.006409364343069031 -0.01975150221017368 -0.04429925230735982 -0.0461863998769283 -0.02803102767517451 -0.029003870128171926 0.0038148297354317633 0.0038118307082023336 0.012994138864172496 0.020927659893516172 0.0004193602910184539 -0.00543531 0.00331937 0.00792594 0.0012458 0.00412371 0.00909337 0.00461477 0.0119987 0.0153685 0.024553 -0.007473803471578887 -0.018020748779660527 -0.005535265303793338 -0.0056446159422050635 -0.03099784019117646 -0.034538001418127226 -0.00024256487115612626 -0.00268597984778144 -0.026905239189434375 -0.03675854116207476 -0.04492508049515922 -0.03459018268176131 -0.004353565279102813 0.015570529874719654 0.005192760503837169 0.008632479600685644 0.0032842592102449394 -0.006507892163535892 0.00263656 0.000780103 0.00652013 0.000580514 0.000103093 0.00411721 0.000712482 0.00767631 0.0362916 0.0287653 -0.025972895412752377 -0.0030662378213575313 -0.0018595040767575384 -0.016061453370695724 -0.023078609528434404 -0.001753892198029913 0.00826794326299197 0.005265316338506421 -0.013085004020779143 -0.023941128795928638 -0.02287638505432188 -0.0064697321394879955 0.020347162320691396 0.010027423948199655 0.006518897431928541 -0.010423 -0.005279371100332894 -0.0032599083271695885 -0.00506088 0.00401309 0.00355882 0.00512219 0.0071134 0.0101255 0.00348062 0.00382022 0.0371146 0.0154155 0.005044473602463379 0.01776098635255781 0.00921862714149755 -0.018684235561345176 -0.0027899601049220205 0.0052675791012083365 0.0005030259956470949 -0.016248627311590217 -0.02719505525545635 -0.03311151382136312 -0.019156291955517643 -0.0015698954026288616 0.013993291880743507 0.015521298264174069 -0.026203320534837853 -0.018985815559973054 -0.0072268511269538505 -0.007504809563545672 -0.00251457 0.00883063 0.00727808 0.00947213 0.000515464 0.000721649 0.00662856 0.015363 0.02189533828813969 0.016894255292384145 0.009902516026302193 0.025384545681985043 0.02812524412155023 0.02218627224372025 -0.0005991949551239442 -0.00733862761481564 -0.01934281750805425 -0.03899249482942709 -0.029243439900616983 -0.002910346289290157 0.019486318651612697 0.014133570345353324 0.025051428020108908 -0.016258659793007307 -0.02240331628016088 -0.0021494191179582353 0.00440607602695406 -0.010487942981704374 0.00121585 0.00187735 0.00387329 0.00127393 0.00670103 0.00301487 0.00483493 0.00197879 0.022996722972883812 0.03289303355765211 0.009834049313593865 0.018178539892105022 0.026973424171062722 0.028271592101580863 0.0017502505950205776 -0.005163670503857595 -0.0058817886726502035 -0.013221300185693018 0.011521189518429798 0.012256422200671987 0.0016463586282699212 0.01931036301011604 0.0007281168992991496 -0.021226832939782267 -0.02168288111796235 -0.016398169117958234 -0.01145845531841335 -0.004157117254525005 -0.000281755 0.00800157 0.00402615 0.00309867 0.00453608 0.00158744 0.00920261 0.0196733 0.0187939 0.01929081993138481 0.002210577550095392 0.002987026927171525 0.02249927443165736 0.03397547172269217 0.018700725955794757 0.01941693877047139 0.02659268442962791 0.026033389173098276 0.03379591217639693 0.014111716688728605 0.005947597690634478 -0.0013940831050089436 -0.011597507737086368 -0.020307428279962063 -0.026411582829789993 -0.03109936961014416 -0.024877125462027506 -0.0140554 0.00370774 0.00274088 0.00640932 0.00350515 0.00907216 0.000618557 0.00759681 0.0199994 0.0155595 0.004609027837302882 -0.0007877948001758879 -0.008432581428289758 0.02347791618785143 0.007158166639821773 0.015881182588273226 -0.006172107848039265 0.0007175712167715472 0.01103095077329219 0.038917027025357875 0.03471751465253179 0.008654119059618829 -0.0038085471989815056 -0.014763032239813309 -0.0002521038933957998 -0.025634333955724155 -0.026599339224652883 -0.026517610736513146 -0.00666951 0.00493725 0.0089546 0.0071941 0.0028866 0.00907216 0.00948454 0.00535809 0.01796 0.00321774 0.0107788 0.014252018405417241 0.002963280203108733 -0.004460951055627281 -0.014299318741927242 -0.012912770770748273 0.002809335338896214 0.02459231497427436 0.04568032789371954 0.02731374122618306 0.016141283872487977 -0.009820637626732619 -0.006184619916576523 -0.0023450325761386033 -0.015525761874433407 -0.01941262583615789 -0.027699777964808162 -0.0100984 0.00607565 0.00587071 0.0077291 0.00767778 0.00195876 0.000309278 0.000927835 0.00661822 0.00546229 -0.00072171 0.00641904 0.012726945945767627 0.004941065730066591 0.0012851365872530985 0.008439895511158337 0.022808975054081724 0.01379972533244726 0.004036334213164314 -0.007591109905098832 -0.019473289558914978 -0.02503517069001288 -0.04087438692237345 -0.02715504073689166 -0.01758243990466063 -0.01687050872117916 -0.005406140958354456 -0.0023121701064838284 0.00933566 0.00168299 0.00148494 0.00387195 0.00471985 0.00587629 0.000412371 0.00618557 -0.00132681 0.00349198 3.5482E-05 0.00039568 -0.00223404 0.00567193 0.003620525486257049 0.0021248589542980567 -0.0015219851925568982 -0.01330118418957425 -0.019465699358220633 -0.0250956129779434 -0.028274059277891388 -0.013214084733075757 -0.022596873350596573 -0.0038246247313607124 0.003106078790061608 0.00268976 -0.000101034 0.0022086 0.00755823 0.00671346 0.00576982 0.00801779 0.00578166 0.00195876 0.00123711 0.000206186 0.00989711 0.00526821 0.00529309 0.00110592 -0.00113704 0.00348725 -0.00148733 0.00360934 0.005081799034145753 -0.002169295877531257 -0.0064675884486611965 -0.009468013242524758 0.00012092310334273046 -0.0024911753113919335 0.0018139743563386605 0.00190106 0.0036687 0.00172021 0.0036787 0.00430002 0.00574248 0.00183209 0.0070028 0.00732711 0.00918426 0.00742268 0.00690722 0.00927835 0.00412371 0.00463936 0.000173948 0.00642527 0.00132774 0.00215969 0.00722399 0.00301312 -0.000520003 0.0036241704350618866 0.004374954811155657 0.00497842 0.000463862 0.00381977 0.0012551 0.00568764 0.00806281 0.00802493 0.00239673 0.00892076 0.00834022 0.00267313 0.00175442 0.0102062 0.00773196 0.00195876 0.00226804 0.0028866 0.00896907 0.00195876 0.00824742 0.00103093 0.00725607 0.00858077 0.00226617 0.00644073 0.00144033 0.00506972 0.000713013 0.00572311 0.000893307 0.00705765 0.00396624 0.0102885 0.000959866 0.00565429 0.00349611 0.00435052 0.00691511 0.00424935 0.0043299 0.00670103 0.0043299 0.00608247 0.00659794 0.00402062 0.00804124 0.000515464 0.00391753 0.00659794 0.000618557 0.01 0.0014433 0.00762887 0.00649485 0.00134021 0.000831462 0.00115412 0.000418367 0.00237138 0.00969072 0.00969072 0.000206186 0.00154639 0.00340206 0.00731959 0.00309278 0.00175258 0.00340206 0.00412371 0.00618557 0.00103093 0.00731959 0.0101031 0.00907216 0.00123711 0.00752577 0.00371092 0.00724916 0.000148479 0.00453248 0.00535775 0.00800201 0.00363549 0.00652724 0.00129126 0.00689232 0.00246262 0.00568734 0.00380422 0.00059498 0.00575192 0.00143426 0.000819796 0.00421514 0.0074217 0.00113402 0.00546392 0.00865979 0.000515464 0.0101031 0.00216495 0.00989691 0.00103225 0.00185612 0.00121259 0.00372703 0.00964798 0.00105757 0.00449046 0.00805274 0.0054897 0.000471975 0.00960515 0.00270309 0.00421078 0.00718568 0.00367694 0.00876628 0.00940014 0.00344708 0.00383273 0.00477765 0.0051585 0.00814433 0.00123711 0.00474227 0.00402062 0.00257732 0.00463918 0.00649485 0.00289022 0.00980042 0.00115351 0.00295348 0.00794227 0.00489099 0.00443657 0.000633281 0.00706194 0.00704311 0.00957205 -0.000150462 0.00339118 0.00928719 0.00520295 0.00792282 0.0068072 0.00923332 0.00746729 0.0102631 0.00245234 0.00952221 0.000779057 0.00566387 0.000824742 0.00824742 0.000824742 0.00649539 0.00989251 0.00205019 0.00898902 0.00733504 0.00250817 0.00589894 0.00558056 0.00355935 0.000967978 0.000527159 0.00142419 0.00434899 0.0074747 0.00713133 0.00146623 0.00205282 0.00148383 0.00491249 0.00429617 0.00585526 0.00161191 0.00473309 0.00124239 0.00770934 0.00577352 0.00886598 0.0071134 0.00165157 0.0039653 0.00365958 0.0018472 -0.00158222 -0.00199155 0.00504545 -2.38705E-05 0.0003715079125497744 -0.0015483249885709781 -0.005526486882096994 0.002564824284675506 0.0005360175603438162 0.000523995523862812 -0.0035380845953076456 3.4213558982556205E-05 -0.003503411327458475 0.005633302610592293 0.005292472241863576 0.00566542218288102 0.00613598 0.00981859 0.0060291 0.00826928 0.00535431 0.000310067 0.00618557 0.00319596 0.00804056 0.00166131 0.000775212 0.00218676 0.00323341 0.00648837 0.00370391 0.0004199925893673679 -0.0019239763117533846 0.002992616029506445 0.0020754134428493144 -0.0018394897547814454 -0.0004810548065383467 -0.00027996368774710334 -0.0042092147011361086 -0.0010657506484018158 -0.006798730786737997 0.00201652 0.002769128952796407 0.002438841902626138 0.006030803657795886 0.00656773 0.000435057 0.00736872 0.00579486 0.00395033 0.00927835 0.00915634 0.00522224 0.0012054 0.00640878 0.000192947 0.00165561 0.00288562 0.0030805622813744357 0.000596829319930312 0.0028526431867357933 -0.0037286977464731667 -0.005447328442340336 -0.0007943966804577705 -0.002700230798989954 -0.009614942678664109 -0.008727262714731307 -0.004557766605706104 -0.00984651990453755 0.000984457420666762 0.000193473 0.000249945 0.004636029321525123 0.0089813 0.00403159 0.00423567 0.007635 0.00651393 0.00466199 0.00311219 0.00929709 0.0020874 0.00221242 0.00155385 0.00198692 0.00385556 -0.0016879845398908285 -0.0032938324644726964 -0.0029262108495224062 -0.00030522046398481523 -0.0002094213041707439 0.0001668810757675431 -0.004811378832799136 -0.003880057791047034 -0.007956119798884527 -0.007992456886603798 -0.009292540515375603 -0.000572592072985754 -0.0025651379751935534 0.00180443 -0.00123591 0.00995233 0.00561965 0.00494388 0.0066796 0.00587402 0.000309278 0.00414813 0.006076 8.20143E-05 0.00247411 0.00636316 0.00434663 -0.0025929636653885717 0.0011425424629071868 -0.0021972920384136607 -0.004160891841199757 -0.004016106975005123 -0.0018596480338493463 0.004365160323701112 -0.0044534609156955535 0.0011193523738367507 -0.002825513967531997 -0.011408364783583388 -0.008776212440632378 -0.0025186933627919356 -0.0033530502434516614 -0.0029958126059124648 -0.000516088 0.00900738 0.000672795 0.00500375 0.00125559 0.00907952 0.00608247 0.00535315 0.00419016 0.00282327 0.00488787 0.00613026 0.006076663216828312 0.0017122732062658838 0.005407276429517747 -0.0029527763384413885 0.00011737614991392597 -0.0010023135646096302 0.0014665386823088358 -0.00235600029096249 -0.0011471556247307758 -0.004433347024968303 -0.007424098026441997 -0.005033668188844752 -0.00406209 -0.00378339 0.00151634766727107 3.6537524543442074E-05 -0.00112047 0.0072424 0.00444218 0.00375008 0.00656681 0.0061874 0.000824742 0.00961977 0.00274766 0.00314813 0.00603641 -0.00128476 -0.0011476767831716888 0.0068465418670356605 0.003788620206803476 -0.00042132975759734366 -0.0034435655026782723 0.0050047142826111935 0.00022491174429206445 -0.0032981786084554225 -0.006819310118371365 0.00024828198717390565 -0.00793372954053461 -0.00568015556486235 -0.003716376203639742 -0.00025111185024476136 -0.004249378337958186 -0.0027613817618184185 0.00369472 0.00701818 0.00826463 0.00478883 0.00306199 0.00938119 0.0042268 0.00629991 0.00729094 0.00652068 0.000999823 -0.00240327 0.005446831079855489 -0.00016946592128772928 0.003685921732446451 -0.0014256769052860292 -0.0021708632131931375 0.0009142643459598437 0.0030792619264402347 0.0014374233450968948 -0.004476811880628228 -0.001710207926747281 -0.010585369195526299 -0.008745010787523905 -0.0017999653784078911 -0.006613887976388053 -0.00162900838060924 0.0011740080038902916 0.0039709804439418545 0.00269494 0.00998994 0.000869812 0.00222126 0.0064918 0.00340206 0.00567605 0.000377681 0.00465083 0.00570064 0.00129599 0.0008572675129315133 0.0016680883319013524 0.001953196550359442 0.0007450807548356798 -0.00345545212710287 -0.0006715964362688333 0.004636000498147001 0.0033970265524416766 -0.00865531937504459 -0.006460378207639131 -0.005961463313098763 -0.005739173362574094 -0.0018051731295763826 -0.00882803531297903 -0.006630663912096487 0.004273088274321531 0.000816451883993418 0.005394491561893582 0.00806766 0.00457733 0.00735891 0.00155076 0.00371134 0.00195539 0.00964469 0.00735063 0.00165101 0.0089565 -0.0011282993967148775 -9.228460450011885E-05 0.00597157275735391 0.0031063157105487224 0.0005864919370141692 0.001735171642201522 -0.007391129451222185 -0.007714746973454283 -0.006556386236631377 -0.011890716977866913 -0.005406683298014378 -0.00601549248803054 -0.0008342752783457358 -0.006612202845746754 -0.0019251553697377773 0.0069692315633887 0.004325758584067691 0.01042736630913988 0.0121757 0.00346437 0.00662405 0.00556916 0.00907216 0.00359463 0.004897 0.00545872 0.00219054 0.000925029 0.004789693263108767 0.004467844185782251 0.005527105661155492 -0.0019191749774770993 0.0016084452447190998 -0.0022668936285359354 -0.008713801058649292 -0.00783435301845239 -0.004149528913862853 -0.003399581794541032 -0.012790187790450389 -0.004195847953112893 -0.004999604828755057 0.0010957239973289682 -0.004490633944968205 8.77116902538398E-05 0.0021180711651687056 0.009087939698640702 0.0029066 0.00538041 0.00574589 0.00147891 0.00247423 0.00679588 0.00165822 0.00722253 0.00944684 0.00921713 0.0018942901586645926 0.0007656299349560255 0.0030772977608997712 0.001918475047505364 0.005664899934716394 0.0026579252036017004 -0.0035137032293673497 0.0007690132354696733 0.0007557834439129477 -0.0003689448418169172 -0.006453151296972013 -0.006829833648423602 -0.0016733732290294399 -0.0020922351064174677 0.005542648370204186 0.00265559 0.009770258702032804 0.008689496681790455 0.00159758 0.000881416 0.00118677 0.00206175 0.00907216 0.000513138 0.00248341 -9.47268E-05 0.00131001 0.00590191 -0.001523096807122174 0.003697731430332164 -0.0030520407260739087 0.0013850746578032932 0.00606529927937147 0.005132892407587819 -0.0004570191872899714 -0.00031311253597191387 0.0013140770547584394 0.0020523603256533793 -0.009265452382300334 -0.008248949504311544 0.0013543906235873502 0.0010516368050411482 -0.0017310081161649219 0.005924039890797991 0.0025273533480497257 0.004768627427091608 0.00183382 0.00524502 0.00302349 0.00621959 0.00659794 0.00226804 0.00753493 0.00403629 0.0018008122611354214 0.004588666218122409 0.001510247746867472 0.0019645550588814694 0.0050481076767568125 0.00039822975708189327 0.008564198435538 0.005515745361209519 0.005980360978075043 0.0033442369270424484 0.006550014163387476 -0.004196059887198405 -0.0007382301729486326 -0.0032700379936813637 -2.6088777726197118E-05 0.005532356039276701 0.006814608088191133 0.004536423330736886 0.002617259278831487 0.003638694614389469 0.00249652 0.00749748 0.00188289 0.0100065 0.00886598 0.000214692 0.00176549 0.00355547 0.0032648193566812526 -0.0013425182070739298 0.006246229899873516 0.0025463650806609307 -0.0033538298988501905 0.0059929948002353985 0.007926128905804691 0.003388706537965819 0.006825999110520145 0.0068373324328767785 0.006034888185627603 0.0008576336340822352 0.005014382499401537 -0.0004295632960153048 0.006600417175694363 0.0026000968350373146 0.00502701691525687 -0.0023838866692631132 -0.00014225293827657633 0.003279650204148108 0.000411088 0.0100503 0.000752569 0.00793568 0.00113402 0.00547592 0.00890722 0.00951595 0.00534492 0.003972419941004721 0.0050182238279875505 -0.004137205929723345 -0.0025399447324142657 -0.001993399721063433 -0.0024818089749903435 -4.6032305280483824E-05 0.008776811155612763 0.0022621768465703666 -0.002705416816929721 -0.001291777732803248 0.0027810083004650367 0.0014499475835836244 0.002523302075527709 0.0038268065125764148 -0.0015520963946187949 0.006295761770772136 0.0011269876540565878 0.00358457 0.00324644 0.00153856 0.00211769 0.00628866 0.00546392 0.0071134 0.0046359 0.00573537 0.00523848 0.006475486140087516 -0.0011056985040186708 -0.003985518393426729 -0.005165635997394168 0.0017986597917261206 0.0020081586309414145 -0.001527540889923851 -0.004611125022215649 -0.0048329771644910246 -0.0035652637961019144 -0.0031681811742060315 0.001184773245866801 -0.0017777774205546785 -0.0011026125563793055 -0.0035481468512588276 0.00045049355444946903 -0.0036453104225753594 0.0024559918731348602 0.0033296 -0.000710902 0.00497789 0.00497532 0.00793814 0.00938144 0.00701031 0.00120576 0.00274063 0.00261502 0.000199444 0.0032384439258262322 0.005377568009600923 0.00104602405802771 0.003345542652967384 0.0012635234202045828 0.0013136228792480693 0.001724202693685036 -0.0010221777134699953 -0.009383832676523048 -0.00011177219079277352 -0.0055526481096284455 -0.0006632507124791144 -0.0026033913771436996 0.0053279293619668796 0.0036108064037073304 0.0007420216895760025 0.0040632 0.000416226 0.00586677 0.00949078 0.0090757 0.00113402 0.00948454 0.000618557 0.00330097 0.00758106 0.00910208 0.0022658 0.0016032387133625055 0.004882875809357413 -0.0031339584819338605 0.0015733608382832351 -0.005133819097434796 0.0023647468184364823 0.00077967671720791 0.003922410464598316 -0.0012150123933199336 0.0032787244217964205 0.0011241743911354234 -0.0009294715402991496 -0.001778239152744188 0.0008714513702874507 0.0057426872566092154 0.0003692315840676906 0.00335133 0.0018885 0.00289017 0.00804132 7.40967E-05 0.00226804 0.00453608 0.00835052 0.00854081 0.0041925 0.00912508 0.000419125 0.00460629 0.00864414 0.005937406139392394 -0.0009649041283376887 0.001394102422434196 0.005233460989050374 0.007555643075495765 -0.002701038938519602 -0.0058098807313887784 0.006108504821596724 0.0007055542805039531 0.001015888482874151 4.273192765906623E-05 0.00486906 0.00697653 0.0051292 8.9781E-06 0.00337239 0.00365871 0.00908701 0.00309554 0 0.0057732 0.0101031 0.00865836 0.00443421 0.00764337 0.00229091 0.00794241 0.00303976 0.00470095 0.0054338 0.006720446918966139 -0.0007646733316308227 0.001599463953153385 0.0007651800210462573 0.004702147426918334 -0.0005151419834520256 0.00485410036509621 0.000596441 0.00886724 0.00690319 0.00594182 0.00576327 0.00195461 0.00010074 0.00285133 0.00340451 0.00278643 0.0014433 0.00824742 0.00298969 0.00381443 0.00639118 0.00512111 0.00946182 0.00617148 0.00110064 0.00351716 0.00243254 2.35419E-05 0.0031228879339086214 0.00238278087657818 0.00929367 0.00404166 -0.00021121 0.00479355 0.00124721 0.00851127 0.00956093 0.00885576 0.00854369 0.0083739 0.00168773 0.00515344 0.00525773 0.0028866 0.00556701 0.00525773 0.00371134 0.00494845 0.00402062 0.00783505 0.00835052 0.00608052 0.00741529 0.00578079 0.00733591 0.00938845 0.00322475 0.00900433 0.00265674 0.00579879 0.00519548 0.00980031 0.000236105 0.00225774 0.0011082 0.00801771 0.00957995 0.00869483 0.00441546 0.0043299 0.00649485 0.00701031 0.00154639 0.00597938 0.00927835 0.00402062 0.000412371 0.00257732 0.00175258 0.00402062 0.00845361 0.00793814 0.00907216 0.00907216 0.00113402 0.000438132 0.00407659 0.0061215 0.00120869 0.00257732 0.00824742 0.01 0.00134021 0.00845361 0.00340206 0.00319588 0.00628866 0.00123711 0.000515464 0.00206186 0.00721649 0.00752577 0.01 0.00175258 0.000618557 0.000103093 0.000234199 0.0048067 0.0069631 0.00159898 0.000181691 0.00199515 0.00335066 0.00525993 0.00435521 0.0081305 0.00549132 4.04724E-05 0.00643899 0.00740388 0.0103507 0.00946419 0.00970788 0.00270377 0.00398134 0.00587629 0.00927835 0.0071134 0.000103093 0.00721649 0.00319588 0.00556701 0.00700983 0.00783489 0.00164461 0.00527278 0.00554795 0.0105419 0.0111732 0.0098249 0.00659558 0.00266059 0.0046547 0.00475194 0.0035146 0.00321323 0.00246274 0.0010045 0.00222861 0.00510288 0.0114538 0.00779459 0.00204787 0.000206186 0.00824742 0.00938144 0.000824742 0.00103093 0.00216495 0.00515464 0.00206107 0.00124035 0.00157768 0.00287572 0.00270883 0.00885487 0.00569204 0.0100851 0.0153597 0.0134206 0.00678016 0.00163758 -0.00538859 0.00097438 0.000729014 -0.0132361 -0.00558603 0.0111195 0.00592466 0.00718731 0.00847399 0.0115404 0.0040691 0.00419184 0.00701031 0.00628866 0.00835052 0.00918705 0.00206246 0.00651321 0.0103478 0.00955646 0.00857746 0.00147813 0.00254043 0.00192685 0.00205695 0.00408477 -0.00590024 -0.0163378 -0.00810551 -0.0212218 -0.0102637 -0.011069 -0.0119973 -0.0156997 -0.0176911 -0.00363742 -0.00256856 0.00394291 0.00808738 0.0100166 0.00317875 0.00340206 0.00195876 0.00942642 0.005932 0.00779305 0.00410684 0.00418011 -0.00651853 -0.0035105 -0.00446787 -0.011383140184701426 -0.002170571823926583 -0.0013044326550830005 -0.023120624190681713 -0.015370419666728257 -0.014651422826338082 -0.002607570118223364 0.002696573208971856 -0.007389127356048247 -0.025015006483177768 -0.017960835327797242 -0.009097888536769098 0.00233784 0.0111406 0.00897134 0.00787484 0.00466347 0.00538538 0.0056701 0.00762903 0.00658946 0.00242644 0.00669323 0.00402063 0.00527472 -0.00931921 -0.0116111 -0.015426671131296235 -0.027608802770521395 -0.013236387888906968 -0.020543798548185003 -0.0385814378097578 -0.0268486949681447 -0.010461454078798964 -0.0011850558261485371 0.004622455300445749 -0.01252436145766065 -0.0230702 -0.022635303324886558 -0.014446172567930786 0.01572809684170879 0.0175527 0.0248827 0.026258 0.0148818 0.0061843 0.00216495 0.000820111 0.00211046 0.00106282 0.00893175 -0.000534521 -0.00686301 -0.0324535 -0.015095500461753565 -0.01680385370016666 -0.020564506282728386 -0.004794325938507051 -0.01723757652802673 -0.03250540689396257 -0.028194997489022457 -0.02885535648694792 -0.011244108381144254 0.003251353182461162 -0.01490609599452852 -0.02191404801369549 -0.00379302 0.0110024 0.015067125519732914 0.00466978 0.00859346 0.0052415 0.0106287 0.00462068 0.0098291 0.00449973 0.00252168 -0.00129756 -0.00415151 -0.0123481 -0.0119804 -0.0290348 -0.016427842724346033 -0.021366002649755165 -0.01140464842441262 -0.0035058562751374414 -0.04426359565119098 -0.032140015638668924 -0.042107744027232566 -0.03984988097034541 -0.030682715110264474 0.00774394708182596 0.01341902995943687 0.008195922286739134 0.004532261348673252 -0.00743071 -0.0190537 -0.0154711 -0.00742267 0.0020596 4.35681E-05 0.00953713 0.00876289 0.00103577 0.00155223 0.00470468 -0.00787868 -0.0077466 -0.0193957 -0.013953940877331773 -0.02844964903610546 -0.028912774937038515 -0.026685989040764465 -0.012853399230696914 -0.02525793276249387 -0.053795221692118596 -0.03998100096431488 -0.0025005741088622753 -0.008293062287067554 0.01245810481904256 0.02458089559555382 -0.004240959024007778 -0.005458344122409848 -0.024411476859681713 -0.0389047 -0.0334216 -0.0146165 -0.0112867 0.0048151 0.000553127 0.0057732 0.00916228 0.00196481 -0.00409493 -0.0208567 0.000190084 0.0011986792324193587 -0.007435103718357879 -0.019913487641515536 -0.02769493694159024 -0.017484904698684883 0.006431032428672931 -0.00023904477049859212 -0.033845995944223835 -0.011033929752644119 0.03670646869675854 0.04932846729473144 0.025688375846025714 -0.00594149 -0.00915342 -0.030436439510019085 -0.03330602654788031 -0.0380044 -0.0199575 -0.00865761 -0.00464001 0.00345595 0.00024013 0.00113402 0.00561793 0.00926757 -0.00652502 -0.0180789 -0.0154443 -0.013406950767580642 -0.01512336920475307 -0.03251082777044873 -0.029348339524040017 -0.00615387907802369 0.008934934762899307 -0.0057733906657441636 0.006878602938167847 0.03165865268633613 0.03832339491281331 0.037050848989077095 -0.010445836243823337 -0.030586069106723922 -0.025386691258064902 -0.04248856713807763 -0.03214339135857416 -0.0178207 -0.00608143 -0.00424938 0.00346345 0.00203535 0.00460874 0.00824742 0.00713483 0.00656453 -0.00216471 -0.00650936 -0.0191312 -0.019198810623367313 -0.02533665478292187 -0.03262033757397423 -0.03533488963868664 -0.021425981074265226 0.010591995391145245 0.015321906193967769 0.04408860147413421 0.03602597162172849 0.005724975494450904 0.007412308904222363 -0.026980961381614633 -0.016264321366311636 -0.04295838144343951 -0.03549777482780164 -0.02110009622305264 -0.006188404119340776 -0.0156911 -0.00425563 0.0129418 0.00486152 0.00844998 0.00762887 0.00484917 0.00182671 0.00408288 -0.00501163 -0.00819642 -0.01916770983289504 -0.010265673875732965 -0.02412349702833037 -0.020492892912940878 -0.004976504237323115 0.0008804169182010786 0.015761768961765864 0.039699075106389946 -0.0003890325185715748 -0.007893534915490052 0.010973120424731708 -0.011647504773136468 -0.008835887232712981 -0.04551099890436762 -0.01924639899564418 -0.012393277805153646 -0.0015741420156289096 0.015371939784761812 0.0192322 0.0180744 0.0118511 0.00298786 0.00515464 0.00225206 0.0100937 0.00139655 -0.00255356 0.000209428 -0.0071654867639649065 0.0036632137467095477 0.011002957706148252 0.0346798993711083 0.02420702652926705 0.01642169207351499 0.00617760112531525 0.013365843072942 0.023681236059554554 0.03400052933189954 0.025922210271736378 0.020402413320728355 0.0015361839580380996 -0.0221444679610914 -0.012214746123744475 0.007316640191935671 0.017452467830493968 0.02752927427597055 0.0231103 0.0176152 0.00998517 0.000872198 0.0085567 0.0012113 0.00708686 0.010734 0.00175339 0.00237879 -0.011526078969575073 -0.004138798117423425 0.014929110758516535 0.042957917357789 0.03922421861947731 0.01926877990449262 0.024911606026742014 0.03245536298653263 -0.005746720963099146 0.009419238611787768 0.023596324448526055 0.01518683782203875 0.007423008680214435 -0.019997224532419585 -0.025368849563562938 0.004471054364352384 0.01712996974283027 0.029433133277924167 0.0294399 0.0259378 0.00922957 0.000615343 0.0014433 0.00480404 -0.000168611 0.00799814 0.000668428 -0.0102249 -0.010825850413291857 0.002240840152831388 0.00521137740875488 0.023680740941309723 0.042464203446536446 0.029907739493156015 0.022205636346129962 0.021482425612980683 0.017866893605700047 0.036297650691407314 0.010558143653675967 0.024814275063551453 -0.007733827684464095 -0.011701037942203113 -0.0032188128490456642 0.0287332 0.02689523424843768 0.01696651557733808 0.0237024 0.0343596 0.0184367 0.00450979 0.0042268 0.0102004 0.00409832 0.00362955 0.00540379 0.0164448 -0.005653369813012222 0.002983477090025315 -0.0032285300061568097 0.03672213421945216 0.049326713389110134 0.037862351965437774 0.005616517400091925 0.009367640942848733 0.03134171250078877 0.04115496350643057 0.0024722590872904068 -0.004220781078285124 0.0071104418310371596 -0.014557812448691207 -0.002065762310053689 0.00932461094176619 -0.007400678793938827 -0.0030356018199268597 -0.00976385 0.0254008 0.0120803 0.00279364 0.00835052 0.0057732 0.00609665 0.00434263 0.014837657216482584 0.026215782345327107 0.010554093587753742 0.02721127788942891 0.017144095524359818 0.038002865456751724 0.04913266334086239 0.01252147385612754 -0.017017189876481424 -0.0061712132601527345 0.04155535885282879 0.04542745076229842 0.018087223698572623 0.013400318498578824 0.04022217754230966 0.024837562474183852 0.015242775365368057 0.027811500959737594 0.0142950398453119 0.022021644774993746 0.00871844 0.0158096 0.00703943 0.00869103 0.00927835 0.00499533 0.000994237 0.00737406 0.01861363432988955 0.011025899020543762 -0.007579457968568401 0.008095929826403319 -0.000672476673857921 0.01191766091830037 0.008749270226629326 -0.00932766866617111 -0.04711412484874001 -0.03885860634319405 -0.009807562467045962 0.005375589945875607 0.008623182812796086 0.008948455024477655 0.03465755730955428 0.02415728302966284 0.019699668772558215 0.031141500959737594 0.03483686162616649 0.03825696429550669 0.0313167 0.0211233 0.0143821 0.00209444 0.00824742 -0.000653476 0.00396283 0.0091922 0.012811 0.008998488376202218 -0.012189815616343122 -0.007251148627607924 -0.010260646706003365 -0.006974894366031189 -0.022171475302576148 -0.03040545892786966 -0.04528240531073128 -0.04276221177915275 -0.02711920381251 -0.03688237326133481 -0.03451385872580894 -0.025886958605277125 0.0008598479934704634 -0.005738967681200238 -0.002805227127635755 0.001043434230401233 -0.0008876306290661158 0.0107924 0.0197415 0.013558 0.00952376 0.00824742 0.0028866 0.0043299 0.00194621 0.00810022 0.00343996 0.0037055059793373027 0.0011087486518200683 -0.0018724749728585431 -0.01563107459909554 -0.02022122111754315 -0.02193096450219524 -0.023256928846298913 -0.035440906285477206 -0.05548029787591668 -0.06575344152933942 -0.054447760383352556 -0.0493517207569306 -0.041846922013282696 -0.017898603259001066 -0.015756870911415054 -0.010281622929573778 -0.011130487970540318 -0.021500864172416714 -0.0155399 0.00524836 0.000453223 0.00665811 0.000515464 0.00329897 0.00360825 0.00985476 0.00917707 0.00542785 0.0117847 0.0024886351002127334 -0.01249686735266173 -0.014520501416407847 -0.012951931750584806 -0.013553745444709924 -0.017449721248315397 -0.04300376341756385 -0.04568083992839306 -0.058383281697349666 -0.04247630928664936 -0.041379986772237996 -0.042077998304518666 -0.028416768533439603 -0.024942895140619096 -0.017634763291578825 -0.007356116367517177 -0.0152163 -0.0169421 0.000114 0.000346641 0.000192531 0.00690722 0.0043299 0.00639175 0.00271268 0.0057967 0.00337315 0.00792211 0.0120685686597791 -0.0037824805734806614 -0.005891492722807406 -0.019231858432753653 -0.01986012185205592 -0.030884743774226522 -0.04331114077843794 -0.053352291635333296 -0.04309365633143748 -0.03562030392518268 -0.03401411460917414 -0.03282823822105114 -0.027606923844826683 -0.022721359167062843 -0.018587189525554278 -0.01339673216950603 -0.00714524 -0.0173635 -0.00716008 -0.00194784 0.00729781 0.00474227 0.00835052 0.00371134 0.00686424 0.00497541 0.00423753 -0.00170036 -0.00562997 -0.00288987 -0.01056518780561744 -0.022421480257967048 -0.024158460238015635 -0.02115049894148428 -0.029629177429602815 -0.03244574531905416 -0.023920695379765308 -0.016553616393006204 -0.0192603742845479 -0.022013110007954837 -0.007412579645997312 -0.0134496 -0.0212932 -0.00490668 -0.00743454 -0.00560655 0.00134533 0.0100954 0.00398736 0.00608247 0.00886598 0.0028866 0.00442718 0.000927462 0.00236469 -0.00268445 -0.0026709 -0.00603395 -0.0101651 -0.00979525 -0.004432887829237735 -0.011066875833454249 -0.010936288171076893 -0.01500350059379814 -0.020369861957916922 -0.0009718705237539343 -0.0045861848432735604 -0.013225 -0.0137551 -0.0174141 -0.00188025 0.00804667 0.0105735 0.00965373 0.0090056 0.0030517 0.00852781 0.00670103 0.00927835 0.0014433 0.00773196 0.00742293 0.000902017 0.00105067 0.0024557 0.00174602 0.00380494 0.00335966 0.000972218 -0.005142081517345506 -0.0030054488875207223 -0.00341793 -0.00766022 0.00230277 -0.00169487 -0.000478731 -0.00358841 0.00405201 0.00121459 0.000826071 0.00428092 0.00708144 0.00215936 0.00340206 0.00701031 0.0014433 0.000412371 0.00649485 0.00257732 0.0043299 0.00608247 0.00494845 0.00966152 0.00354037 0.000204825 -0.00073221 0.00557313 0.00106879 -0.00107543 0.00043024 0.00803545 0.00583162 0.00763683 0.00444028 0.00696382 0.00919455 0.00532909 0.00554003 0.00489964 0.00854844 0.000824742 0.00247423 0.000309278 0.00639175 0.00175258 0.00123711 0.00206186 0.00206186 0.00639175 0.00989691 0.00917526 0.0042268 0.00948454 0.00835052 0.000206186 0.00628866 0.00483717 0.000607982 0.00495664 0.00443333 0.00917526 0.00113402 0.00515464 0.000515464 0.00402062 0.00917526 0.00257732 0.00525773 0.00340206 0.00371134 0.00979381 0.00845361 0.000618557 0.00494845 0.00505155 0.000721649 0.00742268 0.00216405 0.000387966 6.15343E-05 0.00825426 0.000373285 0.0045412 0.00917799 0.00848862 0.0104333 0.00724575 0.00942955 0.00184308 0.00177194 0.00778669 0.00080951 0.00761571 0.00379357 0.0096807 0.000720926 0.00989691 0.00814433 0.00979381 0.00340206 0.00876289 0.00814433 0.00752577 0.00422559 0.00206144 0.00870434 0.00341947 0.000563151 0.00797572 0.00627411 0.00364285 0.00858558 0.00438297 0.0016008 0.00530077 0.00109736 0.00297681 0.00731204 -0.000165444 0.000470553 0.00743479 0.00354194 0.00125238 0.00875264 0.00793814 0.00659794 0.00927835 0.00773196 0.00412371 0.00123711 0.00484536 0.00381004 0.000136342 0.00349023 0.00315695 0.00250851 0.00396423 0.000403936 0.00993964 0.00842978 0.0108782 0.00961063 0.0112275 0.00294631 0.00976406 0.00574809 0.00319972 0.00612265 0.00258536 1.65094E-05 0.0043998 0.00538607 0.00835571 0.00141199 0.00563377 0.000206186 0.00474227 0.00463918 0.00773549 0.00659608 0.00315096 0.000379821 0.00706402 0.00164621 0.00649543 0.00102081 0.00867774 0.00496189 0.00837674 0.00568664 0.00105595 0.00639218 0.000964706 0.00859835 0.00640585 0.00677183 0.00619498 0.00244348 0.00574117 0.00562526 0.00664822 0.000171372 0.000469572 0.00355319 0.00979381 0.00175258 0.00609595 0.00263979 0.00347535 0.00907281 0.00787409 0.00785564 0.0037233 0.00576893 0.00644449353935964 -0.0025278962988235535 -0.0021027553717051727 7.88563378244705E-05 -0.0016557111990133163 -0.002357406603099409 -0.002538763696516817 -0.0008596157000213779 0.002622597942820495 0.005472509937459916 0.006336848610678401 0.0037902473106997793 0.00655506 0.00605371 0.0103227 0.0101434 0.00292215 0.00280141 0.00350515 0.00762912 0.00383103 0.00275672 -0.000398044 0.0077642 0.00317528 0.00674387 -0.00435928 -0.0005867940714222041 -0.004233776909605398 -0.0016830626715717972 0.00035662312330966714 0.0010239355310983325 -0.008803868152666337 -0.004138541609321623 -0.005436961613995168 -0.002236567318316101 -0.010526926251782793 -0.00301533 0.002518627319634077 0.006943307933886198 0.01233192261782584 0.00700343 0.00748526 0.00106363 0.00120829 0.00646963 0.000824742 0.00609005 0.00674797 0.00570485 0.00394955 0.000535415 -0.00226522 0.00285269 -0.0039598661516009 -0.0005397856475445735 0.00048069454523250085 -0.004257349874334465 -0.002935397091390252 -0.004224617316656981 -0.007622071796806895 -0.009273283053553407 -0.006631696721977327 -0.010626428181120468 -0.006433075398144594 0.00522656806790519 0.007712 0.00972642 0.011479438646415593 0.00553321 0.0111315 0.00430007 0.00394858 0.00544925 0.0097995 0.00695318 0.00100979 0.00631771 0.00800456 -0.000852029 -0.00109511 0.0027069 -0.001248120294445308 -0.0027315958876150664 -0.00485810455352098 -0.007401410279031384 -0.005558057471216838 -0.011605432714274486 -0.008143285679195422 -0.0021268697908787093 -0.003438418432080521 -0.003975013751222413 -0.006899620037065942 0.0035299828256468357 -0.0019625319061390496 0.00869336 0.0113541 0.00575979 0.00611096 0.00426513 0.00855746 0.00823227 0.00123711 0.00552596 0.00655315 0.00406165 0.00811432 0.00498109 0.00622062 -0.004556375688041709 -0.000194234028353656 -0.008560321344772932 -0.008923534655062173 0.00015763606728244836 -0.0009411925655882426 -0.005657008670172899 -0.003829077274697385 0.0050261599685861285 -0.0026046856071097694 -0.010405119976866902 0.0008504700576284909 -0.0026427853785855777 0.009723357747126793 0.010067210140227129 0.00926653 0.00121598 0.00164973 0.00292214 0.00157312 0.00392219 0.000206186 0.00823092 0.00667198 0.0033761 0.006205 0.00371919 0.001797658587432426 -0.0026520648073162464 -0.0013659198437386206 -0.004596745878130956 -0.009252554953292563 -0.004406980326506596 0.0022926060009807398 -0.0024408310953169168 0.004489755427472387 0.0002556901040305765 0.0048409193942507076 0.006702982690631518 0.00185675 0.00494476 0.009212473753094027 0.0021521995573284625 0.00629018 0.00885606 0.000371669 0.00156731 0.00131978 0.00236832 0.000721649 0.00449187 0.00614557 0.00774889 -0.00018471 0.00406743 0.004468928587432425 -0.001988497316973414 -0.0038046533029690278 0.0003474081352942838 -0.003452577594878081 0.0020004326986396257 0.0002782282379183941 0.009183436634610699 0.007399898094851267 -0.0011601195890965654 -0.0033732899633902424 -0.00027118279993148126 -0.0043732878964480235 -0.003897378951841491 -0.0040087080065970455 0.0018938605361562898 0.00647671 0.00735424 0.00452219 0.0082627 0.00193572 0.00886385 0.00329897 0.000601994 0.000517722 0.00171991 0.00392943 -9.45708E-05 0.0006097896953387855 0.0016121397581835807 0.0004520815032861632 0.00026365308951359573 0.0019845203275605777 0.000814493512466103 -0.0007226487304814675 0.008463125618564899 0.0023817474178619456 0.0009901101738463184 -0.00856676437138079 -0.008721894610607173 -0.0013989901868668203 -0.002551349659980087 -0.0026251322012045006 -0.005446752337853755 0.002051900750444731 0.00852125 0.0059618 0.0008569 0.00863131 0.00897135 0.00742268 0.00658859 0.00539969 0.00668282 -0.0012467 0.00260162 0.0044479281264416595 -0.004866350073356741 0.0005947342902431252 0.0003389253615516889 -0.003209334372344181 -0.0034528564321882425 -0.002692879954257285 0.0033478567890878734 0.002578285390535846 -0.009270339357726528 -0.00630416746200714 -0.009233317382798431 -0.004109148349138032 0.0001943411123186591 -0.008372807089898328 -0.004515224033950331 -0.005075436161256784 0.008486135742774636 0.0082566 0.00975503 0.00214076 0.00846118 0.00134021 0.00484997 0.010363 0.00621017 0.000285652 0.00227672 0.004168210411483289 0.006905762291527779 0.006695117155836228 0.0020814225829429585 0.0010051215013879818 -0.0062008372228471295 -0.0014350715135081798 -0.009259021915338991 -0.009579745433861486 -0.011618987133036962 -0.014964260604690721 -0.0054033899974885195 -0.0023345657902850607 -0.0016739661413474687 -0.0026824143969423654 -0.006289362742906007 0.0061377159928525625 0.009377967902067696 0.00966321 0.00468439 0.000272114 0.00464157 0.00474227 0.00455798 0.00893969 0.000121866 0.00513 0.0068143 0.011126669277288063 -0.0011321583386990366 -0.001427807278901239 0.0016674567481786606 -0.004375111405648049 -0.0050626579334238425 -0.005679819460333998 -0.005298288073077057 -0.011009254612102096 -0.004304988106631373 -0.008359800233680579 -0.0018545301614502215 0.0003385837574863186 -0.0024730564271662563 -0.0020544441080615683 -0.005633910026802893 -0.0027483347196768327 0.0008496124222247936 0.00209499 2.64401E-05 0.00623318 0.000753109 0.00649485 0.00825832 0.00718144 0.0103854 0.00766005 0.00924132 0.00298228229323432 0.00994589815014062 0.006170152321894885 0.003567521958473527 -0.0023720727302416625 -0.0026498312002084545 -0.0008587118342374242 0.0018136515023564719 0.0011872150700421413 -0.004392687046610001 -0.004816591604913722 0.004648533863237259 0.0012970006519064173 -0.0039224174224546295 -0.005576784086887335 0.00140839 0.003610058592809806 0.005212309566177664 0.00418654 0.00424697 0.00334253 0.00204908 0.0014433 0.00464279 0.00895754 0.00919494 0.00408225 0.0115745 0.013490728290315489 0.003385364356189837 0.0006624068276789044 0.0030796659994936494 0.004047761868998712 0.0002332208954453422 -0.0006100959018404587 -0.002692268428721354 -0.0017052749224546592 -0.000602221688963796 0.0005302552575682002 0.0022017881516985614 -0.0024023448522724395 0.0025449051543928927 -0.0032012017005515073 -0.0030162044526906816 0.0076395925910229465 0.0062273328943976015 -0.000348136 0.00929803 0.00411185 0.00230655 0.00556701 0.00701031 0.0101523 0.00212009 0.007903620389632424 0.004183783571489162 0.0059763832219285095 0.013776325878236961 0.009176281150863053 0.005547711932429498 0.004044626742431455 0.001926169759305803 0.008252966433032602 0.006565055898203558 0.006702317205366154 -0.0038063698660137798 0.004135443402725608 -0.0004541870897299974 0.004102494193613331 0.0008477508594468897 -0.004972388150702845 0.0030105470983294437 0.004776383360558449 0.0005174691419891467 0.00552814 0.00977397 0.00374399 0.00622603 0.0043299 0.0078316 0.00692883 0.0095844 0.005446454233779453 0.008900581376757779 0.01516283057279291 0.009629300199439797 0.002651590606177444 0.005216807639851055 0.00042817660933322017 0.0033559032720066376 0.00046519502240973857 0.0092031856067025 0.004611893652162135 0.0035617335469813553 -0.002225056583662368 0.00233803411777928 0.0035284765874671288 0.0015566422642848904 -0.002779002572919468 0.0011288670983294433 0.0039150200630188895 0.006890013103638674 0.00788758 0.0069138 0.00106544 0.00227228 0.00123711 0.00154726 0.0080774 0.00887133 0.00380994 0.007631722246908579 0.007171901720241035 0.004883641431300057 0.003763129856494456 -0.0016085343317504568 -0.0050028072222682764 0.0016777323366301239 0.0040134970286722265 0.0020639080157098273 0.006581103297196748 -0.005918328336589104 -0.003528514700818933 -0.002669710348662041 0.0016115927017382623 0.0019037197008394467 0.0009253594994231826 0.0014398413240722505 0.0020112369293628805 0.00793656 0.00240837 0.00211729 0.0053884 0.00814433 0.00463918 0.00896907 0.00110759 0.0119323 0.00882382 0.00921495540267672 0.007332584981453413 0.0098366297735135 0.004677156679708645 -0.0007133387010479258 0.002069622955954003 -0.006944120027213427 -0.00532122026074583 -0.006771590873025546 -0.008167566335448618 -0.007082255551786187 0.0020674914589244235 -0.0012158828307387447 -0.0012212739476826868 0.0012003894438264906 -0.004126404957467696 0.001001867061078868 0.0019994272838968863 0.000526069 0.00820304 0.00681317 0.000129896 0.00195876 0.00412371 0.00814433 0.00373889 0.0111746 0.00363514 0.0106289 0.007993029713953914 0.0044374447989089984 0.0007659837806902711 -0.0018037988370896401 -0.004301308128183538 -0.0014599472224853165 0.0038717468882081053 7.114099078252503E-05 -0.004410109199163754 -0.0010730688188623344 -0.0009919810618295162 0.0034228649696792144 0.004453604242190103 -0.0023328084235087632 -0.0027634549803931376 0.007047539839282247 0.00312176 0.00598771 0.00410207 0.00554468 0.000752907 0.000927835 0.00639175 0.00360825 0.00116312 0.00384139 0.00665611 0.000427339 0.005137668467558907 0.001658099945396912 0.005019961870936978 0.0054635361946174564 0.0051664123666259575 0.0010861183688359087 0.004611934733167938 -0.002960836173638986 -0.004717808638316 -0.0033791910558840575 0.0019940633429166086 -0.0028245896715113667 -0.0026946562788697677 -0.004020490962292817 -0.0018252260643269432 0.007235085992852562 0.00285279 0.00168659 0.00126224 -0.00015976 0.00940685 0.00618557 0.00824742 0.00453608 0.000901264 0.00577536 0.00864812 -0.000449976 0.00429702 0.00320545 0.0006362880366858187 0.006682783810025126 0.001960264218349085 -0.0015086668477129908 0.004232786248329827 0.004503381990695466 -0.0055064855597607675 0.002564679984771716 0.0039018655426190764 -0.001195110224639593 0.006553778210934993 0.00136741 0.00775278 0.00696466 8.40776E-05 0.000794733 0.00102621 0.00568759 0.00474328 0.000515464 0.00752577 0.000103093 0.00824831 0.00134482 0.00280615 0.0081778 -0.00115239 0.0067421 0.00872774 0.00274855 0.001506833344937115 0.005562874144150079 0.007779436673575914 0.0023127160758844145 0.001429068031186182 0.0056748793075360356 0.004060864450108072 0.00355769 0.000253351 0.00539089 -0.000919202 0.00871768 0.00883721 0.00494451 0.0024686 0.00433079 0.00278458 0.00597938 0.00587629 0.000206186 0.00938144 0.00690735 0.00115139 0.00480351 0.00272395 4.03225E-05 0.00429745 -0.000922482 0.00644652 0.005147728970925964 0.004339347897826356 0.00100775 0.0027276 0.00788419 0.00277778 0.00375851 0.000862319 0.00858092 0.000284872 0.00853212 0.00975775 0.0101995 0.000721459 0.00958763 0.00989691 0.00268041 0.0101031 0.00886598 0.00835052 0.00505155 0.00835052 0.00494845 0.00731552 0.00643324 0.00754487 0.00771031 0.00905685 -0.000707593 -0.000306551 0.00667361 0.00875647 0.00568945 0.00396974 0.00150298 0.00459106 0.00839084 0.00563266 0.00842936 0.00020025 0.00697176 0.01 0.00701031 0.00536082 0.00742268 0.01 0.00742268 0.00360825 0.00536082 0.00278351 0.00206186 0.01 0.00721649 0.00247423 0.00927835 0.000206186 0.0028866 0.00817597 0.00647735 0.0026986 0.00608323 0.0085567 0.0085567 0.00556701 0.0043299 0.00247423 0.00649485 0.00680412 0.00371134 0.00618557 0.000824742 0.00824742 0.00597938 0.00443299 0.00505155 0.00814433 0.00402062 0.00752577 0.0028911 0.00780531 0.00805348 0.00936476 4.27993E-05 0.00270339 0.0091864 0.00137586 0.00846713 0.0101341 0.00578631 0.00107254 0.00845178 0.00111414 0.00284014 0.00200977 0.00116088 0.00474453 0.00711341 0.00546392 0.00639175 0.00340206 0.00680412 0.00680412 0.00793814 0.0028866 0.00968864 0.00938073 0.00194363 0.00436165 0.0103368 0.00124755 0.00689184 0.00830213 0.00991593 0.00828469 0.0115255 0.00246312 0.0081039 0.00790442 0.00320702 0.0061374 0.0050812 0.00325512 0.00233914 0.0102704 0.00486255 0.00680412 0.0102062 0.00618557 0.00927835 0.00628866 0.00969072 0.00608247 0.00473609 0.00281078 0.0049662 0.00182151 0.00859668 0.00509318 0.0118898 0.007768 0.00913455 0.00827988 0.00740369 0.00748222 0.00320831 0.0041152 0.00439124 0.00381796 -0.000398404 0.00186275 0.00216079 0.00438396 0.000809624 0.0059621 0.00779864 0.00596443 0.00773196 0.00154639 0.00247423 0.00557004 0.00174228 0.00122228 0.00270652 0.00626202 0.00654096 0.000268272 0.00161525 0.0106355 0.00656511 0.00274983 0.00406803 0.00414893 0.0040157 0.0016 0.00248093 0.00696172 -0.00139922 0.00510747 0.00297884 0.000555165 0.000954415 0.00838881 0.00385474 0.0099586 0.00351468 0.00824742 0.00649485 0.00104248 0.00786076 0.00396632 0.00311908 0.00887097 -0.000963066 0.00229086 0.0131328 0.012441028608907608 0.0020199525129626157 0.002642801253046846 -0.004203200177066995 0.003970213248494978 0.006814645853914305 0.007134787464856341 0.004549642813979678 0.004584400538250877 0.002724945276211897 0.0036135461520373172 0.005277333338057639 -0.00180294 0.00391716 0.00542376 0.00397427 0.00363086 0.00671541 0.00742268 0.000618513 0.00173758 0.000420145 0.00298418 -0.00057409 0.000930173 0.000741902 0.00096063 0.01494817522955909 0.005213289133614099 0.0027511748563073617 -0.0036428042208523632 -0.00684666084995865 -0.006716383521690213 -0.004044588392624138 -0.003644883360161062 -0.00770345519445358 -0.015501960070268703 -0.000112577 -0.0006572015585440607 0.0030990784348525766 -0.0011167801652440426 -0.00147106 0.000596949 0.00591034 0.00504295 0.00871542 0.00958763 0.00298809 0.00530201 0.00807744 0.00035854 0.00474733 -0.000793763 0.00191419 0.004358531522269017 0.0088699634848041 -0.006670870202726161 -0.004337722423306739 -0.008569903755864928 -0.009340367346785923 -0.005249471254038682 -0.003798571942333182 -0.012542195842822226 -0.018272651304236474 -0.016071274666707186 