0.00938144 0.00226804 0.00381443 0.00525773 0.00896907 0.0085567 0.00865979 0.00329897 0.00134021 0.000206186 0.00371134 0.00969072 0.00356799 0.0036427 0.00412371 0.00958763 0.00865979 0.00329897 0.00938144 0.00546392 0.000515464 0.00268041 0.0043299 0.00927835 0.00103093 0.00319588 0.00103093 0.000618557 0.00587629 0.00391753 0.00876289 0.00907216 0.00907216 0.00329897 0.00697112 0.00810763 0.0123399 0.00913912 0.0076842 0.00805516 0.00585779 1.06517e-05 0.0106885 0.0147774 0.0109974 0.00746718 0.00147096 0.00863207 0.00795749 0.0097069 0.000295215 0.00218899 0.00515464 0.00804124 0.00309278 0.000103093 0.000412371 0.00134021 0.00515464 0.000935392 0.0086793 0.00465486 0.00874257 0.0125003 0.0126705 0.0157213 0.0229249 0.0294544 0.015248 0.00277123 0.0135109 0.0116318 0.00478104 0.00584277 0.00466014 0.0100803 0.0061452 0.00300164 0.0036861 0.000982733 0.00280687 0.000206186 0.00814433 0.00350515 0.00474227 0 0.00655319 0.00172417 0.00222501 0.00287862 0.00910239 0.00459696 0.00338241 0.0104141 0.0327659 0.0383343 0.0110975 0.00862994 0.00680585 -0.00486412 -0.00503163 -0.00402903 -0.00224741 0.00218187 0.00660088 0.00134277 -0.00445396 0.00390523 0.00337929 0.00703703 0.00889807 0.00896907 0.00412371 0.0085567 0.0036331 0.00702551 0.00953831 0.0156202 0.0216062 0.0112044 0.00921842 0.011762 0.0257935 0.0187137 0.00371746 -0.00652542 -0.000145493 0.0141462 -0.0190337 -0.00397746 0.00127936 0.00807566 -0.00609291 -0.0151852 -0.0133259 -0.000110129 0.00758528 0.00431648 0.00514296 0.00654034 0.00278351 0.00690722 0.00220183 0.0030473 0.00755576 0.0190349 0.013758 0.0085738 0.0140656 0.00638266 0.0163512 -0.00248506 0.000935339 0.00151104 -0.0176995 0.00923716 -0.00671992 -0.0114781 -0.00559676 -0.0238182 -0.0136951 -0.0119095 -0.00900369 0.00303944 -0.00311105 -0.00247473 0.00197371 0.00624893 0.00453608 0.00340206 0.00572958 0.00924992 0.00468031 0.0121657 0.00239498 -0.00773309 0.00642732 -0.0131367 -0.0154304 -0.00369051 -0.00520023 -0.00977633 -0.0307992 -0.0164503 -0.0118883 -0.0214127 -0.0336566 -0.0508337 -0.0376918 -0.00682694 -0.00104551 -0.00786104 -0.00413215 0.00443335 0.00187931 0.0094657 0.00958855 0.00433372 0.0017612 0.00841166 0.00892426 -0.00190275 -0.0113186 -0.0116144 -0.0031412 -0.0185296 -0.00654425 0.0074859 -0.002169 -0.0251587 -0.00970559 -0.0231744 -0.0367807 -0.0256743 -0.0318761 -0.053618 -0.0251115 -0.0113548 -0.0132811 -0.0141212 0.0076514 0.00911605 0.000470547 0.0044991 0.00507075 0.00167293 0.00103455 0.00614877 -0.0110143 -0.00798138 -0.0143072 -0.0143365 -0.0110229 -0.00781703 0.0129073 -0.0014523 -0.0152888 0.00157834 0.0201182 -0.0200098 -0.055394 -0.0294965 -0.0336596 -0.0285981 -0.0143636 -0.012918 -0.0131655 -0.0092627 0.000242454 -0.000131013 0.000927847 1.62278e-05 0.00175319 0.00300983 0.00518897 0.0075705 -0.00547646 0.00239008 -0.00942304 0.00499553 -0.00888056 -0.00911066 0.00435164 0.00253931 -0.00606604 0.0189013 0.0297738 -0.0241101 -0.0468283 -0.0322134 -0.0359999 -0.0254304 -0.0102981 -0.00891683 -0.00645095 -0.0166026 -0.00502202 -0.00379914 0.0109969 0.0151702 0.00783505 0.00677093 0.00739079 0.00107087 0.00539252 0.0117545 0.013509 0.0166997 -0.00405189 -0.0319939 -0.00879837 -0.015395 0.0091872 0.0437128 0.0260005 -0.0125332 -0.0349227 -0.0349823 -0.0353369 -0.0231128 -0.00609202 0.00921544 -0.00610527 -0.00280522 0.000390557 0.0077869 0.0077343 0.00524626 0.000412371 0.00274785 0.00700337 -0.00376837 -0.00240241 -0.00184398 0.0210876 0.00875838 -0.00684659 -0.0264163 -0.0118855 -0.00592056 -0.0135515 0.0274664 0.03153 -0.00600762 -0.0136369 -0.0163041 -0.0208305 -0.00157222 0.0142746 0.00901433 -0.000722114 0.00670342 -0.00623623 -0.00346407 -0.00358178 0.00513959 0.00134021 0.00982041 0.000303529 0.00322292 0.0121091 0.00675545 0.00957096 0.00870681 -0.0036853 -0.0290408 -0.0023029 0.00869083 0.000402914 0.0148579 0.00334351 -0.00873343 -0.000471639 -0.0197626 -0.00698636 0.00479497 0.0067865 -0.00431135 -0.00330761 0.00197372 0.00787652 0.00118996 -0.0010923 0.0119319 0.00268041 0.00871187 0.00560315 0.00406877 0.00189936 0.00669269 0.00630784 0.00376748 -0.00949433 -0.039193 -0.0199678 -0.0139738 -0.000931666 0.0253868 -0.00260446 0.0072615 0.00262079 -0.0186473 -0.00381971 -0.0111596 -0.00735032 -0.00483838 0.00102044 0.00653212 0.0121882 0.0100115 0.00396203 0.00696412 0.00762887 0.00276537 0.00512884 0.00321311 0.000268335 -0.0051453 0.00966749 0.00187889 -0.0145907 -0.0255308 -0.0035423 -0.00506507 0.017161 0.0358224 0.00856957 -0.000454545 0.0153733 -0.0276325 -0.0411692 -0.0382154 -0.020281 -0.0064277 0.0111162 0.0124104 0.00637811 0.00537502 0.00439038 0.00711973 0.000929704 0.00735308 0.00206202 0.00754878 -0.00100749 -0.0117235 -0.00151721 -0.00387674 -0.0134679 -0.0336862 -0.00825711 -0.000225229 0.0560383 0.0604283 -9.50906e-05 -0.0194764 -0.0118409 -0.0126315 -0.0392154 -0.0368546 -0.016665 -0.0102972 0.00849006 0.00504313 0.00156025 0.0116826 0.00942322 0.00465779 0.00278506 0.00133799 0.00567903 0.00222096 0.00692181 0.000706541 -0.002126 -0.00182284 -0.0194602 -0.0254401 -0.00304777 0.0246081 0.0505608 0.0549633 0.0190821 -0.000901064 -0.0115146 -0.0051527 -0.0221405 -0.0066299 -0.00684966 0.0109463 0.0160292 0.0221136 0.0102885 0.0193328 0.0064068 0.000916224 0.00505155 0.00999734 0.00630747 0.0094317 0.0074966 0.00510945 -0.00762925 -0.0116652 -0.0297285 -0.0109633 0.0171336 0.0155025 0.0547205 0.0520526 -0.00436133 -0.00938379 0.0110066 0.0194237 0.0185192 0.000162657 0.0145894 0.0134837 0.00584135 0.0181576 0.00357733 0.00740743 0.0030901 0.00907594 0.00927835 0.00608247 0.00741978 0.00901275 0.00398153 -0.000827175 -0.0092069 -0.00940054 -0.0262283 -0.00788495 0.00117925 0.0106972 0.0793758 0.0533234 0.00666404 0.0088138 0.0352196 0.0442007 0.0316005 0.00401116 -0.00773641 0.0037217 0.00117599 0.0118852 0.0176887 0.012868 0.0067266 0.0050021 0.00938144 0.00535739 0.00708749 0.00525867 0.00645956 0.00213709 -0.00582643 -0.0208416 -0.0344866 -0.0211857 -0.0201836 -0.00342869 0.0538058 0.0332968 0.0486064 0.0386912 0.0308614 0.0321581 0.0230959 -0.0145943 0.00702273 0.0225635 0.0207611 0.0316381 0.0141799 0.0192838 0.00529945 0.0040483 0.00804124 0.000283471 0.00181682 0.00463328 0.0105702 0.00090075 -0.00844099 -0.0176068 -0.0277782 -0.029342 -0.0260926 -0.0183974 0.0126963 0.00982602 0.0272385 0.0164673 -0.00629878 0.0242101 0.0345674 0.00475006 0.0181486 0.0141701 0.00537254 0.013416 0.00700332 0.0108886 0.00678817 0.00752484 0.00463918 0.00762887 0.00522704 0.0085995 0.00990885 0.00403011 -0.000675654 -0.00887962 -0.0154839 -0.0277575 -0.0232153 -0.0240493 0.00657807 -0.00256785 -0.0110115 -0.0411044 -0.0263031 0.00555972 0.0286158 -0.00772839 -0.0125511 0.00379867 0.00714128 0.00610339 0.00379927 0.00191853 0.00665485 0.00309278 0.00268041 0.00587629 0.00379167 0.0082503 0.00324661 0.00873493 0.00548789 -0.00633473 -0.00471121 -0.0286604 -0.0171566 -0.0237762 -0.00392315 -0.00696053 -0.0316199 -0.045464 -0.0444235 -0.0318932 -0.00215728 -0.00778725 -0.00235148 -0.00274516 0.00810525 0.00170326 -0.00265032 0.00641133 0.00128808 0.00453608 0.00835052 0.00278351 0.00920942 0.00321743 0.00323969 0.00408353 0.00135588 -0.0044698 -0.0115348 -0.0171663 -0.00449017 -0.00981233 0.0132986 -0.00855022 -0.0279054 -0.0263944 -0.0354792 -0.0271039 -0.0200375 -0.0144145 0.00413814 0.00704727 0.00916913 0.00275834 0.000533748 0.00615442 0.00671207 0.00680412 0.00268041 0.00257732 0.00263128 0.0070933 0.0073591 0.00420218 0.00397915 -0.000994831 0.000135824 -0.00247565 0.00931124 0.00352588 -0.0104892 -0.0222445 -0.0267958 -0.0229687 -0.018887 -0.0156411 -0.00418932 0.00453788 0.00319853 0.00620146 -0.000290928 0.00340407 0.000731536 0.000428233 0.000762077 0.00896907 0.000824742 0.00494845 0.00102952 0.00108859 0.00306844 0.00167132 0.00260211 0.00472531 0.00600587 0.00715871 0.00439102 0.0100106 0.0108437 -0.00902871 -0.00259225 -0.00579689 0.00209392 0.00366771 -0.00139707 -0.00722876 0.00429533 -0.000415249 0.00674079 0.00896421 0.00684227 0.000933188 0.00392393 0.000412371 0.00391753 0.00216495 0.00680412 0.00958786 0.00271537 0.00972077 0.0117759 0.00814665 0.00656332 0.00507951 0.0114974 0.00404879 0.00629143 0.00587754 -0.0022969 0.00286905 0.00707543 0.00784084 0.0081823 0.00343375 0.00415726 0.00353142 0.00871146 0.00284613 0.00195876 0.00649485 0.000103093 0.0057732 0.00649485 0.00958763 0.00989691 0.00505155 0.00546392 0.000108388 0.00474279 0.00518437 0.00368809 0.00854755 0.00456606 0.00628163 0.00657471 0.00727777 0.00473847 0.00388173 0.00918928 0.00695567 0.00211455 0.00278437 0.00688951 0.00618542 0.00540769 0.000920909 0.00195876 0.00185567 0.00525773 0.00443299 0.00329897 0.00216495 0.00742268 0.00309278 0.00721649 0.00103093 0.00608247 0.00206186 0.00525773 0.000618557 0.00659794 0.00742268 0.00226907 0.0093837 0.00515464 0.00680412 0.00938144 0.00134021 0.01 0.000721649 0.0056701 0.000824742 0.00618557 0.00804124 0.00185567 0.00453608 0.00164948 0.00639175 0.0043299 0.00298969 0.00195876 0.00824742 0.000206186 0 0.000818029 0.00151918 0.00974844 0.00340742 0.0029373 0.0070302 0.000559153 0.00289302 0.00212174 0.00848624 0.00837272 0.00574942 0.00442458 0.00791077 0.000502143 0.002993 0.00845503 0.00979393 0.00701031 0.00680412 0.00515464 0.00721649 0.000824742 0.000927835 0.00556701 0.00886451 0.00680012 0.0042944 0.00426243 0.00756449 0.00623648 0.00788973 0.00368958 0.00260709 0.00572623 0.00377783 0.00726577 0.00365135 0.00412936 0.00266549 -3.10808e-05 0.000577578 0.00202953 0.0044818 0.000206663 0.00690328 0.0028845 0.00989691 0.00350515 0.00350515 0.00865979 0.00329897 0.00824818 0.00937631 0.0067643 0.000102284 0.00309753 0.00102704 0.00816273 0.00430792 -0.00107391 0.00542745 0.00813437 0.00323898 -0.000129869 0.00173979 0.00339633 0.00401524 -0.00150605 0.00886428 0.00489558 0.00521102 0.000925257 0.00448419 0.00934377 0.00926976 0.00866129 0.00670103 0.000412371 0.00783505 0.00392011 0.000309697 6.58669e-05 0.00278016 0.007383 0.00221457 3.48952e-05 0.00202415 -0.00257455 0.00249329 -0.000484216 0.00319964 0.00384387 0.00282064 0.00474765 -0.00284468 -0.000594446 0.0063277 -0.00250891 0.00123087 0.0083883 0.00164898 0.0092413 0.00204136 0.00264141 0.000929536 0.00268041 0.00989691 0.00134006 0.00575999 0.00752493 0.00313086 0.00154043 0.00325781 -1.51662e-05 0.00362364 0.00546615 -0.00194577 -0.00426471 -0.00304136 -0.0020984 0.000400457 -0.00110355 -0.00345171 0.0012418 0.00292796 -0.00407267 -0.00168079 0.00175919 0.00624274 0.00100487 0.000249651 0.00366792 0.00876279 0.00463918 0.00298969 0.00451778 0.00495926 0.00619201 0.000283213 -0.00116641 -0.00195929 -0.00169295 -0.00626126 0.00101268 -0.0013568 -0.0015207 0.00153131 0.00297051 0.00176586 -0.00604038 -0.00650063 -0.00188896 -0.00439086 -0.0034683 0.0017584 0.00304427 -0.00237193 -0.000254397 0.00605538 0.00222887 0.00546781 0.00505107 0.00031061 0.000360358 0.00404777 0.00416099 0.00417106 -0.00483566 -0.00365716 0.000705165 -0.00535449 -0.00240835 -0.0025273 0.00410049 0.00576498 0.00566929 0.00511034 -0.00551436 -0.0030251 -0.00784738 -0.00539445 -0.00498493 -0.00927415 -0.000958946 0.00310146 0.000778621 0.00827206 0.000157466 0.00896273 0.0100969 0.00546911 0.00407149 0.00980541 -0.000423741 -0.00410106 0.00289713 0.000658816 0.00324105 -0.00036514 -0.00415445 0.00385646 0.00243715 0.00621718 0.00330292 -0.00109532 -9.77593e-05 1.85061e-05 -0.00392728 -0.00720654 -0.00632955 -0.00271531 -0.00524434 0.00134 0.00449276 0.00715786 0.00663389 0.00172776 0.00566978 0.000131028 0.000581599 0.00327078 0.00363524 0.00296634 -0.000557092 -0.00338098 0.00440744 0.0056362 -0.00125518 0.00184229 0.00231316 0.00394379 0.000383189 0.00173501 -0.000914969 0.0056637 -0.00233284 0.00417831 -0.0059394 -0.00182971 -0.0067633 0.000237658 -0.00151344 0.00246273 0.00179051 0.00354104 0.00587629 0.0015641 0.000684676 0.00593229 0.00538175 0.00202286 0.0067361 0.00693352 -0.000727958 -0.00431619 -0.00236955 -0.00490931 -6.47672e-05 -0.000965415 0.000229242 -0.00543663 -0.000534386 -0.00194494 -0.00180376 0.00033123 -0.00787711 -0.00494103 0.00322251 -0.000250274 0.00131609 0.000645938 0.00368551 0.00367038 0.000309278 0.00652367 0.00712876 0.00520429 0.00263938 0.0098398 -0.00035505 0.00255279 -0.00134501 -0.00765438 -0.00426857 -0.00665564 -0.00347172 0.00197147 0.000832724 -0.0017973 0.00257972 0.00220605 0.0026402 0.00693674 -0.00232705 0.0040632 -0.00208462 0.00597692 0.00351376 0.00550842 0.00892015 0.00491816 0.00206186 0.00425353 0.00270831 0.00584839 0.00541161 0.00880042 0.00337514 0.0020815 -0.00586942 -0.00716993 -0.00730911 -0.00334391 -0.00607736 -0.00589535 0.00299439 -0.00062076 -0.00514369 -0.00110317 0.00256141 0.00351787 0.00256574 0.00463457 0.00119995 0.000683636 0.00564925 0.0052486 0.00724779 0.00856598 0.00123711 0.00571161 0.00704885 0.00803573 0.00737937 0.0121489 0.00498983 0.00401581 -0.00636324 -0.0093234 -0.00645011 -0.00770714 0.000239536 -0.00511673 -0.00260601 -0.00425469 -0.00583122 -0.00413154 -0.00732944 0.00276344 0.00667034 0.000234544 0.00431474 -0.000175902 0.00222281 0.0045881 0.000948429 0.00403233 0.00597938 0.00767953 0.00655151 0.00995039 0.0143565 0.00121954 0.00282871 0.00246619 -0.00729914 -0.00315966 -0.00254127 -0.00417832 -0.00848279 -0.00754417 -0.0091005 -0.00604121 -0.00521302 -0.00326822 0.00212603 0.00936944 0.00120407 0.00779726 0.00997794 0.00266758 0.00761219 0.00146388 0.00703751 0.00350646 0.00247455 0.00302578 0.000403269 0.0102301 0.0132324 0.00315861 0.0090413 -0.00175849 -0.00285797 -0.00381273 -0.00392529 -0.00326099 -0.00389219 0.000921242 -0.00713138 -0.00118376 0.00141686 0.00536853 0.00535771 0.00314213 0.00516656 0.00854436 0.00467665 0.000855006 0.00584946 0.008283 0.00222124 0.00227233 0.00989718 0.00527123 0.00374773 0.00595359 0.00603331 0.013124 0.00494523 0.000713342 0.00211523 0.00298319 0.00338252 -0.00411556 0.00120876 0.0029067 0.000845567 0.00262928 0.00733279 -0.000245168 -0.00355916 0.00449076 0.0108379 0.00170009 1.36277e-05 0.00223494 0.00122499 0.0015426 0.00658131 0.0101087 0.00701031 0.00577735 0.00693871 0.00952341 0.00640362 0.0102113 0.0111194 0.00831759 0.00251044 0.0028285 0.0088782 0.00804899 -0.002988 0.00265909 0.00123976 0.00174532 -0.00200938 -0.00215038 -0.00494468 2.58361e-05 0.00303547 -0.00355844 0.00288246 0.00330849 0.00128198 0.000129218 0.00820203 0.00937848 0.00701031 0.00340206 0.00318043 0.00484925 0.00591912 0.0090365 0.00197428 0.00679263 0.00310208 0.00299393 0.000204156 -0.00292784 -0.00624254 -0.00240534 0.00652417 0.00226011 -0.0049329 -0.00552462 -0.00338717 -0.00179805 0.00787872 -0.00212842 -0.00360783 -0.00211256 0.00582183 0.00156273 0.00474934 0.00888012 0.000412371 0.00100355 0.000217224 0.00309896 0.0010021 0.00656389 0.00292967 5.23622e-05 0.00514468 0.00450558 0.00360348 0.00213109 -0.000361177 -0.00233579 0.00266177 0.00112273 -0.00727065 -0.00398316 -0.00176508 0.000871362 0.00341836 0.000408975 -0.00095815 0.00153334 0.00170403 0.00889486 0.00929604 0.000827665 0.00896907 0.00855155 0.00486923 0.000670994 0.00167478 0.00398289 0.00367892 -0.0013157 -0.00186689 -0.00300566 -0.000833426 0.000637116 -0.000867537 -0.00696323 -0.00106578 -0.0112837 -0.00817457 -0.00978681 -0.000299597 0.00297636 0.00910473 0.00069578 0.00150105 0.0102343 0.00571461 0.002162 0.00785403 0.00979182 0.00917526 0.00371134 0.00273067 0.00687509 0.00593043 -0.00154352 0.00626901 0.00458287 -0.000737074 -0.00789973 -0.00122524 -0.0052184 -0.00711022 -0.0101931 -0.00973451 -0.0090036 -0.00137399 -0.00267685 -0.00356131 0.00832122 0.000820934 0.00282776 0.00366972 0.00137229 0.00425567 0.000496523 0.00904199 0.00670103 0.00587629 0.00649485 0.00264923 0.00841749 0.00887364 0.00301643 -0.00185682 0.00326209 -0.00345296 -0.0100329 -0.00508339 -0.00588228 -0.00873435 -0.00287757 -0.00609072 -0.00520198 -0.0081447 -0.00193484 0.00345357 0.00628054 0.00784038 0.00314885 0.00951035 0.0116008 0.0127685 0.00477843 0.00602105 0.00721649 0.000927835 0.00195876 0.00403518 0.0054886 0.000967191 0.000295345 0.0075304 0.00314337 0.000620762 0.00307906 -0.00404385 -0.00425349 -0.00820553 -0.00462409 -0.00769958 -0.00730489 -0.00277878 -0.00727271 0.002439 0.00399689 0.00619203 0.00824652 0.00931018 0.0106376 0.00973724 0.00348841 0.00945943 0.00896907 0.00773196 0.00113402 0.00730535 0.000424853 0.0075697 0.00622844 0.00167961 0.00791717 0.00329496 0.00557731 0.00375873 -0.00260726 -0.000468022 -0.00327568 -0.00526725 -0.00148563 0.00429299 0.00460622 0.0013073 0.00614289 0.0170965 0.0161782 0.00525917 0.00933982 0.00653211 0.00939325 0.0101975 0.00824742 0.00402062 0.00175258 0.00897175 0.00266039 0.0100325 0.00276441 0.00452164 0.00669665 0.00607046 0.00430538 0.00120827 0.00576333 0.000798319 0.00312309 -0.00240248 0.000828245 0.00228733 0.00386578 0.00367499 0.00858253 0.00596451 0.0156015 0.00689968 0.00586595 0.00718908 0.0014354 0.00627921 0.000412371 0.00721649 0.00536082 0.00237113 0.00876338 0.00758367 0.00878278 0.00142452 0.00131741 0.00529788 0.000114274 -4.39494e-05 0.00650902 0.0055677 0.00699972 0.00690247 0.00330067 0.00673541 0.001354 0.00237955 -0.00212183 0.00696123 0.0112324 0.00893898 0.00850147 0.00690722 0.00268041 0.0057732 0.00979381 0.00639175 0.00484536 0.0028866 0.00556701 0.00546392 0.000306069 0.00464182 0.00085138 0.00149388 0.00464194 0.00207518 0.00639306 0.000938968 0.00414004 0.00573771 0.000452767 0.010253 0.00500977 0.0032592 0.00865914 0.0113944 0.00325936 0.0044639 0.00177653 0.00484536 0.00412371 0.00237113 0.00371134 0.00525773 0.00731959 0.00329897 0.00443299 0.00865979 0.00958763 0.00412371 0.00680412 0.00608247 0.00329897 0.00329897 0.00773196 0.00485303 0.0055838 0.000206186 0.00206186 0.000103093 0.0014433 0.00257732 0.00680412 0.00360825 0.00113402 0.00134021 0.00164948 0.00680412 0.00402062 0.00216495 0.00381443 0.00546392 0.00474227 0.00237113 0.00494845 0.00164948 0.0028866 0.00371606 0.00739908 -0.000305583 0.00479443 0.00931781 0.000832443 0.00600729 0.00764486 0.00686625 0.00836961 0.00652702 0.00520263 0.00822099 0.00421834 0.00121818 0.0047243 0.00194511 0.00721538 0.00927835 0.00659794 0.00628866 0.0085567 0.00474227 0.00556701 0.00185567 0.0101026 0.00285602 0.00849883 0.00357385 0.00597775 0.00809209 0.00489254 0.00426382 0.00206625 0.00339637 0.00381364 0.00470558 0.00460143 0.002093 0.00710614 0.00615295 0.00764082 0.00325331 0.00785477 0.00162139 0.00300295 0.00488815 0.00515464 0.00762887 0.00804124 0.00360825 0.00216495 0.00690115 0.00618525 0.0037591 0.00247919 0.00330648 0.00067736 0.00267863 0.00210307 0.00258723 0.00138332 0.00782972 -0.00067699 0.00289479 0.000675969 -0.00109497 0.00413664 0.00243826 -0.00082971 0.00368792 0.0075123 0.00699733 0.00996552 0.0072341 0.000833649 0.0079517 0.00185567 0.0043299 0.00845361 0.00420605 0.00319113 0.00158566 0.00196169 0.000190301 0.00316815 -0.0022165 0.00809485 0.000823475 0.00217903 0.00643371 0.000128429 0.00271928 -0.00267974 0.00606338 0.00376542 -0.000319563 0.00263203 -9.97248e-06 -0.00178865 0.00415191 0.00317851 0.00566965 0.00699972 0.00529396 0.00732258 0.00762887 0.00896907 0.00659392 0.00966652 0.00869329 -0.00107509 0.000137873 0.00129935 -0.00563016 -0.00179697 0.00135029 -9.72754e-05 0.00136764 0.00537057 -0.000358004 0.0023498 0.00493371 -0.000509484 -0.00458217 -0.00160359 0.00333466 0.00601543 0.00189909 0.0076489 0.00510676 0.00108408 0.00260388 0.00928359 0.0014433 0.0057732 0.00196079 0.0089467 0.00482663 0.00281695 0.00501122 -0.00406568 -0.00224044 -0.000197304 0.00129954 -0.00258828 0.00270754 0.00356631 0.000676883 0.0020171 -0.00468362 -0.00860284 -0.00736935 0.00190987 -0.00303654 0.00103151 -0.000250266 0.00146867 0.00279316 0.00139648 0.00220314 0.00497703 0.0101018 0.00247415 0.00537041 0.00264045 0.000275025 0.00992786 -3.59474e-05 0.0047514 -0.00132411 -0.00283945 0.00350297 0.00302951 -0.00353252 0.00192188 -0.00332852 -0.00100192 -0.00339679 -0.00853709 -0.00319476 -0.00529445 0.00586943 -0.0010405 -0.00156142 -0.000915987 0.00225359 0.00617534 0.0102397 0.00424895 0.00895378 0.00621599 0.00645124 0.00417245 0.00575242 0.00368149 0.00536738 -0.0028473 -0.00352381 -0.00689342 -0.00673306 0.00209986 -0.00130132 0.00287684 0.00494626 0.00298509 2.0954e-05 -0.000200172 -0.00405067 0.00258261 0.00440914 -0.00397403 0.000277898 0.00353053 0.00502746 0.0070371 0.00445725 0.000840498 0.00546306 0.00917753 0.000786611 0.00225063 0.00311531 0.00462801 0.00771915 0.00417972 -0.00625752 -0.00438597 0.0022607 -0.00373247 -0.00563404 -0.00204675 0.00376521 0.00655615 -0.00536361 -0.00651291 -0.00027151 -0.00329973 0.00399234 -0.00272643 0.000933204 0.00714771 0.0057288 0.00503893 0.00337248 0.0080872 0.00969072 0.00847518 2.79425e-05 0.0042649 -1.55344e-06 0.00360801 0.00217543 0.00341196 -0.00222288 -0.0100335 -0.00679528 -0.00535832 -0.00361112 -0.00460749 -0.000657247 -0.00151723 0.000192277 -0.00790401 -0.0054502 0.00258303 0.00286552 0.00169108 -0.00177879 0.00717512 0.00633772 0.0068935 0.0074927 0.00144649 0.00804124 0.00136476 0.0052098 0.00253511 0.0010688 0.00207767 0.00252961 0.000956994 0.00382807 -0.00612256 -0.00961265 0.00234066 -0.00624898 -0.0079243 -0.000847836 -0.00510523 -0.00840246 -0.00841238 -0.00620385 -0.00521223 -0.000391795 -0.00235507 -9.91044e-05 0.00304966 0.00488257 0.0053898 0.000715829 0.00741453 0.0071134 0.00588191 0.00914095 0.00091715 0.00207889 0.00101041 0.00688711 -0.00235725 -0.00172412 -0.00333087 0.00363791 0.00978408 0.00467061 0.00390927 -0.00107354 -0.00478259 -0.00686286 -0.00838789 -0.00656059 -0.00564912 -0.00544662 0.0033359 -0.00267191 0.00380721 0.00272618 0.00792554 0.00875038 0.00284272 0.00247423 0.00250317 0.00275038 0.00977578 0.00341921 0.000571771 0.00313641 0.00445064 0.00847875 0.0104521 0.0131355 0.0087611 0.011749 0.0122333 0.00651321 0.00173471 -0.00259528 -0.00578288 0.00277785 0.00298685 -0.00315425 -0.00548717 0.000556669 0.00374342 0.00467049 0.00987627 0.00803638 0.00950332 0.00494845 0.00086896 0.00715309 0.00399206 0.00829158 0.00679605 0.00877461 0.00380073 0.0023751 0.00083063 0.00883654 0.0109103 0.0141769 0.00935326 0.0127744 0.0122652 0.0106703 0.00290384 0.00262105 0.00671632 -0.00707146 -0.00397798 -0.00238436 0.00185534 0.00322939 0.00508922 0.00509529 0.00371343 0.00432915 0.0087551 0.00844502 0.00395873 0.00436506 0.00464155 0.00654035 0.00112287 -0.00481555 -0.00233534 0.00223146 0.00614099 0.00643098 0.00372312 0.000885764 0.00413244 0.00395921 0.00709282 0.00260515 0.00291329 -0.00641724 0.00207279 0.00133445 -0.000682843 0.00951291 0.00683983 0.0035301 0.00648811 0.00278288 0.00300611 0.00351596 0.000174223 0.00603979 0.00712501 0.00493851 0.0019433 0.000843735 0.00189941 0.00740553 0.00197997 -0.000844018 0.0034352 -0.00620533 -0.00840474 -0.00129099 0.00996058 0.00290522 -0.00219578 -0.00313189 0.00727602 0.00861665 -0.000209534 0.00363815 0.00415822 0.0103413 0.00848764 0.000824742 0.010107 0.000806984 0.00344134 0.00746643 0.010728 0.00702186 6.93318e-05 -0.00100641 -0.00441782 0.00369889 -0.00145533 -0.00426194 -0.00520107 -0.00377328 -0.00617442 0.00275348 0.00200823 0.0031643 -0.00202491 0.00160189 0.00457799 0.0100552 0.00140877 0.00187313 0.00378836 0.00655297 0.00185029 0.00670103 0.00814433 0.00319066 0.00627017 0.011258 0.00713581 0.0071828 0.00189681 0.00127853 -0.00087455 0.00199039 -0.00358423 -0.000126836 -0.00106873 -0.00728153 -0.00863898 0.00315239 -0.000960446 0.00521032 0.00031758 0.00334514 0.0112076 0.0123537 0.00776553 0.0067398 0.0026341 0.00351023 0.00386529 0.00268041 0.00801979 0.00221601 0.00760641 0.00907241 0.00815551 0.0127056 0.00546268 0.00340628 -0.00267271 -0.000557869 -0.00930053 -0.00742571 -0.00463685 -0.00321582 -0.00605851 0.00209681 -0.00060355 0.000304987 -0.000128979 0.00503755 0.01036 0.0150566 0.0129612 0.0023554 0.000749808 0.00398215 0.00999329 0.00206186 0.00255544 0.0081042 0.00586016 0.0118074 0.00465262 0.0101702 0.00552275 0.00618944 -0.00818795 -0.00184101 -0.00237411 0.00315647 -0.00459008 -0.0061751 -0.00139677 -0.000850727 -0.00330945 0.000405742 -0.00103574 0.00157799 0.00459298 0.00829348 0.0103809 0.00504086 0.00342615 0.0072281 0.00443298 0.00845361 0.00278351 0.00665009 0.0103273 0.00496163 0.0076705 -0.000421306 0.00474152 -0.00320391 -0.00625615 -0.00676459 0.0035018 0.00340943 -0.00108961 -0.000430587 0.00567539 -0.00109918 0.000779727 -0.00489113 0.00125074 0.00648743 0.00659459 0.0115934 0.0101061 0.00631933 0.00512278 0.0075973 0.00773196 0.00494845 0.00247423 0.00924054 0.00984828 0.00188186 0.000778728 0.00370706 -0.00160586 -0.000709467 -0.00565777 -0.00508734 -0.00199959 0.00030915 -0.00438326 -0.00467956 -0.00410269 -0.00348956 0.00407154 0.00126332 -0.000563855 0.00195524 0.0112095 0.00761121 0.00504789 0.00823217 0.000445764 0.00559288 0.00618557 0.000927835 0.00773196 0.00317356 0.00628197 -8.50828e-05 0.00764569 0.00414988 -0.00331696 0.00456718 0.00638308 0.00032959 -0.00452401 -0.00761222 0.000749202 -0.00113509 -0.00564606 -0.00464709 -0.00147952 -9.53422e-06 0.00191181 -0.000508003 0.00242863 0.0063896 0.0108513 0.00185058 0.00755184 0.00384342 0.00587629 0.00701031 0.00226804 0.00603368 0.00104802 0.00145884 0.00173184 0.00283399 -0.00120916 0.00480348 -0.0025393 -0.0024271 -0.00504343 -0.00718403 -0.00499472 0.0017748 -0.00402884 -0.00166862 0.0041166 0.00311916 -0.00102318 -0.00279904 0.00746983 0.00281542 0.00859394 0.00863 0.00604331 0.0027996 0.00371134 0.00886598 0.00195876 0.00340331 0.00407826 0.00736171 0.00631501 0.00541992 0.00212199 0.00124772 0.0056707 0.00599145 -0.00113972 0.00580893 0.00343239 -0.00042485 0.00779343 0.00842302 0.00532354 0.00252317 0.00498943 0.000319999 0.00798122 0.00499929 0.00608631 0.00210124 0.00372889 0.00672203 0.0102062 0.00463918 0.00381443 0.00649485 0.00319621 0.00119032 0.0005873 0.0068331 0.00310416 0.00969055 0.00119558 0.000287602 0.00406662 0.00173129 0.0042469 0.00346199 0.00744759 0.00443837 -0.00179044 -0.00182169 0.000869622 0.00286345 0.00449426 -0.000249638 0.00867403 0.00319588 0.00319588 0.00360825 0.00195876 0.00123711 0.00206186 0.00319588 0.00123711 0.00309278 0.00133028 0.00275824 0.00481219 0.00224321 0.00938067 0.00590646 0.00343884 0.00553635 0.00785488 0.00183038 0.00680893 0.000183003 0.00127131 0.00369929 0.00373539 0.0046244 0.00365592 0.00311198 0.00492176 0.00701031 0.00494845 0.00453608 0.00989691 0.00907216 0.000515464 0.0071134 0.000824742 0.00948454 0.00876289 0.0043299 0.00824742 0.000721649 0.00907216 0.00762887 0.00505155 0.00268685 0.00589038 0.00773196 0.00113402 0.00814433 0.00195876 0.00474227 0.00298969 0.00587629 0.00360825 0.00865979 0.00886598 0.00515464 0.00835052 0.00907216 0.0085567 0.00237113 0.00783505 0.00927835 0.00402062 0.00938144 0.0101031 0.00281336 0.00604378 0.00109626 0.00568529 0.00925479 0.00565942 0.00220588 0.0047435 0.000709544 0.00214373 0.00894775 0.0031257 0.00599632 0.00173566 0.000583843 0.00394489 0.00384258 0.00536312 0.00896907 0.01 0.00350515 0.00319588 0.0056701 0.00979381 0.0056701 0.00824824 0.00227454 0.00659116 0.00485886 0.00316606 0.00544303 0.00185864 0.00107117 -0.000425058 0.000110378 0.000861539 0.00499007 0.0061152 0.00111847 0.000753128 0.00469051 0.00799374 0.00676056 0.00523092 0.00425546 0.00267329 0.00618982 0.00742268 0.00298969 0.00608247 0.00494845 0.000412371 0.00329173 0.00711197 0.00979181 0.00526823 0.00655567 0.0063894 0.00206727 0.00611281 0.0156703 -0.00203572 -0.000113419 0.00545367 0.00174352 -0.00614934 -0.00677618 -0.00382971 0.00700415 0.00193842 0.00386931 0.00463603 0.00587509 -0.00110657 0.00901681 0.00528199 0.000354794 0.00762887 0.000103093 0.00154639 0.0072948 0.00195366 -0.00116988 0.000610226 0.00304161 -0.00316122 -0.00960916 0.00163435 0.0135906 0.0207946 0.0074604 0.0156697 0.0097017 0.0169728 0.0138517 0.0155564 0.0162199 0.00113449 0.00102334 0.00630718 0.0060248 -0.000496151 0.00833382 0.00373116 0.00665416 0.00618565 0.0102062 0.00680412 0.00515079 0.00857212 -0.00544083 -0.00730281 -0.0103873 -0.00609225 -0.00139338 0.0181412 0.0335791 0.0229479 0.00811007 0.0109895 0.00847921 0.0225871 0.0326172 0.0236231 0.0242521 -0.00622346 -0.00222676 0.00623737 0.00631592 0.00178381 0.00310714 0.00645147 0.00436879 0.00413354 0.00247423 0.00824742 0.0015255 0.00523545 0.00325787 0.000979991 -0.00177578 -0.00823253 0.0117041 0.014517 0.0218008 -0.00132114 -0.0128684 -0.0106305 0.0128886 0.0199234 0.0138337 -0.00363222 0.0119671 -0.00880388 -0.00196556 -0.000232244 0.00222362 -0.00113775 0.00510621 0.00333914 0.0060773 0.00400169 0.00484509 0.00184848 0.000182412 0.00329461 -4.19061e-05 -0.00484752 0.00267527 0.00133839 0.0119023 0.0168256 0.0186928 0.0214588 0.00282063 -0.0172861 -0.0167677 -0.0200703 -0.0252966 -0.019172 -0.0193122 -0.0173336 -0.0160739 -0.0164617 -0.00942015 -0.00446592 -0.000898881 0.00764601 0.00328693 0.00355964 0.00999903 0.00119629 0.00550406 0.00753483 -0.00243817 -0.00279502 -0.00467533 -0.00657326 0.0151419 0.0092571 0.0240422 0.018265 -0.0124294 -0.0265572 -0.033069 -0.0446879 -0.0506544 -0.0378223 -0.0394498 -0.0381463 -0.0198433 -0.023924 -0.0108625 -0.00697335 0.00425524 0.000294203 0.00617532 0.00916735 0.00649467 0.00598286 0.00624829 0.000226344 -0.00595725 -0.00458146 -0.00162871 0.0115106 0.0267803 0.00925509 0.0164574 0.0297408 -0.00184861 -0.0155015 -0.0204876 -0.0210641 -0.0316899 -0.0441649 -0.0395656 -0.0320478 -0.0319222 -0.0215993 -0.00716976 -0.00481407 0.0012799 0.00328716 0.00631238 0.00412821 0.00329897 0.00305498 0.0049321 0.00845959 0.000602298 -0.00500157 -0.00753658 0.00103656 0.0170954 0.0139582 -0.000471482 0.0138498 0.0155273 0.00328196 -0.00293472 0.00217703 0.013727 0.00180126 -0.0051796 -0.0094188 -0.0127908 -0.0222172 -0.0183302 -0.00944308 -0.00196559 0.00400026 0.00671629 0.00835813 0.01 0.00828895 0.00720056 0.00684517 -0.00264463 0.00407382 -0.00179456 -0.00114792 -0.000870738 -0.00779455 -0.0162517 0.0114889 0.0158019 -0.00343758 -0.00295593 -0.0059586 0.0105529 0.0218235 0.0140548 0.0095045 0.00196427 -0.0103613 -0.00504208 -0.00819817 0.000792824 0.00542974 0.00772494 0.00593259 0.00804124 0.00926664 0.00582802 0.00637662 0.00424597 -0.00442784 0.00731519 0.00527221 -0.0049154 -0.0167152 -0.00336226 0.00795398 0.00159783 -0.0106171 -0.0160903 -0.0167312 -0.0208367 -0.00201051 0.0249711 0.018153 0.0127052 0.00208998 -0.00390047 0.00355989 0.00377184 0.000254706 0.00204523 0.0050994 0.000412371 0.00814037 0.00498943 0.00141863 0.00577267 0.00354224 -0.0054677 0.00217562 -0.00811021 -0.00208364 0.00277083 0.00219202 0.00622492 -0.00717651 -0.0230057 -0.0198822 -0.0419784 -0.0288058 0.00408988 0.00818757 0.0169528 0.00361089 -0.00285312 0.00952848 0.00946876 0.00512746 0.00392263 0.00835643 0.00134021 0.000829227 0.00622863 0.00562825 -0.00184293 0.00012838 -0.00840799 -0.0216577 -0.0156222 -0.0105998 -0.0106438 -0.0121162 -0.0218533 -0.0213262 -0.0177768 -0.0178299 -0.0190841 -0.0365997 0.00512169 0.00904312 0.00728412 -0.0021375 0.00313002 0.0058731 0.0097726 0.00223769 0.00416814 0.00773262 0.00536054 0.00176784 0.00204571 0.00235584 -0.000919196 -0.00459743 -0.011899 -0.027353 -0.026792 -0.0165465 -0.0282014 -0.0226818 -0.0167313 -0.0171354 -0.0241724 -0.021653 -0.0102995 -0.011311 0.000186239 0.00415177 0.0116789 0.0104737 0.00681207 -0.00113227 0.00496318 0.000827826 0.00301852 0.00969688 0.00628842 0.00722804 0.00316586 0.00463835 0.00429679 -0.00199113 -0.00688927 -0.0198758 -0.0265842 -0.0200486 -0.0256355 -0.0203978 -0.0214067 -0.0156856 -0.0251897 -0.0106197 -0.00952109 -0.00678336 -0.0051562 0.00209263 0.0241222 0.0206637 0.00454566 0.00622923 0.0106389 0.00179156 0.00951494 0.00784109 0.0101031 0.00794203 0.00275615 0.00171783 -0.00391519 0.00174407 0.00394919 -0.0258229 -0.00876936 -0.0118667 -0.011017 -0.0145399 -0.00931844 -0.0132475 -0.00630759 -0.0117212 -0.0107643 0.00282778 0.00231986 0.00391966 0.0235692 0.0254135 0.00135073 -0.00584114 0.00137783 0.00125927 0.00692108 0.00738323 0.000721649 0.00639175 0.000657276 0.0110135 0.00253624 -0.00416816 -0.0100094 -0.0222588 -0.00820155 0.00211503 -0.00760149 -0.00759472 -0.00216295 0.00209258 -0.00035126 -0.00419974 -0.00323711 -0.00187456 0.00651288 -0.00288993 0.0113459 0.0372392 -0.00445238 -0.00283845 0.00461116 -8.53725e-05 0.00824893 0.00822592 0.00319588 0.00156118 0.00466168 0.0113915 0.00828409 -0.00540736 0.00699216 -0.00820856 -0.00794168 -0.000439044 0.0164184 0.0258072 0.00816549 -0.000479143 0.00116331 -0.00207372 0.00507789 0.00432678 0.00426064 0.00128662 0.0194903 0.0206715 -0.00098935 -0.000830311 0.00686654 0.00986365 0.000233847 0.000518629 0.00824742 0.00834727 0.00787946 0.0104952 -0.000749231 -0.00527856 0.00162131 0.0104705 0.0122973 0.0274708 0.0123652 0.00128228 -0.00701059 -0.00199278 -0.00709811 -0.00195865 0.0167862 0.0180526 -0.00210216 0.0113857 0.0103872 0.00754754 0.000135745 -0.00622396 0.00618749 0.0076353 0.00674274 0.00742424 0.00371134 0.00268041 0.00492203 0.00547239 0.0050877 -0.00166844 0.00653882 0.00657427 0.00670863 0.0107665 0.00568343 0.00697588 0.00650098 -0.000542056 0.00461423 5.78177e-05 0.00691567 0.00754019 0.0105977 0.00429554 0.00944546 0.00954982 0.0010488 0.00118709 0.00899146 0.00635342 0.00364695 0.00608247 0.00206186 0.000515464 0.00233644 0.00778352 -0.00068863 0.00513077 0.00161205 0.0118494 0.00658637 0.0124458 0.00675654 -0.0011833 -0.000519706 0.000704124 0.00746106 0.00738062 0.00434476 0.000699173 -0.00202427 0.0106785 0.0017817 -0.0087258 -0.00232651 0.00733257 0.00884383 0.000225857 0.0054517 0.00257732 0.00958763 0.00195876 0.00279176 0.00900919 0.00645354 0.00172932 0.00186735 0.00657534 0.011238 0.00921438 0.0274671 0.0196615 0.0221026 0.0119993 0.00826653 -0.00372058 -0.00703442 -0.00901408 0.00383236 0.00432765 -0.00704481 -0.00321151 -7.99126e-05 0.00345886 0.00863343 0.00458528 0.00327139 0.00917526 0.00597938 0.0056701 0.00686018 0.00439976 0.00664079 0.00699613 0.00242815 0.00569301 0.00767655 0.00767031 0.00112688 -0.00209109 0.00280479 0.000989373 0.00635644 0.001165 -0.00414906 0.0072388 0.00622878 0.00179009 0.00424139 -0.000373914 0.00821239 0.00826617 0.0103885 0.00472459 0.00825087 0.000103093 0.0071134 0 0.00948397 0.00937669 0.00388296 0.0039559 0.000411122 0.00383979 0.00125927 0.00304452 -0.00664282 -0.00424894 -0.00465421 -0.00486434 -0.00889497 -0.000584236 0.009168 0.00503051 0.00475324 0.0078641 0.00931955 0.00228778 0.00440224 0.00855703 0.00457029 0.00526032 0.0041268 0.00587629 0.00381443 0.00948454 0.0042268 0.000824807 0.00979463 0.00931628 0.00238945 0.00835233 0.0087814 0.00152801 0.00112867 -6.62869e-05 0.00923732 0.004672 0.001708 0.00863342 0.00775664 0.00732584 0.00308591 0.00598878 0.00320596 0.00407622 0.000436322 0.0031467 0.00927835 0.000309278 0.00474227 0.00896907 0.000618557 0.00453608 0.00484536 0 0.00969072 0.00948069 0.00360455 0.00885989 0.00252129 0.00132385 0.00991849 0.0011212 0.00892563 0.00805329 0.0100206 0.00845823 0.001955 0.00596111 0.00353277 0.00640089 0.00858675 0.00765764 0.00679105 0.00545935 0.00845361 0.0056701 0.0057732 0.00391753 0.0014433 0.000618557 0.00329897 0.000206186 0.00257732 0.00309278 0.00113402 0.00298969 0.00979381 0.00680412 0.0102062 0.00185567 0.00359849 0.00286524 0.00247423 0.000927835 0.00546392 0.0043299 0.0056701 0.00680412 0.00680412 0.00154639 0.00443299 0.00391753 0.00938144 0.000309278 0.0057732 0.000515464 0.00783505 0.00824742 0.00886598 0.01 0.000309278 0.00309278 0.00852614 0.00508603 0.00459221 0.00254075 0.00445113 0.00175262 0.00871219 0.00104597 0.00904978 0.00943556 0.00796239 0.00584413 0.00125718 0.00272464 0.00780595 0.00418074 0.00459836 0.00381111 0.00226804 0.00206186 0.00154639 0.00309278 0.00845361 0.00731959 0.00804124 0.00824308 0.00543217 0.00229313 0.00206764 0.00746092 0.00065866 0.00555322 0.000627298 0.00482027 0.00649897 0.00873226 0.00768814 0.00533918 -0.000753222 -0.00315092 0.00403172 -0.0011404 0.00258119 -0.000670328 0.000318297 0.00192356 0.000887069 0.00164948 0.000309278 0.00175258 0.00865979 0.00340206 0.00207747 0.00565611 -0.00174323 0.00658774 0.00351729 -0.000222734 0.00533225 -0.0031084 0.0106717 0.00716261 0.00687079 0.013655 -2.61618e-05 -0.0124041 -0.0128493 -0.0109997 -0.0113135 -0.00613494 0.000448777 0.00152298 0.0036876 0.00598215 0.00902985 0.00855957 0.00728454 0.00195876 0.00979381 0.00938144 0.00170297 0.00351764 0.00495177 0.00462288 0.00116096 0.00892605 0.0211927 0.00889842 0.0132074 0.0234825 0.0203756 0.00238947 0.0131868 0.0355188 0.0551981 0.0148157 -0.00837125 -0.00930217 -0.0101291 -0.0132515 -0.00894843 -0.00736245 -0.00379033 0.0075506 0.00206713 0.00265236 0.00649485 0.00216495 0.00516449 0.00632611 0.0083419 -0.00113561 0.00233522 0.0186856 0.00550676 -0.00671785 -0.00763624 0.020684 0.00667363 -0.0152027 -0.00536948 0.0156149 0.0197717 0.0221924 -0.00154812 -0.000644695 0.0064463 -0.00589717 -0.0161548 -0.0149326 -0.00486155 0.00812751 0.00817643 0.0044991 0.00381443 0.00123711 0.00212664 0.0105907 0.00931457 -0.00460675 0.00113086 0.0054741 0.00175561 -0.000620393 -0.000520437 0.00423324 0.0103744 0.0127169 -0.00984287 0.00262726 0.0033023 0.0147606 -0.0182511 -0.015032 -0.0073239 0.00219591 -0.0192464 -0.0184913 -0.00012987 -0.000209318 0.00404494 -0.00257992 0.00938216 0.00805975 0.00184581 0.00387166 0.0105288 -0.00617969 -0.00659103 -0.00131934 -0.00463608 0.0104702 0.00513671 -0.00485891 0.00562363 0.00958488 -0.0305035 -0.0102461 -0.0264959 -0.0378982 -0.0398144 -0.0261161 -0.0267725 -0.0225583 -0.0177467 -0.0131328 0.000577967 0.0028093 -0.00467751 -0.00144334 0.00861012 0.00961382 0.00970789 0.00667059 0.00246849 -0.00296747 -0.00765607 -0.00866431 -0.0229805 0.00903362 0.00899959 0.00585236 0.00959717 -0.00673163 -0.0440387 -0.0352712 -0.0294957 -0.0167935 0.0252428 0.0235891 -0.0162321 -0.0198039 -0.00699895 -0.0126987 -0.00390352 -0.00467591 0.00442768 0.010273 0.00804171 0.00663691 0.00182675 0.00664287 -0.000564351 -0.00887071 0.00225826 0.00166055 0.00162669 0.0113651 0.00110248 -0.00672294 -0.0072664 -0.00895597 0.00245063 -0.00449963 -0.0136796 0.00977846 0.0355565 0.0375791 -0.00544427 -0.00725315 -0.00845283 -0.00600088 -0.00352276 -0.000963932 0.000100184 0.00326465 0.0101031 0.00527959 0.00832841 0.00935013 0.00488075 -0.00724046 -0.000583606 0.00466993 0.000336065 -0.00341339 -0.00122166 -0.0198455 0.0012766 0.00536972 0.0532644 0.00849602 0.00428757 0.000421593 0.012676 0.035226 0.0115974 -0.0188388 -0.00773076 -0.000594807 -0.00391215 0.000947771 0.00597982 0.00964905 0.00835052 -0.000140197 0.00611095 0.0091951 0.00290639 -0.00491462 -0.0125831 -0.00547101 -0.0105454 -0.0182087 -0.0252612 -0.0184625 0.0160346 0.0406996 0.0647236 0.0213218 0.00230621 -0.00268638 0.0074517 0.00516837 -0.00264131 -0.033377 -0.0254124 -0.00279573 -0.00430445 0.00553036 0.00535493 0.00774655 0.000412371 0.00189136 0.00593948 -0.000780738 0.00144346 -0.000679618 -0.00850769 -0.0122425 -0.022394 -0.0362567 -0.0307532 0.00831795 0.0243421 0.0641124 0.0519076 0.0213482 -0.00745308 0.0140928 -0.0264927 -0.0261332 -0.0329873 -0.0280374 -0.0228313 -0.00695487 -0.0012265 0.00149206 0.00112883 0.00929414 0.00412371 0.00578783 0.00221766 0.00787398 3.21552e-06 -0.00560032 -0.00715592 -0.0196806 -0.030557 -0.0455655 -0.058087 -0.0107762 0.0191968 0.0328743 0.0197617 0.025985 -0.00884845 -0.0291629 -0.0300017 -0.0327148 -0.0251316 -0.0323193 -0.0230104 -0.010921 -0.00260641 0.00283165 0.00586577 0.00558457 0.0056701 0.0102695 0.00444765 0.00673446 0.00362948 -0.00681964 -0.0176052 -0.0235876 -0.0235373 -0.0408686 -0.0295657 -0.00252467 0.00974986 0.0193054 0.0121122 0.00168434 -0.0386681 -0.0483687 -0.0261326 -0.0258335 -0.0284657 -0.0254645 -0.0179878 -0.0113344 -0.00443598 0.00178717 0.00538153 0.00670298 0.00670187 0.00588189 0.00673787 0.0019528 -0.00238332 -0.0117626 -0.0142545 -0.0148437 -0.0264639 -0.0149637 -0.00444851 0.0217703 0.012883 0.0433117 0.0453744 0.0165286 -0.0249734 -0.0590223 -0.03368 -0.0212154 -0.0230409 -0.0160093 -0.00236532 0.000558872 0.00458399 0.0103735 0.00417397 0.00705181 0.00237184 0.0035422 0.00840899 0.00576196 0.00455565 -0.00967018 -0.00894412 -0.019401 -0.011377 0.0122179 0.0408151 0.0202807 -0.0023235 -0.00323635 0.00759705 0.0241465 -0.00528615 -0.0283648 -0.0398938 -0.0231831 -0.0261758 0.000705733 -0.0024752 0.00351904 0.00642695 0.00602952 0.0089566 0.00447172 0.00494845 0.00381292 0.00480006 0.0100868 0.0101659 -0.0018567 -0.0114436 -0.0120866 0.00272303 0.0339172 0.0315616 0.0117072 -0.0190758 -0.044481 -0.0411287 -0.00172244 0.0172132 -0.00414321 -0.0243458 -0.0203433 -0.0138365 0.0105243 0.00746225 0.00404395 0.0046214 0.00997481 0.00125115 0.00658009 0.00257732 0.00185567 0.00506979 0.0118146 0.00236563 0.00563239 -0.00694255 -0.00682004 -0.0120989 0.0160574 0.034184 0.0278469 -0.0347636 -0.0542557 -0.0499199 -0.0168108 0.00636463 0.0104446 -0.0132079 0.0121854 0.0124613 -0.000109742 -0.0030714 0.00390971 0.00356361 0.00613004 0.00365688 0.00354388 0.00185567 0.00564884 0.00725953 0.00797613 0.000927288 0.000702332 -0.0116086 -0.0128457 -0.0111428 0.0132009 0.0200358 0.00357006 -0.0491748 -0.0539977 -0.063991 -0.0364035 -0.00223944 0.0193011 -0.00766968 0.0237911 0.0156092 -0.00263957 -0.00655726 0.00145638 0.00803658 0.00531141 0.00489524 0.00752165 0.00515464 0.00953551 0.00722562 0.0130789 0.0109253 -0.00652153 -0.00993288 -0.0224877 -0.0247785 -0.000201026 0.0159706 -0.0145178 -0.022392 -0.0312655 -0.0314114 -0.0201882 0.0033158 -0.0136846 0.0121377 0.0302284 0.00825096 -0.0138392 -0.0175373 -0.00787796 -0.00079448 0.000179955 0.00586983 0.000487521 0.00134021 0.00927835 0.00539818 0.0068039 0.00734369 -0.00984993 -0.00902725 -0.0304001 -0.0354801 -0.0193511 -0.00143876 -0.00115716 -0.0216385 -0.0160996 -0.0146161 -0.00429095 0.016855 0.0158766 0.0028049 0.00523846 -0.00621675 -0.0164223 -0.00315915 -0.00367269 -0.00362663 0.00244965 0.00599844 0.000927835 0.00278351 0.00690722 0.000800212 0.00511815 0.00446715 -0.0103727 -0.00236386 -0.0201211 -0.0428525 -0.0339522 -0.0126915 0.00695311 0.00262614 0.0166643 0.0165129 0.0147787 0.0251647 0.00551107 0.00124722 -0.0102071 -0.0054397 -0.00412024 0.00281028 -0.00483466 0.0016069 0.00594258 0.00903275 0.0101031 0.00164948 0.0071134 0.00835793 0.000247535 0.00784977 -0.00826454 -0.0148069 -0.0139087 -0.0403982 -0.0312588 -0.0213849 -0.00871232 0.0113385 0.0281054 0.0198159 0.0336347 0.0235387 0.0135297 0.0145473 -0.00285221 -0.00278983 -0.000506037 -0.00464347 0.00156593 0.00837314 0.00201108 0.00706034 0.01 0.00546392 0.0043299 0.00217922 0.00717301 -0.000838875 -0.000337788 0.00991785 -0.00348204 0.00130617 0.00274387 -0.00708094 -0.0096749 0.0115707 0.0132978 -0.0022969 -0.0130277 0.00129311 -0.00072724 -0.00420837 -0.0111736 -0.00453121 -0.0019618 0.00600004 0.00621699 0.00460908 0.0025076 0.00445058 0.00381443 0.00680412 0.00412371 0.00352189 0.00669007 0.00705694 0.00334731 0.0114489 0.00608908 0.0118854 0.00600594 0.00952383 0.00502937 0.00345143 0.00532748 0.00874821 0.0139209 0.0171562 0.00915773 0.0118469 0.00926921 -0.000779825 0.00395097 0.00547694 -0.000880804 0.00723655 0.00218574 0.00115889 0.01 0.00876289 0.00783505 0.000309278 0.00999942 0.00645881 0.00749067 0.0119939 0.0120764 0.0067582 0.0148994 0.0062109 0.00850807 -0.000919491 -0.000933221 0.00124142 0.00346609 0.0148417 0.00948846 0.009173 0.00629456 0.00172342 0.00562521 0.0022486 0.000554354 0.0085567 0.000618557 0.00639175 0.00587629 0.0042268 0.0071134 0.00835052 0.00402062 0.00175258 0.00793881 0.0091768 0.00797926 0.0125877 0.0131291 0.0098702 0.0114469 0.0055949 0.00531886 0.0111237 0.00907858 0.00977297 0.000496204 0.00305239 0.00813791 0.0015892 0.00698169 0.00940111 0.00948961 0.00896907 0.000721649 0.00391753 0.00185567 0.00907216 0.00515464 0.00237113 0.0101031 0.0014433 0.00484536 0.00453608 0.00896907 0.000824742 0.00670103 0.00216495 0.00979381 0.00576995 0.00782795 0.000515464 0.0043299 0.00721649 0.0102062 0.00298969 0.00257732 0.00402062 0.000206186 0.00154639 0.000309278 0.00979381 0.00804124 0.00948454 0.00536082 0.01 0.00381443 0.00721649 0 0.00525773 0.00969072 0.00545103 0.00522531 0.0058497 0.00948622 0.00773306 0.000661623 0.00169562 0.00506472 4.45183e-05 0.00555645 0.00449236 0.00206809 0.00761693 0.0088288 0.00699093 0.00999818 0.00566466 0.00979337 0.00773196 0.00618557 0.00329897 0.000412371 0.00268041 0.00257732 0.00896907 0.00443213 0.00443096 0.00490727 0.00746284 0.000290112 0.003093 0.00206019 0.0059577 0.00015323 0.00576775 -0.000910755 -0.000238699 0.00403354 -0.00172887 0.00330633 0.00635762 0.00158745 0.00807103 0.00816873 0.0044892 0.00503444 0.00123264 0.00597938 0.01 0.00597938 0.00505155 0.00360825 0.00103285 0.00195371 0.00583009 0.00856855 0.00812322 0.00800955 0.000807064 -0.000585798 0.00657638 -0.000893135 0.00177586 0.00657867 0.00436376 0.00188068 0.0059137 -0.0015305 0.000521306 0.00785475 -0.000520474 0.00206277 0.00369293 0.0100371 0.00324221 0.00939344 0.00845131 0.00742268 0.00340206 0.00412371 0.0081509 0.000207613 0.0018609 0.00464057 0.00494979 0.00135949 0.00842786 0.00810847 0.00480027 0.000708566 0.00558401 -0.00445677 -0.00119002 -0.00175047 0.00335216 -0.00167878 0.00374124 -0.00282204 0.00702525 0.0048219 0.00867424 0.00751422 0.0101928 0.000936173 0.00259707 0.00865466 0.00927835 0.00505155 0.00525821 0.00581051 0.0107943 0.00323874 0.00351798 0.012274 0.00318978 0.00453743 0.00559279 0.00477418 -0.00155623 -0.00481303 -0.000975996 0.000191796 -0.0057687 0.000761046 -0.00105588 -0.000820157 0.000295771 -0.00200766 0.00238893 0.00489374 0.00983948 0.00771007 0.00607731 0.00597097 0.00948454 0.00226804 0.00669798 0.00433211 0.00693728 0.00703621 0.00665076 0.00838731 0.00300412 0.00349058 0.000948574 0.000955711 -0.000890716 0.00409842 -0.000738064 -0.00474939 0.00105176 -0.00277741 -0.00255012 -0.0010252 0.00133026 0.00677645 0.00304819 0.00922285 0.00201833 0.00466723 0.00790429 0.00947975 0.00422698 0.00455855 0.0102108 0.00516797 0.00263966 0.00975531 0.00239327 0.00527193 0.00598246 -0.00095949 0.00407372 -0.00261772 0.00210307 -0.00236413 -0.007172 -0.00705404 -0.00637215 0.00108232 -0.00699966 0.00218592 -0.00276575 0.00200489 0.00038725 0.00718569 0.00677874 0.00773026 0.0088012 0.00763041 0.000203588 0.00101043 0.00903989 0.00386174 0.00784683 0.00529174 0.00305721 0.00211308 -0.00376779 -0.00123963 0.00102377 0.00508059 -0.00171713 -0.00163213 0.00192458 -0.00323885 -0.00268352 -0.000959841 0.00279132 -0.00132549 -0.00145781 0.00569898 0.000958984 0.0103962 0.00539496 0.00849438 0.00516982 0.00959098 0.00618569 0.00775296 0.00773158 0.00969649 0.00542378 0.00680503 0.00594107 0.00513805 0.00696364 0.00366537 -0.00501894 -0.00200252 0.00228971 -0.00133178 0.00158796 -0.00249914 0.00188654 -0.00277344 -0.00246989 -0.00331725 -0.00313258 0.00333618 0.00321262 0.0114943 0.00286181 0.00704627 0.00242388 0.00910384 0.00113402 0.00947867 0.00264404 0.00364371 0.0070504 -0.00197104 0.0014064 -0.00086171 0.00469926 -0.000536397 -0.00519261 0.00311786 -0.00406456 -0.000319269 -0.000179491 -0.00439641 0.000412383 -0.00652945 0.00270724 0.00112067 -0.00327823 -0.00114518 0.00493314 0.00918542 0.00869748 0.00444863 0.00425447 0.00104233 0.00762887 0.00173848 0.00948206 0.00480959 0.0080131 0.00116381 -0.00281389 -0.00417543 -0.00534314 -0.00630655 -0.00206914 -0.00442894 0.00401447 0.000588685 0.00562202 0.00245255 -0.00156824 -0.00890736 -0.00794279 -0.00255885 -0.00183261 -0.000768928 0.00814036 0.00824806 0.00267884 0.00124145 0.00919688 0.00722567 0.00783505 0.00547221 0.000644392 0.00226459 0.00691512 0.00603205 -0.0038611 -0.00399192 0.00294784 -0.00594833 -0.00270658 0.00473553 0.0013053 -0.00218972 -0.00267891 0.000576242 -0.00626419 -0.00491436 -0.00315249 -0.00317988 -0.0059894 0.000896165 0.00157814 -0.000322176 0.00859412 0.00700508 0.00939088 0.00661017 0.00597938 0.00960103 0.00676582 0.000232336 0.00951705 0.00522618 -0.00216459 0.00290853 7.24519e-05 0.000826234 0.000855615 0.00585358 0.00379466 0.0077605 0.00543437 0.00140423 -0.00234207 -0.00609825 -0.00581767 -0.00144592 -0.00529786 0.00479614 0.000723658 -0.00148637 0.00396535 0.0088778 0.00926607 0.00236809 0.00268041 0.000212616 0.00702016 0.00607314 0.0104264 0.00999315 0.00019646 0.0052357 -0.000951368 6.58331e-05 -0.00154241 -0.00402198 -0.00405905 0.000725805 -0.0047329 3.69229e-05 -0.00194103 -0.00496142 0.00116004 -0.0014686 0.00107886 0.00450458 -0.000930796 0.00771681 0.0015939 -0.000350545 0.00653638 0.00443265 0.00566881 0.00483483 0.00953734 0.00441818 0.00838027 0.00240972 0.00024868 -0.000170275 0.00322399 -0.00267642 0.00228573 -0.00730964 -0.0036377 -0.00463389 -0.00553737 -0.00595737 -0.00128711 -0.00686367 0.0025282 0.00357437 0.00751954 0.00255344 0.00182539 0.00576456 0.00688398 0.00298737 0.00892884 0.00286415 0.00422572 0.00103892 0.000392588 0.00308498 0.00864184 0.00723216 0.00131778 -8.37659e-05 0.0012923 -0.00349143 -0.00538484 -0.00466808 -0.00190118 -0.00561086 -0.0022264 -0.00651325 -0.00424409 0.000101706 0.00283056 0.000755845 0.00521849 0.0055488 0.00358298 0.00187868 0.000574512 0.00841122 0.00141218 0.0060639 0.00443299 0.00309682 0.00817519 0.0100474 0.0027052 0.0040638 0.00316167 0.00016172 -0.00317444 0.00269437 -0.00616383 -0.00431567 -0.00487117 -0.00680716 -0.00209297 -0.00790995 -0.00520227 -0.00364366 0.00394433 0.00558049 0.0065959 0.00752502 0.00872227 0.00105498 0.00327782 0.0080909 0.000126827 9.84573e-05 0.00773196 0.00391753 0.00956254 0.0024333 0.00526167 0.00056327 0.00345932 -0.00552166 0.00146696 -0.00388241 0.000565973 -0.00596633 -0.00428201 -0.000562912 -0.00575579 -0.00470382 0.000693863 0.00250751 -0.00264366 0.00391367 0.00467859 0.00824241 -0.000652752 0.000640904 0.00678901 -1.13156e-05 0.00126027 0.00597421 0.00886598 0.00846657 0.00397044 0.00341401 0.00830984 0.00141152 -0.00244581 0.0031356 -0.000474526 -0.00182894 -0.0100351 -0.00670565 0.000333152 -0.00680188 -0.00150261 -0.0051439 0.000903389 0.00258022 0.000547195 -0.0058826 -0.004352 0.00187672 0.00174458 0.00741053 0.0074087 0.000125697 0.000149067 0.00938085 0.00618557 0.00258286 0.00808506 0.00853648 0.00767711 0.00503334 3.47472e-05 -0.00495921 0.00320771 -0.00765596 -0.00707671 -0.00703745 -0.00277846 -0.00237203 -0.00731402 -0.00371172 -0.00299099 0.00117738 -0.00418898 -0.00357324 -0.00513342 0.000627676 0.00277875 0.00792857 0.00161473 0.00729558 0.00839714 0.00680498 0.00185567 0.00350515 0.00281147 0.00128302 -0.000695985 0.00578373 -0.00422638 0.00191752 -0.00542134 -0.00462323 -0.0103403 -1.37775e-05 -0.00675428 0.00268307 -0.00207761 -0.00837022 0.00240374 -0.000521638 -0.0036487 -0.00190342 0.00645818 0.000464455 0.00974919 0.0088586 0.00793673 0.00208914 0.00750935 0.00298969 0.00917526 0.00762887 0.00428562 0.00885567 0.00664971 0.00426857 0.00297458 0.00128986 -0.000347924 0.00176384 -0.00106549 0.00239659 0.00182318 -0.00303289 -0.00597601 -0.00147378 0.00525034 -0.000226053 0.00505887 0.000701779 0.00685475 0.00975674 0.00788434 0.00600972 0.00802127 0.00427575 0.00609106 0.00505155 0.00639175 0.0014433 0.00713254 6.88274e-05 0.00636718 0.00327843 0.00280789 0.00481123 0.00392762 0.0012442 0.00135334 0.00269255 -0.00327166 0.00774165 0.00455982 0.00735428 0.00788316 0.00286371 0.00571908 0.00889949 0.00734102 0.00765334 0.00708165 0.00746779 0.00256464 0.000884294 0.00825242 0.00958763 0.00453608 0 0.00580689 0.000211307 0.00922978 0.00717146 0.00967345 0.000766104 0.00747493 -0.000613853 0.000369657 0.0043511 0.00640757 0.00163168 0.00269326 0.00950539 0.004717 0.00954092 0.00659817 0.00179337 0.00440118 0.00201786 0.00532399 0.00689798 0.00969226 0.00338117 0.00257444 0.00608247 0.000103093 0.00701031 0.00845267 0.00590192 0.00682721 0.00488602 0.00606774 0.00268507 0.00307849 0.00275102 0.000362717 0.00946868 0.00492224 0.00376266 0.00186449 0.00246932 0.00409358 0.00177844 0.0108745 0.000911592 0.00627572 0.00213034 0.00710206 0.0058868 0.00993542 0.000719239 0.0073167 0.00391753 0.00381443 0.00123711 0.00443299 0.000412649 0.00966075 0.00781269 0.00288444 0.00093625 0.00956017 0.00511682 0.000965688 -0.000755524 0.00648461 0.00147584 0.00903542 0.00392722 0.00231143 0.00970069 0.00656023 0.00614879 0.00324107 0.00697638 0.00148493 0.0065798 0.00536082 0.00505155 0.00175258 0.00175258 0.00515464 0.00659794 0.00969072 0.000618557 0.00329897 0.00597914 0.00844584 0.00472536 0.0101012 0.00178135 0.00526287 0.00401722 0.00137032 0.0093337 0.0019471 0.00925972 0.00761341 0.00561115 0.00141081 0.00115862 0.00934017 0.00018099 0.00550761 0.00582121 0.00113402 0.0057732 0.0042268 0.00226804 0.00247423 0.00494845 0.00649485 0.00494845 0.00525773 0.00649485 0.00927835 0.000721649 0.0057732 0.00917526 0.00484536 0.00989691 0.00917494 0.00309209 0.00412371 0.00484536 0.00257732 0.00247423 0.00618557 0.00824742 0.00381443 0.00103093 0 0.00443299 0.00474227 0.00773196 0.00927835 0.00845361 0.00989691 0.000206186 0.000103093 0.00824742 0.000618557 0.00608247 0.0028861 -2.23084e-06 0.0076266 0.00682628 0.00600682 0.00957059 0.0035301 0.0071346 0.00332058 0.00670889 0.00491579 0.0025512 0.00266249 0.00999356 0.00614989 0.00841861 0.00915065 0.00814233 0.00103093 0.000309278 0.00123711 0.0102062 0.0085567 0.00494845 0.000515464 0.00518011 0.00298648 0.00235124 0.00636574 0.0098488 0.00458926 0.00997709 0.00319024 0.00364318 0.00445882 4.74053e-05 0.00644966 0.00267804 0.00116588 0.000288961 0.0025474 0.00860805 0.00145291 0.00859837 0.00426333 0.000949749 0.00499659 0.00742268 0.00835052 0.00979381 0.00556701 0.000927835 0.000511482 0.00759507 0.00948048 0.00766164 0.00477785 0.00361835 0.00429804 0.00270965 0.00813497 0.0127364 0.00382701 0.00481506 0.00233588 0.00996924 0.00996784 0.0121725 0.00728911 0.0090948 0.00335759 0.00496708 -0.00210841 0.00117821 0.00196988 0.00535189 0.0100107 0.0071134 0.0085567 0.0014433 0.00256368 0.00484156 0.00396616 0.00052086 -4.6683e-05 -0.000891214 0.00133144 0.00367781 -0.00391953 0.0108283 0.00977162 0.0114708 0.00991361 0.0095781 0.015117 0.0130317 0.012772 0.0109532 0.000216717 0.000506523 -0.00318752 -0.000451334 0.00314456 0.007641 -2.92238e-05 0.00753113 0.00680412 0.00742268 0.00669893 0.00388352 -0.000294285 0.00191749 -0.000267162 -0.00455699 -0.00963081 -0.0112427 0.00191459 0.00342496 -0.000220276 0.000333912 -0.00358599 0.000131555 0.0015187 0.0033297 0.00740499 0.0195412 0.0111472 0.00247517 0.00437514 0.00254383 -0.00283095 0.000858783 0.000504105 0.00206175 0.000927835 0.00494845 0.00565192 0.00390504 0.00639836 0.00669614 0.00127009 -0.00546869 -0.0120165 -0.00410578 -0.000893596 -0.00690179 -0.00851544 -0.00441421 -0.00898034 -0.002553 0.000434134 0.00641499 0.0026357 0.00361726 0.00978266 0.00796801 0.00712379 -0.00463625 -0.00269525 -0.000386224 0.00182627 0.00721966 0.00536113 0.00641615 0.000537018 0.00840922 0.00773991 -0.000569847 -0.00520019 -0.0110612 -0.00509884 -0.00395362 -0.001466 -0.00520656 -0.000781442 -0.00824974 -0.0155192 -0.0062393 -0.0052763 -1.13601e-05 0.00221697 0.0174989 0.0224629 0.023393 0.0167499 0.00372266 0.00318182 0.00620017 0.00832538 0.00811898 0.000113687 0.00310261 0.00107972 0.0039185 0.00993586 0.000617619 -0.0010272 0.00475546 0.00475563 -1.07766e-06 -0.00557765 -0.00433684 -0.00848535 -0.0104482 -0.00185775 -0.000514543 0.0025878 -0.00432068 -0.00246311 0.00176526 0.0118817 0.0306641 0.0232267 0.0171827 0.00194824 0.00751763 0.00261259 0.00482136 0.0101033 0.00887457 0.00723136 0.00371284 0.00192231 0.00454933 -0.000109345 -0.000356075 0.00353833 -0.00499053 -0.00478683 -0.00358394 -0.0015897 0.00250752 0.0115171 0.0063116 -0.00378468 -0.0180188 -0.0181725 -0.00565919 0.012737 0.0203674 0.0349904 0.017467 0.00346646 0.00176931 0.00450691 0.00196903 0.00371134 0.00479785 0.00229582 0.00143331 0.000423294 -0.00287907 0.000205659 0.00080603 0.00323368 -0.00539612 -0.000298933 -0.000735122 0.00196418 0.0113507 0.00887714 0.00497325 -0.00931917 -0.00751664 -0.0141913 -0.0158686 0.00405946 0.0213976 0.0321728 0.0180117 0.00567885 0.0061368 -0.000874991 0.00742348 0.00360825 0.0066149 0.00175313 0.00883884 0.00173396 -0.00665406 -0.000102009 0.00506202 0.0077605 0.00519977 0.00246247 -0.00376121 -0.0044873 0.00768675 0.00137673 -0.0102164 -0.00948274 -0.0147941 -0.00482008 -9.99277e-05 0.00449459 0.0139195 0.0227547 0.00922365 0.00209664 0.00400835 0.00114883 0.00152779 0.00896907 0.00358157 -9.78015e-05 0.00487675 0.00292521 -0.00158433 0.000114 0.00664649 -0.0045352 -0.00779565 -0.0101404 -0.00612599 -0.00591957 -0.00123051 -0.00323128 -0.00846483 -0.00983291 -0.00731668 -0.00354889 -0.00955762 -0.00761479 0.00228581 0.00575247 0.00489519 0.00781604 0.00767867 0.00116845 0.00907496 0.00154639 0.00169848 0.00318073 0.00369622 0.00362637 -0.00237658 -0.00340523 -0.0021253 -0.00922429 -0.00892857 -0.017745 -0.0196215 -0.0182107 -0.0124031 -0.00873875 -0.00673013 -0.00967753 -0.00955667 -0.00283992 -0.0091808 -0.00317114 -0.00460738 0.0117338 -0.00256911 0.00881466 0.00393053 0.00866304 0.00928651 0.00360825 0.00285255 0.00539918 0.00663462 0.00654566 0.00464662 -0.00601592 -0.000962258 -0.000326816 -0.00206898 -0.0105649 -0.00999385 -0.0172918 -0.0152889 -0.0151344 -0.00776923 -0.00561075 0.0013355 0.00370931 -0.00427135 -0.00836197 0.00118399 0.00421209 -0.00582827 0.0121361 0.00594571 0.00788261 0.00175348 0.00484403 0.00739798 0.00158865 0.00834505 0.00223912 0.0076832 0.00201031 0.00612229 -0.00474498 -0.00848387 -0.00709403 -0.00552092 -0.0112165 -0.0132662 -0.0118553 -0.00171492 0.00141535 0.00494421 -0.00708748 -0.00740785 -0.000670297 0.00216047 -0.000276288 -0.00301061 0.0120247 0.00701746 0.00452294 7.27519e-05 0.00876178 0.00278223 0.00183713 0.00288004 0.0125233 0.0100458 -0.00504162 0.00703878 -0.0014544 -0.00167098 0.00731252 0.00382385 -0.00611927 -0.000915515 0.0043654 0.00529308 0.00432788 -0.00710485 -0.00225075 -0.00118176 -0.0019876 -0.00886869 0.000980193 0.000971231 0.00343426 0.0108664 0.00753051 0.000299529 0.00402062 0.00989887 0.00275131 0.00947892 0.017031 0.013181 0.0039021 0.00159451 -0.009857 -0.00790423 0.00226418 0.00465083 0.0095175 0.00868442 0.00600921 -0.00913262 -0.0102974 -0.00282384 -0.008505 -0.00314064 -0.00123557 -0.00537046 -0.00151823 0.00334226 0.000597796 0.00919761 0.00359343 0.00934841 0.00350515 0.00804124 0.0016751 0.00568152 0.0180743 0.0171219 0.00307072 0.00525868 -0.000910963 -0.0104034 0.00194394 -0.00860116 0.00212213 0.00152499 -0.0128534 -0.0139522 -0.00980957 -0.00714396 -0.00312019 -0.000369327 -0.00923829 -0.00494179 0.00701227 0.00464864 0.00153166 0.00819232 0.00833616 0.00796442 0.00886598 0.00444218 0.0025812 0.00628813 0.0189173 0.0155641 0.00216678 0.00909253 0.00803663 0.00957896 0.00542719 0.00685333 0.00945417 0.00756648 5.50518e-05 -0.00965547 -0.0020239 0.00183376 -0.000367165 -0.00270008 -0.00147831 -0.00274098 0.00228197 0.0114012 0.00562404 0.000882499 0.00717176 0.00154217 0.00154639 0.00608539 0.0108802 0.0141035 0.0135617 0.0169132 0.0101505 0.00501517 0.000578015 -0.00105945 0.00675957 0.00433459 0.00331739 -0.0019298 -0.000839833 0.0040838 0.0112688 0.00718458 -0.000993567 0.00347081 -0.0069601 -0.00361117 -0.00184305 0.00211665 0.00111746 0.00186348 0.0023153 0.00700785 0.00731959 0.00505155 0.00185769 0.0125621 0.00696252 0.00753669 0.00646534 0.00606205 0.00745548 0.00280741 -0.00210183 -0.0123827 -0.00952788 -0.00977232 -0.00108065 0.0128384 0.0123855 0.0189917 0.00574191 -0.00202064 0.000830828 -0.00203248 0.00184094 0.00591379 -0.000839457 0.00794447 0.00498679 0.00876289 0.00536082 0.00835052 0.00677691 0.012973 0.00933611 0.00330869 0.00638076 -0.00202325 0.0115453 0.00334597 -0.00677262 -0.00812351 0.00186968 0.0095034 0.00711654 0.00571775 0.0174526 0.0133575 0.00795117 0.00206129 -0.00100214 -0.00351508 -0.00147073 -0.00191733 0.00522001 0.00462339 0.00753812 0.0056701 0.00783505 0.00597938 0.00954428 0.00133287 0.00746449 0.000920185 0.00154067 0.0123158 0.00228378 0.00103685 -0.00839158 0.000495774 -0.0047243 -8.61168e-05 -0.00570619 6.6597e-05 1.22379e-05 0.00265208 7.60331e-05 -0.00220194 -0.0024016 0.00395142 0.00835735 0.00979034 -0.00086465 0.0087872 0.00858943 0.00814433 0.00350515 0.00494845 0.00981934 0.00618651 -0.00211929 -0.00319073 0.00187921 0.0125658 0.00952419 -0.000836224 0.000541409 -0.00124175 -0.000853436 -0.00517745 -0.00403626 0.000623392 0.00368325 -0.0019241 0.00218695 -0.000377827 0.00739904 0.000389668 0.0100935 0.000239995 0.00821197 0.00652247 0.00608512 0.00309278 0.00494845 0.000515464 0.00525701 0.00932213 0.00854947 3.04439e-05 0.00877936 0.00507785 0.0107866 0.00563718 0.0160566 0.0103919 0.00885343 0.00779238 0.00433745 0.0107348 0.000637166 0.00111984 -0.00162853 -0.00152833 0.000767324 0.00546652 0.00780998 0.00911879 0.000316701 0.00515744 0.0078384 0.00804124 0.0102062 0.00319588 0.00659794 0.00247347 0.00390371 0.00972275 -0.00111778 -5.0511e-05 0.00934964 0.00755845 0.00848215 0.00942911 0.00136531 0.00159023 0.00665073 0.00480495 0.00656613 0.0027997 0.0089405 0.00133211 0.00941471 0.0100312 0.00532795 0.00808355 0.00917526 0.000206186 0.0102062 0.00845361 0.00350515 0.00762887 0.00721649 0.00175258 0.00670103 0.00226833 0.0043344 0.00884019 0.00976753 0.00863006 0.00749461 0.00440402 0.00569425 0.00470191 0.00715921 0.00526611 0.00737262 0.0048912 0.00955482 0.000742123 0.00253403 0.00868446 0.00773749 0.00293042 0.00463918 0.00113402 0.000927835 0.0043299 0.00896907 0.000103093 0.00536082 0.00680412 0.00175258 0.00443299 0.000927835 0.000618557 0.00556701 0.00690722 0.00195876 0.00917526 0.00989376 0.00246735 0.00783505 0.00804124 0.0028866 0.00835052 0.00845361 0.00123711 0.00134021 0.00989691 0.000824742 0.00278351 0.0043299 0.00278351 0.000824742 0.00845361 0.0101031 0.00773196 0.00237113 0.00350515 0.00886598 0.00340206 0.00398725 0.00197189 0.00219785 0.000545809 0.00158981 0.00255514 0.00897549 0.00897886 0.0066981 0.00341374 0.00275944 0.00649805 0.00761392 0.000961212 0.00143127 -0.0045771 0.00255008 0.00312512 0.00721649 0.00309278 0.00876289 0.00298969 0.00237113 0.00237113 0.000412371 0.000782581 0.00906506 0.00448487 -0.0018937 0.00587378 -0.00122183 0.00167075 0.00856089 0.00560768 0.00768469 0.0068398 0.00940712 0.00370903 -0.000710359 0.00890247 0.0022761 0.00162976 0.00151995 0.00126328 -0.00222829 0.00492767 0.000285655 0.0014433 0.00484536 0.0028866 0.00175258 0.00505155 0.00402488 0.00594799 0.00711498 0.00877219 0.00130633 0.00352279 -0.0045194 -0.00862129 0.00415196 0.00188075 -0.00636418 -0.0138686 -0.00899976 -0.00504752 -0.00183229 0.000160238 0.00372091 -0.00194434 -0.00442268 -0.00134541 -0.0012111 0.00725805 0.00612888 0.000106376 0.00887079 0.00701031 0 0.00443299 0.00372593 0.000724862 0.00447958 0.00341707 0.00338616 -0.00481056 -0.0129104 -0.00662697 -0.0109147 -0.0110459 -0.0137591 -0.0157056 -0.0152515 -0.00939386 -0.000577338 -0.00015409 -0.00365445 -0.00845624 -0.0163696 -0.0103733 -0.00852891 -0.00784028 -0.00129716 0.00356721 0.00348464 0.00905294 0.00989691 0.00463918 0.00340423 0.00699882 -0.00257486 -0.00328021 -0.00958446 -0.0156527 -0.00956957 -0.0241197 -0.0309448 -0.0266146 -0.0183163 -0.0261972 -0.0317882 -0.01822 -0.00752499 0.00943683 0.00635166 -0.0129714 -0.0116395 -0.0208737 -0.0121273 -0.016911 -0.00574704 0.00539472 0.00947413 0.00398542 0.00762887 0.00793814 0.0100831 0.00843388 0.000124123 -0.0152961 -0.0400858 -0.0497994 -0.0291201 -0.0407783 -0.0456017 -0.0316924 -0.0396852 -0.0337442 -0.0315384 -0.0375766 -0.026489 0.00622924 -0.000800192 -0.0237516 -0.0382553 -0.00905581 -0.0199788 -0.0253002 -0.0114398 -0.0042822 0.00474223 0.00634223 0.00866192 0.00239874 0.00343235 0.00644571 0.0039508 -0.0103784 -0.0297385 -0.0207092 -0.0146285 -0.0288559 -0.0440237 -0.066705 -0.0796615 -0.0854395 -0.0626156 -0.0728108 -0.045543 -0.0385914 -0.0257314 -0.0448095 -0.038403 -0.0390718 -0.0220005 -0.0181837 -0.0204212 -0.00527405 0.00371592 0.0058719 0.00901683 0.0101129 0.0102543 0.0121493 0.0212453 0.0196001 0.0129005 0.0164633 -0.0108266 -0.0159675 -0.0139983 -0.0624449 -0.088587 -0.0916198 -0.0790103 -0.0502663 -0.0506266 -0.0321358 -0.0172212 -0.0183328 -0.0256933 -0.025239 -0.0222817 -0.0163896 -0.0177624 -0.00763741 0.0057586 0.000498858 0.00783646 0.0114456 0.00461225 0.0146511 0.0362719 0.0332069 0.0561361 0.0317711 0.0182141 0.0169996 0.0355305 0.0129724 0.0204362 0.00431647 0.0137587 -0.00365417 -0.0139796 -0.0141106 -0.000458183 -0.000257926 0.0148031 -0.0162606 -0.00291514 -0.0167593 0.00366782 -0.00218476 -0.00310454 0.00914608 0.00453608 0.00692134 0.0107272 0.00862657 0.0251128 0.0399972 0.0616928 0.043746 0.0438749 0.0753117 0.0662225 0.0925736 0.0730524 0.0835259 0.0551686 0.0446421 0.0193095 -0.0145469 0.0409158 0.0163874 0.0105409 -0.0335888 -0.00850739 0.00556495 0.00276756 0.00236711 0.00383793 0.00915402 0.000103093 0.00479827 0.00931821 0.00363021 0.0125244 0.0276169 0.0197043 0.00594713 0.0294982 0.0686628 0.0833423 0.0974787 0.0997348 0.112013 0.102508 0.0561733 0.0268208 0.000577842 0.0304469 0.0134294 -0.00201458 -0.0426288 -0.0107098 0.00247416 -0.0157745 9.30738e-05 0.00356894 0.00216707 0.00257732 0.00951338 0.0083699 -0.00868627 -0.0110137 0.0157777 -0.011453 -0.0038312 0.0202808 0.0218359 -0.0251436 -0.0237668 -0.00978202 0.0199607 0.0556752 0.0344316 0.0335278 0.0220314 0.0262454 0.00523152 -0.0119633 -0.0282743 0.0173533 -0.00502101 -0.00808989 0.0124993 0.0127604 0.00762104 0.00690722 0.000776709 0.00602436 -0.00721973 -0.0110848 0.0132764 0.00192586 -0.0191812 -0.0407757 -0.0396616 -0.0480894 -0.047293 -0.0784736 -0.0579351 -0.0134671 -0.000894047 0.0102586 -0.0156317 0.00309499 0.00029066 0.0269885 0.0236668 0.0460188 0.0384891 0.048941 0.0312569 0.0171944 0.00495536 0.00701031 0.00692174 0.008709 -0.00159256 -0.0239065 0.00652269 -0.0189313 -0.0501855 -0.0305417 -0.0384727 -0.0348252 -0.0195998 -0.0262042 -0.0228669 -0.00357954 -0.00451006 -0.0181873 6.20185e-05 0.00974082 0.0167974 0.0617364 0.0387761 0.0460154 0.0612241 0.0390244 -0.0133302 0.0104512 0.00505231 0.00855206 0.00772662 0.003807 0.00362994 -0.0228746 0.0185064 0.00869767 -0.050057 -0.0230766 0.0143315 0.0129418 0.0234027 0.0195428 0.0297759 0.0116719 -0.0160757 -0.0335462 -0.0125846 0.0248706 0.0503184 0.0419025 0.0161038 0.0321898 0.0301198 0.0174976 -0.0113335 0.00198556 0.00658841 0.00576933 0.00740148 0.0105242 0.00407846 -0.00832152 -0.0136387 -0.00828131 -0.00779734 0.0114721 0.0282484 0.0182615 0.00943204 0.00889182 0.000287951 0.0221212 -0.00251673 -0.00751331 0.00498341 -0.00052544 0.0219 -0.00206274 -0.00183912 0.0079442 0.00524369 -0.00222773 -0.011673 0.0131032 0.0102339 0.00639175 0.000105677 0.00615848 0.00361656 -0.00503751 -0.00708125 -0.0174253 -0.0173572 -0.00249923 0.00662124 0.0239455 0.0188802 -0.013522 0.0230473 0.04138 0.0329144 0.0123825 0.00231491 -0.0071658 -0.00367242 -0.000663398 0.00175123 0.0152717 0.00173649 0.00393578 0.00565359 0.0102083 0.0151776 0.00701031 0.00402062 0.00847693 0.00317401 0.00216834 0.00349072 -0.0158623 -0.0206336 -0.0085782 -0.0229481 -0.025908 -0.00357761 -0.0149659 0.0170751 0.0232981 0.00661918 0.00241778 0.00179394 -0.00270566 0.00481872 -0.000764242 0.0165258 0.0126366 0.00370716 -0.00413922 0.000465984 0.00640418 0.00510785 0.00298969 0.0105431 0.00809946 0.00383683 0.00385415 0.00263009 -0.00321314 -0.0130623 -0.0173828 -0.0233018 -0.0123338 -0.00879703 0.0172775 0.0287376 0.000501536 -0.0308477 0.000796751 0.00625041 -0.00211566 -0.0129558 -0.0155921 -0.0328567 -0.0213949 -0.00925696 -0.00437073 0.00624729 7.3231e-05 0.00443996 0.00907216 0.00282473 0.00988154 0.00251896 0.0102445 0.00310165 -0.000345071 -0.00181652 -0.0173686 -0.0341505 -0.0370304 -0.00943248 -0.00933569 0.0165894 -0.0265462 -0.0566667 -0.0405427 -0.030182 -0.0375497 -0.03019 -0.0219457 -0.0271437 -0.0269491 -0.00424145 0.00713188 -0.00034767 0.00983593 0.00906344 0.00587629 0.00113402 0.00293119 -0.00136226 0.00358804 0.00956537 0.000775755 -0.0229397 -0.02541 -0.0224513 -0.0379814 -0.0395977 -0.0481628 -0.0218572 -0.0813744 -0.0674691 -0.0395019 -0.0444268 -0.0356488 -0.0277029 -0.0264216 -0.0238014 -0.0313687 -0.00233173 -0.00240838 0.00741502 0.00901686 0.00103093 0.00164948 0.000824742 0.00996304 0.00422919 0.00271515 -0.00454472 -0.0063601 -0.0112378 -0.0128 -0.00721833 -0.0197998 -0.0193852 -0.0249347 -0.0432478 -0.0514792 -0.0247335 -0.0350015 -0.0253083 -0.0368849 -0.0257735 -0.0217539 -0.0236022 -0.0298509 -0.00174412 0.000978648 0.00638639 0.00279975 0.00247423 0.00278351 0.00701031 0.00375381 0.00386356 0.000417416 0.00998373 0.00557082 0.00823494 7.69391e-05 -0.0105919 -0.0178181 -0.0182063 -0.0195536 -0.00756561 -0.0235051 -0.0126635 -0.0183101 -0.0170136 -0.0299984 -0.0119027 -0.0186131 -0.0152268 -0.0184769 -0.004015 0.00303826 0.000918668 0.00300122 0.00525773 0.000206186 0.00742268 0.00241687 0.0062418 0.00610239 0.0103494 0.0155124 0.0147008 -0.00263604 -0.0162664 0.000675593 -0.0210462 -0.0104035 -0.0174437 -0.0128964 -0.00053378 0.00213233 0.0128522 0.00689492 0.023335 -0.0046416 -0.00841559 -0.0139398 -0.00603771 0.000390098 0.00948928 0.00886465 0.00639175 0.0056701 0.00134021 9.46108e-05 0.00250336 0.00883334 0.00541652 0.00666957 0.00601795 0.00221406 -0.00635942 -0.0101342 -0.035857 -0.018406 0.00331927 0.00855291 0.0149988 0.0188474 0.0209055 0.0192581 0.0217482 0.0160545 0.00322148 0.00314593 -0.00324811 0.00625865 0.00845186 0.00412162 0.00762887 0.00103093 0.00505155 0.00824742 0.000825411 0.000588861 0.00215722 0.00281176 0.00441143 0.0139087 0.0120898 0.0109689 -0.0199526 -0.00776639 0.0196437 0.0148498 0.0134745 0.0119959 0.019159 0.0236209 0.0187989 0.0173782 0.0126268 0.00951849 0.00770879 0.00505155 0.00381443 0.00474227 0.00175258 0.00896907 0.00938144 0.00443299 0.00402062 0.0057732 0.00361541 0.00406743 0.00940353 0.0175211 0.0156171 0.0150369 -0.00321224 -0.0126921 0.00586203 0.00789961 0.00648219 -0.00143093 0.00862216 0.017498 0.000547604 0.00141901 0.00452708 0.00804776 0.00229335 0.00979381 0.00546392 0.00195876 0.00536082 0.00226804 0.000309278 0.00360825 0.00701031 0.00835052 0.00226804 0.000309278 0.00412371 0.000618557 0.00319588 0.0101031 0.00659794 0.00504436 8.73712e-05 0.00536082 0.00195876 0.00989691 0.00123711 0.00360825 0.00134021 0.00670103 0.000412371 0.00206186 0.00123711 0.0085567 0.00896907 0.00505155 0.00814433 0.00402062 0.00845361 0.00340206 0 0.00453608 0.00505155 0.008944 0.000351484 0.00287237 0.00542968 0.00729625 0.000778782 0.0100515 -0.000112783 0.00890813 0.000412957 0.00585718 0.00294962 0.000778354 0.000323805 0.00898144 0.00912361 0.00882091 0.00205819 0.000309278 0.0071134 0.00783505 0.00505155 0.00474227 0.00835052 0.00329897 0.00138009 0.000406011 0.00877087 0.00956467 0.00508678 0.000166832 0.00569001 0.000344081 -0.00148936 0.00243946 0.00415833 0.00577283 0.000407504 0.00572205 0.0023979 0.00428075 0.00848591 0.00925613 0.00397407 0.0053468 0.000110192 0.00738368 0.00350515 0.00463918 0.00278351 0.00536082 0.00195876 0.0100006 0.0078388 0.00549673 0.000693155 0.00101417 0.00560597 0.00530684 0.0049039 -0.000593281 -0.000574451 -0.00241997 0.00671058 0.00386996 0.00437028 0.0168773 0.0143795 0.00342465 -7.04599e-05 0.00124822 0.00322034 -0.000781643 0.00953318 0.00493908 0.00462063 0.00162446 0.000412371 0.00896907 0.00360825 0.0041257 0.0081445 0.00802211 0.000557395 0.00549044 -0.000691896 0.00716083 0.00636325 -0.00373288 0.00787965 0.00530824 0.00675022 0.00989953 0.00510609 0.0197257 0.0155824 0.0121053 0.00558856 0.0056544 0.000962152 0.000272016 -0.00311733 0.00949779 0.00768628 0.00386478 0.0018385 0.000412371 0.00773196 0.00206286 0.00488708 0.00151588 -0.000362143 0.00481439 -0.00381237 -0.00180124 -0.00549582 0.000346408 0.000470607 0.000121258 -0.0085509 0.00247219 0.00800022 0.00929257 0.0036662 0.00182926 0.00958751 0.0222835 0.0191936 0.0203834 0.00493894 0.00370205 0.00922786 0.00951181 0.00531386 0.00845361 0.00938144 0.00924464 0.00674544 0.00821386 -0.00333825 -0.000745438 -0.00670238 -0.00656917 -0.0120359 -0.00855043 -0.00697462 -0.00331875 -0.00282942 -0.000938878 -0.00590705 -0.00064482 0.000511537 -0.00136594 0.00724263 0.0174533 0.0210999 0.0246807 0.00934387 0.00786846 0.00638628 0.00193455 0.00289008 0.0035053 0.00722772 0.001323 0.00328456 0.00847383 0.00173207 -0.00182276 -0.00253687 -0.006218 -0.000191738 -0.00821274 0.000573024 -0.00737084 -0.00653019 -0.0198395 -0.0112852 -0.0157318 -0.0144863 -0.00670966 0.0157336 0.0131582 0.0264339 0.0378565 0.0207936 0.0106664 0.00302943 -2.65625e-05 0.00892333 0.00580337 0.00320097 0.00187512 0.00377296 0.00191708 -0.00272286 0.00165925 -0.00228312 -0.00138378 -0.0110011 -0.00765873 -0.0155132 -0.0178126 -0.0116641 -0.00783575 -0.0097664 -0.0108315 -0.010715 -0.0112733 0.00217406 0.0102935 0.0120388 0.0300423 0.0257256 0.00935057 0.00693902 0.00813753 0.010206 0.00659803 -0.000372837 0.00681718 0.00844579 0.00443755 -0.00454537 0.00331154 -0.00304291 -0.00918196 -0.00785866 -0.0147643 -0.0133803 -0.0130164 -0.00655371 -0.00060203 -0.00103913 -0.01045 -0.0187048 -0.0178439 -0.0046633 0.00743929 0.0174337 0.0263751 0.0345091 0.0137323 0.00719211 0.000972833 0.00162221 0.00185567 0.00559256 0.00234737 0.0102228 -0.00205066 0.00554439 0.000567075 -0.000564017 -0.00289684 -0.0108304 -0.0136794 -0.00466862 0.00325753 -0.00418742 -0.00164273 -0.000699089 -0.00176854 -0.0142603 -0.0108755 -0.00109044 0.00999871 0.0164906 0.0309799 0.0209165 0.0126662 0.00433452 0.00511326 0.0100387 0.00814433 0.00569902 0.00156585 0.00514025 0.00184714 -0.000794925 0.000437787 0.0138205 -0.00361273 -0.00304141 -0.00968707 -0.00125818 0.000224442 -0.000291739 0.00670273 -0.0107614 -0.0182233 -0.0185186 -0.0140237 -0.00201272 0.00477184 0.00582788 0.0183209 0.0108129 0.00899566 0.00743878 0.00249635 0.00826016 0.000927835 0.00173672 0.00479727 -0.000132143 -0.00111751 -0.0106203 0.00170575 0.0060526 -0.00427664 -0.00464466 0.00365866 0.00339058 0.00453975 0.004429 0.0010933 -0.0192306 -0.017104 -0.0142886 -0.0177669 -0.00106281 0.00319994 0.0073826 0.00373418 -4.25292e-05 0.0141381 0.00351218 0.00300763 0.00658704 0.00989691 0.00943802 0.0017114 0.00754813 0.00434585 0.000189135 0.00248573 0.00142539 -0.00114508 0.00694248 -0.00203702 0.0061509 -0.0102994 -0.00397681 -0.0125121 -0.0121045 -0.0243564 -0.0139805 -0.0128485 0.000400804 0.00350653 -0.00573648 0.00388374 0.0105948 0.00720252 0.0055529 0.00158004 0.00681637 0.00587629 0.00234003 0.00737518 0.00200667 0.0093777 0.00457154 0.00194455 0.00987765 0.00772288 0.00544537 -0.00649565 0.00129328 -0.00673773 -0.00878459 -0.00320525 -0.0179877 -0.0157181 -0.0110828 0.00259702 0.00626621 -0.00504186 -0.0064944 0.00502279 0.00410392 0.011585 0.00271839 0.00839595 0.00288796 0.00804102 0.00162715 0.000769744 0.00992619 0.0112143 0.011128 0.0068813 0.00486172 0.00019974 -0.00133272 -0.00363833 -0.00786346 -0.0141369 -0.00901495 -0.0168945 -0.01047 -0.00213673 -0.00365686 0.00414235 0.00299778 -0.0094702 -0.0068974 -0.00413384 0.00377327 0.0097942 0.00475312 0.00675514 0.00223313 0.00525755 0.00102246 0.00435979 0.0114881 0.0158034 0.00734461 0.00622074 0.0147692 0.00616456 -0.00762622 -0.0033133 -0.000219379 -0.00406043 -0.00421617 -0.00656873 0.00703116 0.00378472 0.0179844 0.00821191 0.00223116 -0.00727539 0.000450788 0.00688027 0.00890494 0.00354256 0.010083 0.00769589 0.00761391 0.01 0.00618303 0.00461397 0.00462241 0.0181408 0.022009 0.0239963 0.0131526 0.00337918 -0.0062603 -0.0126922 -0.00561629 -0.00107352 0.00496806 0.00274187 -5.11295e-05 0.00717537 0.00294858 -0.00190126 -0.00288824 -0.0146979 -0.00428356 -0.00286933 0.00455286 0.00940566 0.00884268 0.0102581 0.00537675 0.00876289 0.00103093 0.0100237 0.00838747 0.0249988 0.0306157 0.0234908 0.0185804 0.00972773 -0.00313365 -0.00715972 -0.00115693 0.00436361 0.00508896 0.00258439 0.0028022 -0.00047133 -0.0010417 0.00655768 -0.00590656 -0.0110799 -0.000622496 0.00202003 0.00404997 0.00164433 0.00239309 0.0099761 0.00199323 0.00690722 0.00310301 0.00356959 -0.000914803 0.0195009 0.0220954 0.0259121 0.0149465 0.00612042 0.00340696 0.00464202 0.00488613 0.00995357 0.00924583 0.00153156 -0.00900316 -0.00888474 -0.00313964 0.0038437 -0.00338565 -0.00224784 0.00543043 0.00914259 0.00658455 0.00274383 0.00369471 0.00212398 0.0097904 0.0056701 0.0098086 0.00315839 0.00326884 0.00915551 0.0166111 0.0198873 0.0162805 0.00906978 0.00945295 0.00305781 0.00957764 7.7057e-05 -0.0068391 -0.00411754 -0.00223833 -0.00531394 0.00330522 -0.00943649 -0.0033187 -0.00316711 0.00314567 0.011073 0.00491447 -0.00109592 0.000279032 0.00240983 0.00824765 0.00360825 0.00639175 0.00790009 0.0105721 0.00453832 0.00286218 0.0128859 0.00341117 0.00375663 -0.00257415 -0.00824806 -0.0107643 -0.0118084 -0.0197274 -0.0116116 -0.00744352 -0.0037094 -0.00216025 -0.0154619 0.00606191 -0.00455664 -0.00234838 0.00747519 0.00977832 0.00729037 0.00227301 0.00389893 0.00546392 0.00350515 0.00865979 0.00645001 0.00962586 0.0108341 0.0102618 0.00992695 0.0135188 0.00732464 0.000260003 -0.0112349 -0.0101846 -0.00795806 0.00151311 -0.00231585 -0.00414591 -0.00455044 -0.00355277 0.000617305 -0.00443948 0.00117231 -0.0037657 0.00543764 0.00253481 -4.93842e-05 0.00312099 0.00191031 0.00680412 0.00371134 0.00195876 0.00591028 0.000176589 0.000583071 -0.00407516 0.00184046 0.00519337 0.00244774 0.000452312 -0.0082945 0.00418038 0.00417371 0.00259176 -0.000523184 0.000123169 -0.00843307 -0.00920553 0.000256919 -0.00793343 -0.00578119 -0.00190354 0.00661463 0.00392869 0.00678757 0.00236652 0.00788995 0.00515464 0.00608247 0.0056701 0.00309802 0.000217152 0.00850162 0.00399663 0.00235574 0.00493352 -0.000809277 -0.000639639 0.00111516 -0.000610064 0.0021231 0.000979039 0.00291524 0.00904602 -0.00306702 -0.0092527 0.000566718 -0.00284213 0.0008513 0.00203155 0.0024922 0.0062198 0.00198869 0.00508023 0.00691017 0 0.00793814 0.00412371 0.00340097 8.01439e-05 -0.000371793 -0.000706041 0.00454525 -0.00212445 0.001007 -0.00302241 -0.000725727 -0.000607309 -0.00407571 -0.00352528 0.000759037 -0.000394419 -0.00393914 -0.00621085 0.00102018 0.00286946 0.00149328 0.000502136 0.00764619 0.00746338 0.000181561 0.00752866 0.00701377 0.00195876 0.00969072 0.00154639 0.00412371 0.00206175 0.00851249 0.00607388 0.00219489 0.00745473 0.00108733 0.00707469 -0.00149545 -0.000922808 0.00363536 -0.000896102 0.00829377 0.00247821 0.00574309 0.00506018 0.00638938 0.000283818 0.00606018 0.00475557 0.00926309 0.00915141 0.00278351 0.00164948 0.00814433 0.00835052 0.00247423 0.00721649 0.00268041 0.00649485 0.00268041 0.00556763 0.00195245 0.00276736 0.00808987 0.00276896 0.00150733 0.00738599 0.00422665 0.00967259 0.00774149 0.0040042 0.00655899 0.0082171 0.00625142 0.000578643 0.000894779 0.0023454 0.00905003 0.00825393 0.0057732 0.00783505 0.000103093 0.00247423 0.000927835 0.00237113 0.00639175 0.0057732 0.00618557 0.00938144 0.00123711 0.00247423 0.0043299 0.00329897 0.0071134 0.00896907 0.0076159 0.0074974 0.00948454 0.00319588 0.00835052 0.00793814 0.0028866 0.00463918 0.00371134 0.00783505 0.00876289 0.00185567 0.00762887 0 0.00402062 0.00216495 0.00340206 0.00556701 0.00453608 0.00762887 0.01 0.000927835 0.00989161 0.00411369 0.00965081 0.00375983 0.0077951 0.00155766 0.00874196 0.00319593 0.00387085 0.0107563 0.0102077 0.00221466 0.00906111 0.00822001 0.00208615 0.00303225 0.00827573 0.00484767 0.00268041 0.00103093 0.000206186 0.00752577 0.000927835 0.00680412 0.00824742 0.00484319 0.00969816 0.00538223 0.00555353 0.000797847 0.00363378 0.00156526 0.0014994 0.0111714 0.0060047 0.00789854 -0.00112417 0.000905708 0.0105581 0.00396255 0.00387935 0.00565539 0.00770925 0.00781166 0.000614822 0.00506936 0.00175852 0.00865979 0.00773196 0.00752577 0.00360825 0.00670103 0.00157452 0.00216398 0.00579058 0.00930846 0.00535437 0.00652401 0.00472462 -0.00362061 -0.00086793 0.00353114 -0.00121067 -0.00457096 -0.00715048 -0.0112725 -0.014728 -0.00102932 0.00583518 0.00775075 0.00217814 -0.00423559 0.0111588 0.00631687 0.00279502 0.0037024 0.00804917 0.00969072 0.00639175 0.00329897 0.00112726 0.00981703 0.00101358 0.00981813 0.00300757 0.00465192 0.00140631 0.00296989 -0.00555728 -0.00878731 -0.0130085 -0.00598661 -0.010221 -0.0156018 -0.0167496 -0.0175055 -0.00481895 0.0121805 0.0224017 0.0093194 0.00868812 -0.000429635 -0.00951278 -0.00203088 0.00494569 0.00569547 0.00247423 0.00278351 0.00125332 0.00806011 0.00477351 0.00993048 0.00376745 0.00615351 -0.00185924 -0.00190691 -0.0141052 -0.0301756 -0.0392583 -0.0332673 -0.0349545 -0.0214268 -0.0540289 -0.0438589 -0.0303264 -0.00538371 0.0282143 0.0397713 0.0219548 -0.00691286 0.00352294 -0.00143039 0.00469239 0.00756566 0.00226804 0.00824742 0.00771023 0.00775395 0.00728732 0.00132379 0.00480591 0.0033784 -0.00519905 -0.00679032 -0.0215116 -0.0300574 -0.0367093 -0.049326 -0.0369423 -0.0449773 -0.0528289 -0.0241284 0.00787369 0.0305635 0.0455992 0.0107724 0.0006014 -0.00828531 -0.00253221 0.00125063 0.00258052 0.00137273 0.00690716 0.0062906 0.00698511 0.00762361 0.00341929 0.00547217 0.00908579 0.0167673 -0.00362632 0.0066022 -0.0168215 -0.0268167 -0.0244871 -0.032834 -0.034305 -0.0404008 -0.00674941 0.0249991 0.0231817 0.0424218 0.030483 0.034018 -0.00768722 -0.0063891 -0.0125043 -0.00137715 0.00266531 0.00472083 0.00534621 0.00760376 8.03711e-05 0.00363165 0.000495156 0.00086278 0.00687167 0.00477896 -0.0148648 -0.00116947 -0.0251374 -0.0366408 -0.0537014 -0.062591 -0.0467685 -0.0254779 0.0298845 0.0431249 0.00112808 0.012552 0.0210598 0.00204613 -0.0168333 -0.0110655 -0.0091876 -0.00183302 0.000710902 0.00813564 0.00525769 0.0023206 0.00148149 0.00125925 0.00132462 0.000544625 0.00264416 0.00211437 -0.00552845 -0.00898518 -0.0244699 -0.0381609 -0.0458153 -0.0523983 -0.060608 -0.00491149 0.0687529 0.0344775 0.0155642 -0.00741087 -0.0106401 -0.00516505 -0.00740155 -0.00937251 0.00169817 -0.002754 0.00476303 0.00101066 0.00402062 0.000164644 0.00312881 0.00882575 0.00388186 0.00415146 -0.00112141 -0.00879597 -0.0177714 -0.0182806 -0.00946921 -0.0286436 -0.0268239 -0.0397222 -0.0265218 0.021586 0.063307 0.0273253 0.0232286 0.00258763 -0.000435019 -0.00896965 -0.00888446 -0.00425067 0.0055761 0.0092007 0.00885575 0.00472322 0.00525773 0.0044912 0.00417119 0.00349062 0.00781753 0.000865007 -0.00849785 -0.0121301 -0.0268464 -0.00976356 -0.00987326 -0.0127989 -0.0242873 -0.0275304 -0.009458 0.053326 0.0461194 0.0175986 0.0182126 -0.00193102 -0.00960004 -0.0073985 -0.00914813 -0.0072557 0.00471874 0.00799584 0.00204462 0.0065704 0.000206186 0.00212069 0.00227202 0.00938607 0.0126305 -0.00110276 -0.00894992 -0.013175 -0.0241483 -0.00792235 -0.009636 -0.0303447 -0.0209984 -0.0308034 0.0149504 0.0391833 0.0284087 0.0115644 -0.0100106 -0.0195071 -0.0232396 -0.0141714 -0.00333715 0.00250495 0.00267165 0.00594983 0.00201044 0.00952904 0.000206186 0.00368977 0.00100188 0.00968263 0.00610201 0.00103282 -0.00634682 -0.00854412 -0.00996669 -0.0154922 -0.0140395 -0.0131217 -0.0478568 -0.0442525 0.0222572 0.0389395 0.0224778 0.0180942 -0.0178076 -0.026847 -0.023674 -0.00446934 -0.00887988 -0.00745651 -0.00410543 0.00191955 0.00214551 0.00340399 0.00731959 0.00730808 0.00403241 0.0124794 -0.00201784 -0.00373761 -0.00213283 -0.00320796 -0.00729796 -0.00821414 0.00889116 -0.000569539 -0.0319253 -0.00250238 0.0508516 0.0314375 0.0255206 -0.0336112 -0.0277493 -0.0239239 -0.0164213 -0.00609805 -0.00699071 -0.00566533 -0.00208512 -0.00138792 0.00316882 0.00185588 0.00608783 0.00932543 0.0101085 0.00546205 0.00691329 -0.00236962 -0.00923744 -0.000429365 0.00387651 -0.000947991 0.0094681 0.00127913 -0.0265411 0.0148685 0.0120486 0.0186222 -0.0133801 -0.0194784 -0.0277356 -0.0228619 -0.0136501 -0.00944732 -0.00644745 -0.00973581 -0.00866338 0.0027534 0.00315656 0.00455734 0.0023756 0.00386153 0.00381719 -0.00131381 0.00384813 0.000709073 -0.0126733 -0.0160533 -0.00932908 0.00254638 -0.0337817 -0.0158332 -0.00219193 0.026027 0.0124152 0.0181351 -0.00851268 -0.00976122 -0.0265981 -0.0249615 -0.0133865 -0.0149966 -0.0148912 -0.0103676 -0.0087043 0.00591026 0.00125249 0.00928353 0.00247423 0.00752768 0.00648067 0.000522365 0.00498572 -0.00101363 -0.0184874 -0.022176 -0.0252284 -0.0330342 -0.0388347 -0.0121373 0.0112144 0.00711179 0.0214735 -0.012772 -0.0271732 -0.0233263 -0.0172324 -0.00881171 -0.00921817 0.00306364 -0.000372543 0.00478145 0.0143387 0.0128455 0.00766835 0.00706983 0.000721649 0.00907216 0.00262709 -0.00359602 -0.00222471 -0.0132575 -0.0311845 -0.0308052 -0.0305767 -0.0525071 -0.0329614 0.0136927 0.00497769 0.0124391 -0.00561596 -0.0286892 -0.023837 -0.0104599 -0.0157453 -0.0118584 -0.0054826 -0.00612995 -0.00177142 0.000771468 0.00234383 0.0087641 0.00957313 0.00295167 0.0071134 0.0077463 0.00413997 0.00445404 -0.0039714 -0.016346 -0.017534 -0.0220562 -0.0499638 -0.0373434 -0.0016181 0.00482229 0.007427 0.00906899 -0.0424607 -0.0351185 -0.0210856 -0.0213576 -0.0299054 -0.0230028 -0.0139204 -0.0172133 -0.00248476 -0.00106408 0.00817621 0.00976863 0.00448588 0.002923 0.00185567 0.00814827 0.00879962 0.00114559 -0.00291398 -0.00886969 -0.0112771 -0.0327245 -0.0306416 -0.0476029 0.0184359 0.00318095 0.00564803 -0.026433 -0.0456864 -0.0203754 -0.0154087 -0.021696 -0.0260057 -0.0213257 -0.0145527 -0.0074883 -0.00490714 0.00183854 0.00794572 0.00181353 0.0107624 0.00236831 0.00907216 0.00845361 0.00848635 0.00174865 0.00775368 0.0142055 -0.00105827 -0.0253744 -0.0237473 0.00428802 0.00849184 -0.0126374 -0.0154601 -0.0420983 -0.0245229 -0.023041 -0.0117611 -0.0188219 -0.0147416 -0.0132445 -0.010156 -0.00133039 0.00285932 -0.00140773 0.00798106 0.00438934 0.00315737 0.00278351 0.00443299 0.00309278 0.000582341 0.00298706 0.00654394 0.0135862 0.00292906 -0.0183643 -0.00532959 0.00689226 -0.0157283 -0.0202459 -0.0242726 -0.0144105 -0.0147716 -0.0119839 -0.00859302 -0.00653951 -0.00366535 -0.000988923 0.00167481 -0.00282285 0.00229848 0.00853708 0.00326978 0.00416305 0.00622334 0.00103093 0.00412371 0.0042268 0.00414415 -0.00105553 0.00379712 0.004588 -0.00248237 -0.00126004 0.00388546 0.0306538 0.00758069 -0.000529436 -0.00775692 0.00524208 -0.0011306 -0.000811874 -0.00342438 -0.0110729 0.000474346 -0.00101551 -0.00091656 -0.00522105 0.000198293 0.009176 0.00787614 0.00205867 0.00191378 0.000618557 0.00237113 0.00804124 0.00761078 0.00961014 4.7084e-05 -0.0108411 -0.0199342 -0.0151832 0.0169057 0.0508192 0.00282889 0.00511639 0.00691282 0.000613051 0.00105074 0.00298931 -0.0100051 -0.00702941 -0.00547573 -0.00394989 -0.00855618 -8.05958e-05 0.00391771 0.000593902 0.00612963 0.00414406 0.00309985 0.00670103 0.00329897 0.00659794 0.00628883 0.0103431 0.00017194 0.00158053 0.00164474 -0.00983243 0.0248146 0.0445268 0.00915695 0.0044509 0.0175278 0.0169414 0.00788892 -0.00113985 -0.001149 -0.00800579 -0.00665743 -0.00392819 0.00583671 0.0103445 0.00715424 0.00976222 0.00878641 0.00453803 0.000827078 0.00886598 0.00628866 0.00546392 0.00587629 0.0100003 0.00366918 0.00201446 0.00788288 0.000526904 -0.00140167 0.0058109 0.00504254 0.00514919 0.00459517 -0.00273216 -0.00132005 0.0032461 0.00681064 0.00887068 0.0030459 0.00842803 0.00166803 0.00261741 0.00988595 0.00741927 0.00391753 0.00247423 0.00958763 0.00670103 0.0085567 0.0043299 0.00731959 0.00608247 0.00793814 0.00752503 0.00432767 0.00401751 0.00744806 0.000246802 0.00614471 0.00532886 0.00148473 0.00386985 0.00742054 0.0056796 0.00487517 0.000405508 0.000481764 0.00581772 0.00358642 0.00598325 0.00838111 0.00991287 0.000103093 0 0.00402062 0.00443299 0.00773196 0.00917526 0.00835052 0.00979381 0.00484536 0.00742268 0.00804124 0.01 0.0071134 0.00804124 0.01 0.00453608 1.185e-05 0.00847955 0.00340206 0.00659794 0.000618557 0.0043299 0.00319588 0.0042268 0.00453608 0.0071134 0.00113402 0.00824742 0.00494845 0.0056701 0.00814433 0.00175258 0.00340206 0.00474227 0.0014433 0.00185567 0.00628866 0.00927835 0.00956837 0.0054477 0.00833607 0.0034408 0.00747571 0.000367892 0.00595507 0.00912903 0.010338 0.00854542 0.00647055 0.00368604 0.00900928 0.0100127 0.00443479 0.00643718 0.00550323 0.00278671 0.0057732 0.0043299 0.00690722 0.00556701 0.00639175 0.00556701 0.00402062 0.00453503 0.000431501 0.00690991 0.00257092 0.00802763 0.00822212 0.00138695 0.00520193 -0.00132788 0.000591594 0.00923292 0.0108948 0.00537688 0.00972619 0.00284241 0.00462507 0.00263557 0.00104897 0.0102023 0.00981369 0.00536939 0.000743536 0.00721649 0.00525773 0.000618557 0.00309278 0.00329897 0.00769835 0.00133363 0.00516722 0.00433691 0.00669689 0.00973003 0.0118187 0.0036695 0.00204055 -0.00231192 -0.00348802 -0.0024443 0.00560829 0.0154261 0.00167978 0.000667076 0.00365531 0.00532296 0.00155372 0.0019711 0.0013642 0.00630565 0.00983732 0.00747602 0.00269737 0.00546392 0.00845361 0.00195876 0.00906019 0.000900117 0.00532201 0.00645407 0.00258361 0.00473007 -0.00251358 -0.0031406 0.00666939 4.27513e-05 0.00642751 0.00208786 0.00873147 0.0211154 0.0284556 0.0222104 0.0168588 0.0179226 0.00499359 -0.000955234 0.00339302 0.000538179 0.000472393 0.00263026 0.00803816 0.00537054 0.000412371 0.00371134 0.00369406 0.00537994 -0.00285384 -0.00771142 -0.00727107 -0.0114302 -0.0162853 -0.0176259 -0.00979712 0.00683825 -0.00211722 -0.00962057 0.0108508 0.0217153 0.026688 0.0434847 0.0342641 0.0175904 0.00886735 0.00412692 -0.00543817 -0.00713687 0.00432421 0.00352132 0.00549964 0.0016727 0.0042268 0.00195876 0.00895162 0.00790465 0.000166475 -0.000129779 -0.0109725 -0.00683157 -0.0077081 -0.00117589 -0.00920302 -0.0110638 -0.00847449 -0.0145673 -0.00375987 0.00569139 0.0233607 0.024836 0.0163133 0.0188031 0.00562497 0.00728186 0.00341363 -0.00419085 -0.00438939 0.0062951 0.00756046 0.00844266 0.00742184 0.00288497 0.00249377 0.00864274 0.00352052 0.00243108 -0.0101297 -0.00841139 0.000752732 0.00554462 0.00888312 0.00545118 -0.00650609 -0.0109892 -0.00611183 -0.0037933 0.0146738 0.00825578 0.00557788 0.0111072 0.00714684 0.00129112 -0.0052507 9.86034e-05 0.000283968 0.00359244 0.00701965 0.00640275 0.00326078 0.000825983 0.00656825 0.00308204 0.00247804 0.00118223 -0.0098813 -0.00340387 0.0105598 0.000810669 -0.000976958 -0.00357671 0.000659673 0.0216046 0.00092203 -0.00249743 -0.00130407 -0.0108581 -0.0186265 -0.000170352 0.00018845 -0.00272868 -0.00701436 0.00124509 0.00398572 0.00414918 0.00617799 0.00813058 0.00381388 0.00341797 0.00872799 0.00486288 -0.00277404 0.00284699 0.000108021 0.000526413 0.00333182 -0.00211972 -0.00493928 0.0103114 0.0176927 0.00965477 -0.015969 -0.0261018 -0.0426767 -0.0457954 -0.0367355 -0.0260926 -0.00877909 -0.0146826 0.00219967 0.00782055 0.00223017 0.00799952 0.00177261 0.00223219 0.00185567 0.00478379 0.00900135 0.00377151 0.00695831 0.00245059 -0.00145412 -0.00202298 -0.00587811 -0.00640503 -0.0122482 0.0040057 0.00585746 -0.0196056 -0.0196848 -0.0386037 -0.0408655 -0.0383846 -0.0149733 -0.0207431 -0.00723733 -0.0168916 -0.00140054 0.000867529 0.00118332 0.00682778 0.0076191 0.00664018 0.00969072 0.0014125 0.00687248 0.0130357 0.00848571 0.00316056 -0.00014761 -0.00629552 -0.0135889 -0.0111377 -0.0047534 0.014306 0.00552521 -0.0154128 -0.010583 0.000175221 -0.000219029 0.00409669 -0.00133279 -0.0115032 -0.00621824 -0.014961 -0.012363 -0.00555475 -0.00763589 0.00400509 0.00259254 0.00160907 0.00597938 0.00951502 0.00740894 0.00180363 0.0124732 0.0040102 0.000369639 -0.00838491 -0.0162806 -0.0205516 -0.0174221 0.0118975 0.00545774 0.00330488 0.00958172 0.0284739 0.0185833 0.0213317 0.0324586 0.0177346 0.011066 -0.0112479 -0.0079573 0.000960168 -0.000363022 0.00742651 0.000870865 0.00415035 0.00773196 0.00568582 0.00484038 0.0036643 -0.000403851 0.00109857 -0.00169791 0.00207055 -0.0118902 -0.0259229 0.00476765 0.00510062 0.012257 0.0212918 0.0227731 0.0363707 0.0342374 0.0301242 0.017185 0.0120137 0.0139185 -0.011382 -0.0168537 -0.00218677 -0.000475875 0.0060961 0.0077381 0.000204863 0.00164948 0.00890161 0.00621191 0.00564692 -0.000489443 -0.00152226 -0.00565684 -0.00730991 -0.0156003 0.0117359 0.018719 0.0101399 0.00785852 0.0162185 -0.00393415 0.0139798 0.0166652 0.0282177 0.00772057 0.00269701 0.00447199 -0.0141294 -0.0127144 -0.00441208 -0.000867708 0.00868935 0.00247183 0.00752563 0.00876154 0.00193676 0.0090801 0.00146973 0.000639511 -0.000346399 -0.0148933 -0.0120115 -0.00134471 0.0212085 0.0186038 0.00284883 0.0120249 0.0200999 0.0122791 0.00506192 0.00306612 0.0150904 -0.000217397 -0.0103737 0.000304421 0.000447034 0.00430606 0.00507177 0.00404971 0.00229491 0.00393559 0.00539376 0.00834939 0.00845557 0.0130789 0.00178169 -0.00140978 -0.00259027 -0.0015331 -0.00244665 -0.00397716 0.00462266 0.000230172 -0.00973007 -0.0008116 0.00117107 0.00542413 -0.00850317 -0.00980551 -0.00130957 -0.00434346 -0.00605758 -0.00425457 0.00129379 0.0118855 0.0151977 0.0125268 0.00414886 -0.000622684 0.00771507 0.00783505 0.00464126 0.00475034 0.00732858 0.000956856 -0.00551575 -0.00365055 2.19583e-05 0.00403997 0.00996725 -0.00844107 -0.0154025 -0.0085339 -0.0119665 -0.0158821 -0.0214367 -0.0289408 -0.0182921 -0.000922192 0.003597 0.00445204 0.0141628 0.0234753 0.0149613 0.00475204 0.00459857 0.00334367 0.0060037 0.00628866 0.0014433 0.00111475 0.00813652 -0.0048958 -0.00123609 -0.00186531 -0.00275751 -0.00423512 -0.00952512 -0.00508823 -0.00735086 -0.0217446 -0.0130751 -0.0133363 -0.0199323 -0.0352936 -0.0127849 -0.0070748 0.015893 0.0165318 0.00845315 0.00535675 0.0107346 0.00848227 0.00571811 0.0053655 0.00896639 0.00731959 0.000813118 0.00442426 0.00943611 -0.00238868 0.00628278 -0.00563921 -0.0233218 -0.0147502 -0.0158393 0.00513966 -0.00255552 -0.0143349 -0.0213072 -0.0143274 -0.0129988 -0.00749704 0.00667877 0.00813665 0.0274183 0.0135394 -0.000876499 -0.00691956 0.00738741 0.00781617 0.00657032 0.00849878 0.00452196 0.00391753 0.00544228 0.000589691 0.00372014 0.00780409 0.00698322 0.00361555 -0.0110853 0.00879639 0.0154238 0.01355 -0.00320242 -0.00816375 -0.00416805 -0.00905112 -0.00672485 -0.00238239 0.00175505 0.0148928 0.0204457 0.00580575 -0.00668599 -0.0165642 -0.00643496 0.00435304 0.00957917 0.00364009 0.00330599 0.00628866 0.00814433 0.00697307 0.00440429 0.0171493 0.00892968 0.00906216 0.000970679 -0.000346594 0.0110369 -0.00612246 -0.00193517 -0.00348036 0.00414009 0.00404021 0.000198143 0.00713203 0.0121519 0.0155858 0.0118502 0.00816831 -0.011178 -0.0118866 -0.00785879 -0.00144025 0.00300873 8.26003e-05 0.00876289 0.00876289 0.000309278 0.000848415 0.0114788 0.011968 0.0030745 0.000535594 0.00125217 0.00887223 0.0136829 -0.00221965 0.00720478 -0.00597144 0.0094958 0.0131692 0.00545666 0.0200183 0.0108952 -0.00331359 -0.00514328 -0.0118442 -0.00954721 -0.00415168 -0.00314294 -1.9349e-05 0.00781311 0.00899453 0.00793814 0.00907216 0.00639175 0.00465888 0.0124439 0.0104159 0.0138585 0.00731787 -0.00697581 0.00021201 0.00427862 0.00875943 0.0168256 0.00849569 0.017518 0.000485957 -0.00939568 0.00821254 -0.00490611 -0.00219003 -0.00622783 -0.00980031 -0.00475991 0.00414704 -0.000283641 0.00706073 0.00125227 0.000724069 0.0085567 0.000206186 0.00670103 0.00950325 0.00697502 0.0108175 0.0151673 0.0166202 0.0126273 0.00731304 -0.00415019 -0.010875 -0.0134831 -0.0159989 -0.0112529 -0.0110029 -0.00404306 -0.00160798 -0.00729635 -0.00860018 -0.0047062 0.00092261 0.001166 -0.00259359 0.00475085 0.0021273 0.00436487 0.00803684 0.00731959 0.000721649 0.000412371 0.00288854 0.000896367 0.00320874 0.00417117 0.0114618 0.00387071 0.0108596 0.0056229 -0.00353684 -0.00425493 0.00214061 0.006553 -0.000987266 0.00521824 0.00908537 0.0103864 -0.00614298 0.000270779 4.93193e-05 0.00847222 0.00442711 0.00369815 0.00471397 0.000822046 0.00979059 0.00494845 0.00360825 0.00515464 0.00453608 0.00288722 0.00438536 0.00810759 0.00614951 0.0120425 0.00269486 0.00886979 0.00196323 0.00970413 0.0045157 0.00546361 0.0110278 0.010637 0.00529751 0.00762812 0.0063516 0.00294734 0.00550026 0.0096504 0.00476314 0.0040861 0.000103093 0.00628866 0.00247423 0.00845361 0.00185567 0.00907216 0.000824742 0.00824742 0.00134021 0.0101959 0.00741535 0.00612407 0.00219612 0.0114917 0.00750119 0.00167827 0.00194928 0.0100834 0.00449642 0.00356465 0.00463456 0.00430989 0.00047978 0.00848092 0.00427019 0.00121276 0.00877885 0.00855694 0.00484536 0.00515464 0.00298969 0.00484536 0.000309278 0.00268041 0.0042268 0.00587629 0.00113402 0.00721649 0.00391753 0.00886598 0.00938144 0.00556701 0.00597938 0.00515464 0.00320018 0.00980323 0.00618557 0.000309278 0.00185567 0.0085567 0.000824742 0.00917526 0.00443299 0.00659794 0.00371134 0.00597938 0.00360825 0.00917526 0.00103093 0.00948454 0.00938144 0.00391753 0.00731959 0.000721649 0.00443299 0 0.0085971 0.00513149 0.0002956 0.0041267 0.00222659 0.00209219 0.00304073 0.010135 0.00563581 0.00274179 0.00502328 0.00440247 0.00423684 0.0102082 0.00474713 0.000667142 0.00612533 0.00886947 0.00721649 0.000618557 0.00618557 0.00247423 0.00752577 0.000412371 0.00742268 0.00443364 0.0077385 0.00678201 0.00153269 0.00710865 0.00137886 0.00123839 -0.000268544 0.00507449 0.00570232 0.00400819 0.00753922 0.00143733 -0.00033507 0.00804187 0.0105829 0.00687457 0.00821293 0.0102359 0.0137298 0.00128917 0.0103205 0.00628866 0.01 0.000412371 0.00247423 0.000515464 0.000193392 0.00793703 0.000180784 0.00802814 0.00738394 4.1714e-05 0.00473696 0.00564207 0.00404181 0.0208118 0.0177683 0.0188263 0.0104935 -0.000843684 -0.00941607 -0.0156869 -0.00207869 0.00402233 0.00658915 0.0137409 0.0122005 0.0144105 0.00213887 -0.00236501 0.00173067 0.00412371 0.00783505 0.0102062 0.00892526 0.000196724 0.00457821 0.00813494 -0.000540736 0.00183029 -0.00506918 -0.0048295 0.00881414 -0.00160421 -0.00701974 -0.0119171 -0.00367001 -0.00326807 0.00104047 -0.00761544 0.00950338 0.0186 0.0204644 0.0111638 -0.00947349 -0.0327798 -0.0444297 -0.0212206 -0.00522858 0.00868057 0.00268041 0.00958763 0.000716253 0.00342589 0.00287076 0.0047939 -0.00364238 -0.0114406 -0.0160366 -0.00755824 -0.00320995 -0.01531 -0.0262049 -0.0114147 0.00563301 -0.0202601 -0.0227034 -0.0119663 0.0198546 0.00280951 0.00861549 0.0082358 -0.00885231 -0.00979145 -0.0294162 -0.0195942 0.00289808 0.00528867 0.00474227 0.0085567 0.0060267 -0.000480308 0.00366173 -0.00507758 -0.00689477 -0.0139254 -0.0224168 -0.0127423 -0.00977383 -0.0148732 -0.0249113 -0.0127158 -0.0124021 -0.0292862 -0.00968777 -0.00334522 -0.00464995 -0.000924991 -0.00230084 -0.00122298 0.00634499 0.00235754 0.0100232 -0.00333472 0.00662108 0.00582859 0.00309209 0.00367669 0.0041522 0.00833215 0.0039099 0.00347359 -0.00861735 -0.0208516 -0.0215968 -0.0165131 -0.0140484 0.00186689 -0.0150809 0.000909141 0.0177524 0.0123975 0.00923083 -0.00942193 -0.0124754 0.00585606 0.0210461 0.00276199 0.0287772 0.0131296 -0.00356825 0.00126557 0.00327888 0.00889499 0.00620814 0.0102043 0.00542636 0.00373495 0.006274 0.00184322 -0.011139 -0.013759 -0.0190797 -0.0138702 -0.0306495 0.00323994 0.0168911 0.0249341 0.0413107 0.0150195 0.0196108 -0.0116968 -0.0394129 -0.013339 -0.0129431 0.00645321 -0.00576772 -0.0175291 -0.00583198 -0.000952523 0.00891766 0.0066926 0.00690676 0.0087747 0.0018355 0.00764452 0.00172936 -0.00560111 -0.0108978 -0.0161555 -0.0257406 -0.0125039 0.0014518 -0.00325894 0.0202507 0.0343782 0.0137449 -0.00645324 -0.0273121 -0.0574382 -0.0238263 0.0096394 -0.00243413 -0.0145022 -0.0117038 -0.0159007 -0.0101655 0.00765697 0.00728107 0.000451895 0.00309278 0.000126778 9.77696e-05 0.00258979 -0.000716103 -0.00556143 -0.0129808 -0.0252617 -0.031894 0.003825 -0.0195875 0.0111667 0.0279898 0.021712 -0.0230297 -0.0384647 -0.03904 -0.00883351 0.0160289 0.0277584 0.00842569 -0.0236692 -0.0172543 -0.0122356 -0.0115484 -0.00536894 0.0036818 0.0037789 0.0014433 0.00288618 -8.73763e-05 0.00103757 0.000535687 -0.0091249 -0.0209342 -0.0231767 -0.0173404 0.00555898 0.0109042 0.0101809 0.00534296 -0.00357939 -0.0443228 -0.0344547 -0.0166694 -0.0253135 -0.0197236 -0.00791419 -0.00620204 -0.00649494 -0.0165024 -0.00907538 -0.00279535 -0.00567993 0.00123162 0.00691878 0.00762887 0.00418619 0.00852899 0.00205381 -0.00212962 -0.0156711 -0.0102937 -0.0237368 0.0116626 0.0341577 0.0213677 0.00452563 -0.00966942 -0.0183523 0.000801938 -0.0143481 -0.0336541 -0.0313009 -0.0371203 -0.0493469 -0.0369379 -0.0268108 -0.0131107 -0.00705943 -0.00833038 0.00036732 0.0029089 0.00124833 0.00814433 0.00574425 0.00127538 0.00844556 9.53916e-05 -0.0187088 -0.00435684 -0.0156922 0.00349254 0.0488695 0.0270035 -0.0198481 -0.0372665 -0.0133383 0.00564492 -0.0186564 -0.0335563 -0.0449584 -0.0382471 -0.0462697 -0.0376282 -0.0308379 -0.0298251 -0.00526105 -0.00503269 0.00768384 0.000688933 0.00434653 0.00989691 0.00873722 0.00538723 0.00673443 0.00124806 -0.00297878 0.00301719 -0.00941515 0.0114411 0.0389683 0.0229867 0.0112129 -0.016451 0.000117005 -0.0187256 -0.0258467 