0.00309278 0.00185567 0.00360825 0.000103093 0.00783505 0.0071134 0.00463918 0.00731959 0.0102062 0.0043299 0.00845361 0.00402062 0.00136616 0.00387588 0.00412887 0.00886619 0.00804124 0.00628866 0.00690722 0.00917526 0.00865979 0.00680412 0.00948454 0.00927835 0.00628866 0.000927835 0.00494845 0.000721649 0.00865979 0.00958763 0.00824742 0.00309278 0.00752577 0.00175737 0.00418815 0.000449722 0.00955141 0.00475146 0.000529114 0.00513091 0.00919559 0.00638588 0.00149251 0.00855306 0.00323051 0.00923696 0.00931385 0.00448817 0.00220577 0.00663913 0.00497169 0.00721823 0.00494845 0.00247423 0.00175258 0.00391753 0.00670103 0.00505155 0.0071134 0.00927979 0.000619051 0.00846455 0.0027222 0.00757745 0.00665382 0.00759672 0.00938877 0.00357864 0.00451952 0.00725591 0.00791961 0.00700299 0.00362589 0.00851895 0.00325988 0.00505213 0.00329439 0.00713501 0.0081344 0.00467848 0.000206186 0.000824742 0.000618557 0.00134021 0.00268041 0.000824742 0.00525773 0.00206611 0.000896064 0.00784616 0.00792301 0.00600346 0.000563828 0.0085271 0.0111637 0.00923037 0.00896892 0.00762294 0.00522878 0.00891964 0.00694812 0.00698264 0.00449995 0.00791555 0.00464577 0.00578722 0.00171112 0.00337651 0.00982735 0.00145759 0.00320166 0.0085567 0.000206186 0.00793814 0.00216501 0.0100017 0.000251938 0.00581647 0.0060302 0.00552216 0.00717568 0.00696342 0.00711161 0.00580618 0.00310833 0.000626556 0.00232107 -0.00112549 0.0070985 0.00346855 0.00414312 0.00451361 0.00511582 0.00834705 -0.000377343 0.00884787 0.00534198 0.00589378 0.00485068 0.0020677 0.00907216 0.00453608 0.00206208 0.00599941 0.00822307 0.00217327 0.00174848 0.00568856 0.00802452 -0.000489958 0.00815011 0.00227599 0.00397168 0.00313221 -0.00301697 -0.00208919 -0.00417219 0.0035789 0.0012146 -0.00152274 -0.00316677 0.000169624 0.00073408 0.0033248 0.00250552 0.00767292 0.0066399 0.000628264 0.00835052 0.00268057 0.0030087 0.00575428 0.00406154 0.00880605 -4.27363e-07 0.00564212 0.00540897 0.00538004 -0.00467757 0.00484472 -0.00136002 0.00123534 -0.0059131 0.00157979 -0.000820125 -0.00442216 -0.0124018 -0.00358466 -0.00623306 0.00221742 0.000496765 -0.000869608 0.00331007 0.00444978 0.00889483 0.00612137 0.00350515 0.00618816 0.00318788 0.00450386 0.00556468 0.00489378 0.00642004 0.00448247 0.00274303 0.0058411 0.00228703 -0.000461403 -0.0040154 -0.00500596 0.00146121 -0.00456884 -0.00402271 -0.00485648 -0.0128741 -0.00547187 -0.00538586 0.000318004 0.0037217 0.000277983 0.00014659 0.00710224 0.00345713 0.00837497 0.00938523 0.00749005 0.00230375 0.00314264 0.00953782 0.00359198 -0.00234394 -0.0012322 0.00308101 0.00363015 -0.00327857 0.00100215 -0.00269928 0.00383135 0.00307264 -0.00219497 0.000847722 -0.0047102 -0.0104749 -0.000580862 0.000788793 -0.000362018 -0.00421667 0.00530393 0.00117089 0.00587098 0.00278437 0.00257362 0.00546392 0.00157525 0.00250104 0.00405675 0.00786636 0.00838425 0.00183863 0.00575294 -0.00298373 -0.000782587 -0.00476052 0.00331488 0.00450042 -0.00359828 0.00398323 0.00360072 -0.00931965 -0.00248299 -0.00427216 -0.000803688 -0.00536251 -0.00454744 -0.00497262 -0.0033901 8.57657e-05 0.00146664 0.00509782 0.0092762 0.00298969 0.000259911 0.00192927 0.00641523 0.00931656 0.00357189 0.00355637 0.00551219 -0.00118054 -0.00169657 -0.000179127 -0.00312263 -0.00330358 0.0050925 -0.0012924 -0.00470467 -0.00642739 -0.00975224 -0.00630833 -0.00396417 -0.00263002 0.00221936 -0.00235602 0.00194874 0.00178464 0.00260243 0.00317598 0.00154474 0.00690722 0.00183563 0.00624849 0.00061546 0.00614364 0.00347798 0.00404364 0.00581862 0.00386009 -0.00516917 0.000473741 -0.00328082 -0.00306461 -0.00101364 0.00128717 0.00033547 -0.00750531 -0.00347576 0.000248003 -0.00145164 -0.00138716 0.00495094 0.00575471 0.00592876 0.00832719 0.00415664 0.00393644 0.000619289 0.00587629 0.00454122 0.00343404 0.00960323 0.00383437 0.00618163 0.00302651 0.00643306 -0.00195995 0.0010279 0.00185136 0.00506702 -0.00169069 -0.000765508 0.00435918 0.00224452 0.00187785 0.000809226 0.00186582 -0.00201343 -0.00117111 0.00521444 -0.00205623 0.00191057 0.0107267 0.00468106 0.00706635 0.0016582 0.00896907 0.00578037 0.00229301 -0.000198296 -0.000741615 -0.00118925 0.00291113 0.00620298 0.00266567 -0.00333923 -0.00396511 0.000452967 0.00621737 0.00372386 0.000220139 0.00295015 -0.0033946 0.000619934 -0.00507018 -0.00365172 0.00401258 0.00434127 0.00405971 0.00169765 0.00580426 0.00609675 0.00910817 0.00277875 0.00804124 0.00392444 0.00642391 0.000758435 0.00763466 0.00334816 0.00470801 -0.00413882 0.0014769 -0.00237307 -0.00476322 -0.00121169 -0.00221311 -0.00528756 0.00292702 -0.00396958 -0.00405564 -0.00464688 0.00307465 0.000590727 -0.00117354 0.00268507 0.00786084 0.00758493 0.00469439 0.00782601 0.00448587 0.00638946 0.00402062 0.00433567 0.000228739 0.00972713 0.00188035 -0.00162169 -6.77791e-05 0.00408224 0.0039535 0.000661493 -0.00469756 -0.00629046 -0.00595807 -0.000211916 -0.00372812 -0.00493041 -0.00903425 0.004258 -0.00237984 0.00360126 -0.00360112 -0.000392874 0.000295837 0.00700883 0.00620421 0.00685744 0.000169791 0.00854036 0.00309278 0.00134357 0.00396159 -0.000398381 0.00703161 0.00441087 -0.0041442 0.00351164 -0.00289737 0.00118901 -0.00166218 -0.00505117 -0.00430093 0.00285333 -0.000266637 3.373e-06 -0.00980076 -0.00296056 0.000346197 0.00132735 -0.00314986 -0.00246418 0.00539839 0.00695656 0.00732555 0.00332694 0.0032045 0.00913107 0.00525773 0.00433088 0.00124517 0.00671 -0.000999716 0.00573648 -0.0054148 -0.00233781 0.0059733 -0.00024139 -0.0018604 4.22293e-07 6.15383e-05 -0.00411427 0.000181916 0.000287969 -0.0112324 -0.00655188 -0.0011396 0.00299914 0.000322964 0.00199884 0.00481315 0.00415575 0.00701716 0.00504852 0.00773593 0.000814356 0.00505155 0.00453608 0.00219255 0.00644686 0.00171518 -0.000510749 0.00028805 0.00274052 -0.000619623 -0.00115888 0.002072 0.00689377 0.00604118 0.00148113 0.00129563 1.28884e-05 -0.00323137 -0.00387991 -0.00437718 0.00165003 -0.00309701 -0.00344752 0.00464022 0.00162279 -0.00172213 0.00107613 0.00280601 0.00791104 0.000515464 0.00350984 0.000754183 0.00398855 0.00528938 0.000430718 -0.00218522 -0.00355343 0.000367992 -0.000206611 0.00513459 0.00158601 0.00667691 -0.000797127 0.00625909 0.00163487 -0.00156658 0.00395265 0.00398343 -0.0022723 0.00353775 0.00359631 0.00241103 -0.000168147 0.00340021 0.00277783 0.00470849 0.00586942 0.00876289 0.00103472 0.00879081 0.00918378 0.00397393 0.00516074 -0.00687637 -0.00514661 -0.00130649 0.00257869 -0.00199222 -0.000148521 -0.000790761 0.00134237 0.00282238 0.000646045 0.00250712 0.000342376 -0.0036465 0.00252088 -0.000177099 -0.00419598 0.00525857 0.00174069 -0.0014381 0.00145693 0.00821396 0.00680412 0.000618557 0.000309278 0.00992028 0.00916982 0.000500496 0.00536236 0.00110862 -0.00243597 0.00193092 -0.00219427 -0.00368616 -0.000797781 0.00359975 0.0059295 0.00204959 0.000253909 0.000163857 -0.000456055 -0.00035761 -0.00133451 -0.00338486 0.00132546 0.000148296 0.00147709 0.00475256 0.0101375 0.00545272 0.000824742 0.00969072 0.00206186 0.00834998 0.00359119 0.00431877 0.000447145 0.00568235 0.00433952 -0.00426604 0.00144682 -0.00303089 -0.00236581 -0.00220334 -0.0023663 -0.00917456 -0.00231996 -0.00237063 -0.00116855 0.00367558 0.00361719 -0.00328807 -0.000840206 -0.00127367 0.00554138 -0.000220513 0.00449526 0.00959218 0.00597938 0.00340206 0.00587629 0.00805456 0.00124957 0.00806979 0.00155207 0.00468425 0.00739909 0.00192827 -0.00293113 -0.00103211 0.00312496 0.00373193 0.00375037 0.000351345 -0.00308305 -0.000397049 -0.000921859 0.00615343 -0.00185233 0.00513672 0.00165261 0.00318603 0.00290112 0.00840323 0.00435611 0.00587237 0.00793814 0.0043299 0.00618557 0.00217417 0.000302814 0.00296618 0.0105767 0.00122862 0.00739138 0.001692 -0.000312461 0.00226673 0.00938907 0.00305086 0.00276776 0.00283363 0.00883803 0.000454163 0.00751293 0.00317239 0.00722725 0.00626197 0.00380456 0.00523168 0.00285543 0.00633219 0.00504401 0.00618527 0.00154639 0.00381443 0.00453608 0.00639245 0.00949029 0.00811183 0.0100069 0.00536555 0.00786378 0.00356288 0.0048888 0.00350129 0.00879035 0.00193431 0.00139794 -0.000988252 0.00846605 7.4313e-05 0.00109447 0.000382323 0.00399745 0.00511938 0.00151557 0.00412075 0.00942658 0.00149121 0.00814407 0.00927804 0.00360825 0.00618557 0.00391753 0.00783505 0.00298935 0.00238701 0.00319387 0.00666304 0.00809067 0.00205226 0.00957279 0.00422779 0.00529071 0.0108128 0.00775172 0.00354811 0.0081023 0.000958024 0.00304486 0.00179617 0.0030641 0.00686057 0.000660159 0.0035649 0.00674721 0.00773601 0.00505155 0.00979381 0.00371134 0.00762887 0.00979381 0.00680412 0.00649485 0.00278351 0.00185567 0.00392383 0.00488764 0.00662644 0.000438415 0.00064392 0.00911679 0.00533178 0.00996926 0.0019344 0.00677257 0.0076964 0.0098234 0.00911124 0.00946135 0.00872994 0.00760608 0.00730481 0.00525299 0.00587629 0.00670103 0.00618557 0.0057732 0.00402062 0.00670103 0.00113402 0.00298969 0.000206186 0.00989691 0.00247423 0.00597938 0.00597938 0.00257732 0.00608247 0.00268041 0.00324124 0.00864503 0.00535868 0.00319149 0.00350515 0.00515464 0.00175258 0.00907216 0.00329897 0.00206186 0.00969072 0.00103093 0.00649485 0.00742268 0.00298969 0.000309278 0.000103093 0.00659794 0.000412371 0.00608247 0.00103093 0.00257279 0.00380759 0.00770596 0.00671205 0.00284328 0.00583127 0.00690132 0.00230136 0.0100209 0.00497014 0.00821486 0.00727397 0.00103517 0.00247042 0.00711964 0.000440275 0.00236076 0.00742425 0.00329093 0.0043299 0 0.00835052 0.00536082 0.000206186 0.00247423 0.00381443 0.00964339 0.00524146 0.00324863 0.00756028 -0.00108227 0.00862514 6.12356e-05 -0.00281122 -0.0015662 0.00222384 0.00427801 0.00439812 0.00140508 0.00476455 0.00125789 0.00860591 -0.000626844 0.00856129 0.00643945 0.00527717 0.00248514 0.00886598 0.00979381 0.00268041 0.00103093 0.0102062 0.000206186 0.00731959 0.000998516 0.00791418 -0.00021248 0.00737132 0.00606531 0.00515323 0.0010274 -0.00207556 0.00188507 0.0038069 0.00160701 0.00016933 0.00308114 -0.00113185 -0.000691655 0.00494902 0.00578729 0.00503376 0.00433469 0.0084592 0.00306464 0.000980932 0.00191499 0.00736713 0.00185567 0.00690722 0.00701031 0.00490241 0.00877268 0.00979874 0.000570798 0.00319982 0.00562576 -0.00171957 0.00410688 -8.67888e-05 -0.00140429 -0.00113122 -0.00490144 0.00187573 -0.00467671 -0.00908594 -0.00718442 -0.00378415 0.00537567 0.00837201 0.00836059 0.0095766 0.0027835 0.0109356 0.00741016 0.00803283 0.00492401 0.00618557 0.00824742 0.00456674 0.00732694 0.0081162 4.65505e-05 -0.000102958 -0.00166955 -0.000967604 -0.000224124 0.000121768 0.00296069 -0.00123579 0.000243172 -0.010501 -0.0090167 -0.0120239 -0.0106004 -0.0101062 -0.00914466 0.0032401 0.00334224 0.00251429 0.00983314 0.00805314 0.00292542 0.00160575 0.00286164 0.00103093 0.00886554 0.00583781 0.00385437 0.00298846 0.000205203 0.00477293 0.00511446 0.00751075 0.00626859 0.00848957 0.000708425 0.00476536 0.00588632 0.000334644 0.00155529 0.00585673 -0.00860857 -0.00704279 -0.00668217 0.002293 0.00761423 0.00853305 0.0137375 0.0129401 0.00826282 0.0090206 0.00188594 0.0071134 0.00251128 0.00857657 0.00186028 0.0035494 -0.00162078 -0.00118818 0.00112929 0.00376535 0.00764836 0.0130111 0.00505597 0.0178063 0.0200131 0.0117644 0.00870026 0.00900118 0.00616607 0.00486198 0.00311663 0.0108376 0.00728017 0.00361497 0.00769255 0.00858538 0.0123509 0.00505917 0.00633068 0.00471364 0.00641455 0.00882193 0.00818746 5.23396e-05 0.00153569 0.00433186 -0.00653376 0.00855465 0.00923526 -0.00116283 0.00845918 0.0107717 0.00877178 0.0167167 0.0125744 0.0080355 0.0010108 0.00411522 -0.000749012 0.0071258 0.00452015 0.00623737 1.14931e-05 0.0129746 0.0116237 0.00385646 0.00806175 0.00876289 0.00726325 0.00607449 0.00686539 -0.00070738 0.0019654 0.0069129 -0.000783209 0.00530425 0.00954125 0.000600312 0.00624989 -0.000874381 -0.00151491 -0.0102137 -0.0110576 -0.00874638 -0.00814662 0.00281253 -0.00654627 -0.000675154 -0.00759119 -0.00432093 0.00141833 0.00495032 0.00332717 0.00847975 0.00335755 0.00917526 0.0100936 0.00224224 0.00589027 0.0035127 -0.00598191 -0.00432823 0.00895265 0.00695718 0.00733348 0.0080878 -0.00398112 -0.0129666 -0.0105032 -0.00831179 -0.00900927 -0.0161399 -0.0111849 3.86323e-06 -0.00116434 -0.0123819 -0.00261987 -0.00250549 -0.00351545 0.00746032 0.00599867 0.00211411 0.00775041 0.00103093 0.0092149 0.00466057 0.00318287 -0.00235676 -0.00180779 0.00192446 0.000344775 0.00451375 0.00299166 0.00545281 0.000533686 -0.00658868 -0.012453 -0.00586034 0.00371601 -0.00425706 -0.0012559 -0.0127598 -0.0131131 -0.0107999 -0.0023452 0.00156097 -0.000455064 0.00373961 0.00754639 0.005392 0.00733799 0.00927835 0.00599073 0.00602288 0.00753205 0.00498934 0.00743649 0.00531569 -0.00235053 0.00989929 0.00714241 0.00410032 -0.00165961 -0.00498968 -0.00998768 -0.00381307 0.000290712 -0.00507776 -0.01013 -0.00626417 -0.01017 -0.010879 -0.00837147 -0.00490333 0.00390228 -0.00585923 0.00584533 0.00517843 0.00866359 0.00309278 0.0088867 0.00212743 0.00586112 0.00465613 0.00833785 -0.00215655 -0.00220623 -0.000841637 0.00864787 0.00600234 -0.00940576 -0.0076509 -0.00148645 -0.00236237 -0.00292747 -0.00590188 -0.0052563 -0.0101411 -0.0087251 -0.00776567 -0.00735476 -0.00405865 -0.000681262 -0.00172581 -0.00238696 0.00499724 0.00484494 0.00247423 0.00581032 -0.000308236 0.00236316 0.006612 0.00355408 -0.00383905 -0.00459005 -0.00246066 -0.00239516 -0.00383259 -0.0097019 -0.0115668 -0.00886079 -0.00220566 -0.00541523 -0.000808447 -0.00962052 -0.00264981 0.00225474 -0.00342671 -0.0105895 0.000582212 -0.00152983 0.00215123 -0.00260734 0.00742152 0.00773046 0.00484536 0.00277733 0.004497 0.00245292 0.0105343 0.00665231 0.00112747 -0.00165989 -0.00185784 0.00697651 -0.000918196 0.00750781 0.00320259 -0.00285986 0.000826124 -0.00721002 -0.00612289 -0.00204343 0.0092297 0.00632733 -0.00130227 -0.00113746 -0.00497576 -0.00531128 -0.00784832 0.00182159 0.00704305 0.00770972 0.0014433 0.00267622 0.00332797 0.000797004 0.00915823 0.0074007 -0.00430351 -0.00174973 0.00501019 0.00735882 0.0108985 0.012929 0.00680291 -0.00158854 -0.00592533 -0.0123276 -0.0124735 0.00260269 0.010393 0.0147648 0.00664426 0.00268768 -0.00159737 -0.00144294 -0.0016426 0.00206335 0.00144341 0.00334255 0 0.00422572 0.00767335 0.00932566 0.00139077 0.00723265 0.00421671 0.00529746 0.0121383 0.00612826 0.0104198 0.0186121 0.00301367 0.00248107 0.00165683 0.000736721 -0.00205735 0.00788432 0.0119696 0.0108923 0.0119006 -0.00246911 0.00500787 0.00120307 0.00434144 0.00752676 0.00270871 0.0063677 0.00195876 0.00649485 0.00319395 0.00238559 0.00141107 0.000309495 0.000494714 0.00113563 0.00837477 0.010223 0.00624581 0.00216153 0.00306189 0.00462831 0.012045 0.00297558 0.0063594 0.00709515 0.00158271 0.00860522 0.0065212 -0.00493065 -0.0046844 0.00596554 0.00577271 0.00916537 0.00857657 0.0065646 0.00412371 0.00876023 0.00607787 0.00296582 -0.00177506 -0.0027212 0.0015603 0.00235922 0.0109994 0.00935443 0.00810856 0.00401249 -0.00365713 -0.00805178 -0.00547637 -0.0150683 -0.013375 -0.00462385 0.0023686 0.0100601 -0.00372712 -0.00681613 -0.0106155 0.00964093 0.013478 0.0106288 0.00160387 0.00742179 0.00762887 0.00896059 0.00779327 0.00365404 -0.00108205 0.00202952 0.00437638 -0.0040564 -0.00206436 0.00411664 -0.00148125 -0.0158768 -0.0106871 -0.0105564 -0.0115091 -0.0208643 -0.018018 -0.00260949 0.00421215 0.00630889 -0.00463376 -0.00562695 -0.0020636 0.0064722 0.0138188 0.0111958 0.00194351 0.00474227 0.00587629 0.00556701 0.000705565 0.00247238 0.00700244 0.00274724 0.0013678 -0.00757655 -0.00735122 -0.0173605 -0.0204256 -0.0202541 -0.0253232 -0.0218175 -0.0265602 -0.021541 -0.0175369 -0.00937237 0.0121637 0.00641456 0.00563265 -0.00410977 0.00396452 0.00968838 0.018876 0.0145432 0.00946048 0.00608247 0.00381443 0.00835052 0.00967745 0.00276763 0.00581392 0.00273981 -0.00121499 -0.000466987 -0.0130048 -0.0174577 -0.0177922 -0.0190003 -0.0166982 -0.0202885 -0.0182488 -0.0113798 -0.00342485 0.00473841 0.00187746 0.00140663 0.00786001 0.0066829 0.0103513 0.0154288 0.0215668 0.0157372 0.00676829 0.00824742 0.00938144 0.00938144 0.000896741 0.00181917 0.0100068 0.00537464 0.0074654 -0.00554344 -0.0103271 -0.00763808 -0.00442332 -0.00071628 -0.00194243 -0.00445411 -0.015274 -0.00458072 -0.00147396 0.0128412 0.0115087 0.00754985 0.00251179 0.00343421 0.00590381 0.0184445 0.0178034 0.0155235 0.00259298 0.000515464 0.00989691 0.00752577 0.00992288 0.00471643 0.00320577 0.00503477 0.00639292 0.00736702 -0.00275478 -0.00403171 0.0019504 0.00208941 0.00579654 0.0010058 -0.00322418 0.00501949 0.0132354 0.019248 0.00872673 0.0107963 0.0122441 0.00550164 0.00577802 0.00472135 0.00672526 -1.57154e-05 0.000618147 0.00123711 0.00216495 0.00989691 0.0059796 0.00535504 0.00687956 0.00359856 0.00416221 0.00418837 0.00854248 0.00111417 0.00270697 0.000790156 0.00756191 0.00728653 0.00401917 0.016882 0.0160183 0.0192387 0.00996467 0.0129206 0.00858565 0.00521917 0.00484543 0.011958 0.00284097 0.00371098 0.00226761 0.0102062 0.00340206 0.00639175 0.00597938 0.00680501 0.00729517 0.00405028 0.00249051 0.00455012 0.00151464 -1.39232e-05 0.00410098 0.00700977 0.00796368 0.00348271 0.00637483 0.0130388 0.0110271 0.0104261 0.0048204 0.000646377 0.00310278 0.00937907 0.0101804 0.00384312 0.00383067 0.00329897 0.00659794 0.0014433 0.00865979 0.00340206 0.00886598 0.00536082 0.00845361 0.00185567 0.00577094 0.00174254 0.000967157 0.00906499 0.00021348 0.00200343 0.00717558 0.00313861 0.0060346 0.00684047 0.00207819 0.00105238 0.00280519 0.00380026 0.0101766 0.00151929 0.00632255 0.00795704 0.00402062 0.00773196 0.00309278 0.00659794 0.00608247 0.00731959 0.0056701 0.00391753 0.00793814 0.00701031 0.00278351 0.00876289 0.00701031 0.00835052 0.00546392 0.00164948 0.00287956 0.00886404 0.00527271 0.00969135 0.000206186 0.00195876 0.00659794 0 0.00474227 0.00783505 0.00948454 0.00536082 0.00474227 0.00134021 0.00391753 0.00154639 0.000927835 0.0085567 0.00381443 0.00690722 0.00814433 0.0072162 0.00225032 0.00574697 0.000601307 0.00660838 0.00556912 0.00931814 0.00258482 0.00612355 0.00716029 0.00970016 0.00350842 0.00838297 0.00843025 0.0035561 0.00315958 0.00304196 0.00945657 0.00803917 0.00329897 0.00979381 0.00134021 0.000927835 0.01 0.00247423 0.00134021 0.00783692 0.00453673 0.00775781 0.00295523 0.00997278 0.00305297 0.00866233 0.00902207 0.00228657 0.008598 0.000665615 0.00663988 0.00758665 0.00254626 -0.00173252 0.00650576 0.000904673 0.00639796 0.00700153 0.00761061 0.00531371 0.00927835 0.0101031 0.00474227 0.00670103 0.00505155 0.00536082 0.00701031 0.00866461 0.00259953 0.00597775 0.000484124 0.00617079 0.00858754 0.00637137 0.00467431 0.00899292 0.00373727 0.00894146 0.00236871 0.000530261 0.00609774 0.00691614 0.00107963 0.00119881 6.75036e-05 0.00840786 0.0086642 0.00519108 0.00235442 0.00412 0.00882923 0.0101031 0.00896907 0.00907216 0.00958909 0.0014298 0.00931344 0.00396888 0.00453086 0.00959195 0.00784189 0.00170237 0.00610963 0.00203516 0.00328358 0.00199132 0.0033603 0.00673009 0.0103874 0.00894425 -0.000721666 8.15572e-06 0.00201451 0.000904389 -0.000846029 0.00851529 0.00298902 0.00916359 0.00921843 0.00319144 0.000927835 0.00185567 0.00268597 0.00617185 0.00672781 -0.000194242 0.00345671 -0.00408861 0.00222059 -0.00119864 0.00124217 0.00716329 0.00192937 -0.00152113 -0.000107893 0.000118721 -0.00129068 -0.00171015 0.00884664 0.00305878 0.012314 0.0140763 0.00956094 -0.00114844 0.00413496 0.00502543 0.00839095 0.000328712 0.00886598 0.00804149 0.00718419 0.00814066 0.00323608 -0.0010457 7.50503e-05 0.00183025 -0.00489948 -0.0101369 -0.00339045 0.000570535 -0.000947446 -0.000264851 -0.00511647 -0.00597569 0.00466331 -0.00262538 0.00183473 0.00171499 0.00242957 0.0107986 0.00820421 0.00524776 -0.00240252 0.000509802 0.00731434 0.00189825 0.000618557 0.00958415 0.0048422 0.00742743 0.00682755 0.00209515 0.00176919 0.00275302 -0.00510343 0.00234663 -0.00375877 -0.00345858 0.00270458 0.000389905 -0.00749253 -0.00990663 -0.00124983 -0.00351489 -0.00615057 0.00780814 0.00906866 0.00965009 0.0159262 0.0139192 0.000137848 0.00481524 0.00640963 0.00361371 0.00311343 0.00980769 0.00397902 0.00126209 0.00099105 -0.000394197 0.00378577 0.000330376 -2.70515e-05 -0.0042251 -0.00944122 -0.00630376 -0.00895479 -0.000735023 0.00175917 0.00690956 0.00484589 -0.00247581 -0.00467388 0.000404316 0.00681641 0.00560245 0.0119556 0.0185639 0.0118517 0.00437316 0.000447946 0.00968935 0.00824742 0.00604773 0.00887244 0.00191474 -0.000771831 0.000616682 -0.00435793 -0.00312216 0.00415715 -0.00652055 -0.00534836 -0.010066 0.000743321 0.00831902 0.0106984 0.00746257 -0.00451059 -0.00459621 -0.0145495 -0.00178749 0.00363949 0.00942706 0.0218989 0.0167108 0.00553552 0.00384059 0.00819797 0.00454328 0.00670103 0.00493415 0.000997105 0.00112445 -0.00213295 0.000730284 -0.00253626 0.00635139 0.00501412 -0.00811804 -0.00594088 -0.000171323 0.00616845 0.00201142 0.0044002 0.00496241 0.0031882 -0.00331653 -0.0151306 -0.01098 -0.00324078 0.0117327 0.0215864 0.0226347 0.0175403 0.00680605 0.00149497 0.00196819 0.00639175 0.00641642 0.0041782 0.00218686 0.00423972 0.000838908 -0.00342532 0.000805814 -0.00201593 -0.00331347 -0.00675998 0.000146935 0.00523888 -0.000234833 0.00230191 0.00531548 -0.00361774 -0.0172426 -0.0115272 -0.0131228 -0.0107901 0.0110544 0.020482 0.0188048 0.0157784 0.00831507 8.64548e-05 0.00113846 0.00979381 0.00227888 0.00852423 0.00185258 0.00628524 -0.00245804 4.4223e-05 0.00311564 0.000912822 -0.00706902 -0.00763282 0.000217475 0.00185051 0.00300551 -0.000135245 -0.00871995 -0.0113065 -0.0112784 -0.00890778 -0.00780596 -0.00707448 0.004193 0.00699981 0.0122397 0.0152463 0.0010766 0.00368606 0.000934276 0.00969072 0.0102139 0.00750922 0.00669952 0.00750687 -0.000953564 0.00582717 0.00105013 0.000280356 0.00530215 -0.000640965 -0.00664001 0.00157525 -0.00446257 -0.00425552 -0.003104 -0.0200987 -0.0153382 -0.0104747 -0.0082428 -0.00805321 0.00418844 0.00240241 0.0065184 0.00966483 0.0116901 0.00276964 0.00485339 0.00103093 0.00256782 0.000368659 0.00304517 0.000912532 0.00201854 0.00279208 0.0120697 0.00968117 0.00341066 -0.00121797 -0.00732442 -0.0115923 -0.00728228 -0.00488296 -0.0139557 -0.0157391 -0.0141339 -0.00956614 -0.0101313 0.00110518 0.00369029 -0.00191178 0.00575436 0.00483198 0.00619377 0.0011549 0.0102094 0.00608247 0.00440409 0.00556511 0.00765311 0.00901435 0.0142722 0.00573267 0.00521924 0.00616464 -0.00349346 -0.0057057 -0.00429074 -0.0109927 -0.0110872 -0.00965513 -0.0084077 -0.00840607 -0.00424834 -0.0134065 -0.00637758 -0.00478466 0.00204334 0.00318093 0.00856626 0.00363343 0.00198386 0.00564801 0.00818629 0.00556701 0.00431596 0.00867908 0.0087708 0.012407 0.0114837 0.00920133 0.0106177 0.00387421 -0.00272212 -0.00398088 0.000333748 -0.00750056 -0.010234 -0.00613739 0.00139481 -0.00397049 -0.00681402 0.00225198 0.00344201 0.00447433 -0.00416938 0.00740352 0.00748057 0.00160179 0.00146749 0.00499674 0.00135342 0.00329897 0.00195402 0.0096193 0.00385107 0.013042 0.0127973 0.0114962 0.00298406 -0.000568323 -0.00484421 -0.00534857 -0.00618653 -0.00765165 -0.00258342 -0.00683129 -0.00117889 -0.00994544 -0.00627217 -0.000751902 0.0038735 -0.00617412 0.00606924 0.00774114 0.00899888 0.0033125 0.00913919 0.00456972 0.00922806 0.00453608 0.00525773 6.74409e-05 0.00393451 0.013296 0.00732603 0.0118906 0.00501613 0.00427946 -0.00277109 -0.00035439 -0.00451865 -0.00818863 -0.00683239 0.00124117 -0.00179011 -0.00112203 0.0051545 0.00362525 -0.00251549 0.00301443 0.000208828 0.00419819 0.00925913 -0.000169789 0.0012672 0.000544098 0.0091812 0.00329897 0.00217716 0.00312031 0.00851556 0.00977691 0.00766455 0.00623687 0.000478783 8.04268e-06 0.00123618 0.000691914 -0.00270221 0.000480817 -0.00461104 0.00380801 -0.00207872 0.000872516 0.00797432 0.00218004 -0.00105634 -0.000930014 -0.00160197 0.000342095 0.00310527 0.00512771 0.00620063 0.005469 0.00401976 0.0042268 0.00961134 0.00577863 0.00421936 0.0135234 0.0162448 0.00892758 0.00321998 -0.000665091 -0.00386746 0.00152051 -0.00475757 -0.00632635 -0.00725904 -0.00838511 0.00240809 0.00327374 0.000677813 -0.000824602 -0.00487627 -0.0071131 0.00316094 0.00513803 0.00268971 -0.00221654 0.00317489 0.00790014 0.00876289 0.00319588 0.00154639 0.00155207 0.00743987 0.00733381 0.00498452 0.0123833 0.00658416 0.00251058 -0.002324 -0.00648211 -0.00811774 -0.00573052 -0.00374318 -0.00341043 -0.000236135 0.000988002 -0.00588735 -0.0111884 -0.00695716 6.47547e-05 0.00198642 -0.00230496 0.00596722 0.00539035 0.00995904 0.010294 0.000824742 0.0014433 0.00134021 0.00674873 0.00758794 0.00611686 0.00989546 0.0143601 0.0150765 0.0132927 0.00685406 0.00731112 0.00826731 0.000949684 0.00702757 -0.00605902 0.000350536 -0.00538869 -0.00262289 0.000271052 0.00463177 -0.00580728 0.00159592 0.00410466 0.005626 0.00716807 0.00780288 0.00831633 0.00608247 0.00268041 0.00752577 0.0046548 0.0054698 0.00828473 0.00396825 0.00672178 0.0081768 0.00245205 0.0102413 0.00444237 0.00137948 0.00872185 0.00246818 -0.00788069 0.0011958 0.00129028 0.00207698 -0.0054788 -0.00752329 0.0030967 0.00694152 0.00329071 0.00682305 0.0070475 0.00327812 0.00193645 0.00257732 0.00360825 0.00639175 0.00988585 0.00525507 7.16912e-05 0.00702707 0.00305708 0.00889886 0.00767943 0.00403638 0.00496982 0.00760589 0.00614624 -0.00464323 -0.00573516 0.0078814 -0.00405852 -0.00388408 -0.00270901 -0.000493492 0.00332439 0.00122682 -0.000378641 0.00415816 0.00574075 0.0087792 0.00371311 0.00536082 0.00835052 0.00474227 0.00968988 0.00588011 -9.03592e-05 0.00212669 0.00441845 0.00196151 0.00169434 0.00280433 -0.00171155 0.00087403 0.000642617 -0.000650148 0.000338951 -0.00230628 -0.00339418 0.00135837 0.00023921 -0.000159742 0.0013357 0.0054667 -0.000550417 0.000540559 0.00479866 0.0067026 0.00742456 0.000721649 0.00515464 0.00618557 0.00876289 0.00948404 0.00312634 0.0076449 0.00409516 0.00253221 -9.05954e-05 0.00858076 0.00555377 0.000970247 0.00143409 0.00137364 0.00512383 0.00844968 0.000610332 0.00627555 0.00863644 0.00292912 0.00132144 0.00955694 0.00325213 0.00243599 0.0101026 0.0071134 0 0.00123711 0.00917526 0.00845361 0.000515464 0.00134021 0.00742268 0.00350515 0.00144188 0.00657967 0.00611164 -0.00028721 0.00991257 0.00720418 9.80986e-05 0.0020384 0.00745744 0.00242226 0.0011133 0.00942225 0.00965875 0.000727842 0.00210374 0.00922649 0.00366766 0.00591757 0 0.0057732 0.00845361 0.00556701 0.00896907 0.00494845 0.000721649 0.00752577 0.0102062 0.00412371 0.00123711 0.01 0.00154639 0.00278351 0.00876289 0.00814433 9.80093e-06 0.0101475 0.00476784 0.00556808 0.00371134 0.00134021 0.00164948 0.00659794 0.00206186 0.000206186 0.00824742 0.00195876 0.00154639 0.00216495 0.00845361 0.00948454 0.0071134 0.00927835 0.0042268 0.00824742 0.00237113 0.00463601 -7.57743e-05 0.0072938 0.00605654 0.00499327 0.00569535 0.0100915 0.00798027 0.00247575 0.00277266 0.00464937 0.00636067 0.00727059 0.00408855 0.00880532 0.00832651 0.00266258 0.0012087 0.00618397 0.00659794 0.00350515 0.01 0.000206186 0.00876289 0.00907216 0.00247423 0.00834563 0.00566842 0.0094825 0.00894174 0.00501479 0.00118506 0.0109917 0.00560076 0.00837655 0.00136828 0.00626331 0.000419786 0.00428935 0.00187323 0.0031321 0.00476773 0.0100704 0.00387314 0.00756412 0.00585777 0.00371196 0.00525773 0.00515464 0.00536082 0.0102062 0.00195876 0.00958763 0.00690722 0.00081033 0.00681731 0.00419156 0.00662524 0.00720571 0.00692947 0.00148252 0.00479718 0.000996957 0.00776321 0.00501643 0.00333889 0.00953164 0.0075576 0.00721231 0.00300462 0.00237331 0.00541697 0.00494033 0.00998414 0.00833456 0.000917846 0.00349463 0.00949914 0.00164948 0.01 0.00721649 0.00680541 0.00897078 0.00192791 0.00243568 0.00654629 0.010313 0.00507257 0.0104276 0.0034239 0.00437287 0.00910558 0.0026457 0.00862008 0.00394812 0.0023563 0.00668429 0.00951499 0.00560617 0.00564081 0.00456167 0.00903235 0.00327391 0.00108138 0.00392052 0.000496458 0.00607333 0.000927835 0.000309278 0.00227294 0.0011427 0.00846756 0.00626956 0.000594971 0.00906146 0.00228361 0.00979091 0.00944255 0.00807338 0.00392299 0.00107921 0.000519501 0.000416055 0.0032362 0.000768415 0.00570322 0.0089986 0.00491187 0.00477119 0.00686495 0.00459882 0.00136342 0.00434913 0.00250097 0.00730531 0.00453608 0.00350556 0.00179983 0.00594709 0.00785095 -0.000105878 0.00402897 0.00695067 -0.00143833 -0.00042198 -0.00172298 0.000503878 -0.00529436 -0.00321816 -0.00967798 -0.00205037 -0.0104364 -0.0100078 -0.00911904 0.00579448 0.00252713 -0.00260551 0.0016581 0.00689023 0.00742413 0.00405989 0.0097232 0.00489016 0.00958763 0.000734531 0.00690452 0.00376885 1.82952e-06 0.00419507 0.00141664 -0.00170094 0.00467758 -0.00461521 -0.00595708 -0.00488344 -0.00382271 -0.00590901 -0.00793418 -0.0133096 -0.00825768 -0.0131559 -0.00900407 -2.71219e-06 0.00530567 0.0038884 0.000130424 0.00254583 0.00368055 0.00389832 0.00603598 0.0067265 0.00123847 0.00363305 0.00421514 0.00460405 0.00314538 0.00594351 0.000477219 0.00274641 -0.00273671 -0.00602523 -0.00781172 -0.00762327 -0.00772752 -0.00640379 -0.00152441 -0.00588911 -0.00694279 -0.0110083 -0.00643233 0.00245633 0.000187453 0.00505802 0.00399994 0.00566248 -0.00144284 0.00266099 0.00626949 0.00833427 0.00556701 0.00302267 0.00924952 0.00982063 0.00758509 0.00104913 0.00432526 -0.00457082 -0.00165736 -0.00553065 -0.00745111 -0.00764979 -0.000373768 0.00247367 0.00242754 -0.00147842 -0.00361451 -0.00104899 -0.00449088 -0.00159613 0.00136133 0.00402974 0.0015684 0.000131117 0.00219391 5.77714e-05 0.00024458 0.0055998 0.00938144 0.00255916 0.00699557 0.00222452 -0.00178297 0.00385676 0.00367835 -0.00397678 -0.00972748 -0.00881885 -0.00890777 -0.0082655 -0.000779193 0.00222924 0.00350477 0.00596422 -0.00194299 -0.000411787 -0.000645231 0.00541615 -0.00226685 -0.00371639 0.00234828 -0.00378332 0.00593542 -0.000173084 0.00860574 0.00772315 0.00103093 0.00269296 0.00265648 0.00906203 0.00674203 -0.00163147 -0.00407753 -0.00905176 -0.00833797 -0.0081933 -0.00877635 -0.00257666 -0.0016401 -0.00296299 0.00139952 0.00248087 -0.00384845 -0.00141616 -0.00917627 -0.00344395 -0.00823131 -0.00272586 -0.000282958 -0.0021024 0.00680505 0.00788704 0.00111962 0.003502 0.0071134 0.00474962 0.00611244 0.00487643 0.00605268 0.00381219 -0.00336171 -0.00404636 -0.00374012 -0.00247848 -0.00711083 0.00211545 0.000153533 0.00256414 0.00342777 3.31895e-05 -0.00892915 -0.00601948 -0.00288934 -0.00507074 -0.0029789 -0.00492043 0.00175687 -0.00131192 0.00230661 0.00646989 0.00785868 0.00342212 0.00268041 0.000823907 0.00468669 0.00308253 0.00626611 0.00322529 -0.00657499 -0.00842635 -0.00435516 0.00294554 -0.00157135 -0.000173112 0.00121623 -0.00171727 -0.00557602 -0.00854952 -0.011485 -0.0101595 -0.00540054 -0.0113078 -0.00588541 -0.00055111 -0.00358391 0.000619826 0.000893474 0.00613416 0.00477871 0.0063417 0.01 0.00692246 0.00673957 0.00395105 0.00243174 0.00257651 0.000910315 0.00280129 0.000919392 -0.00090385 0.00296523 0.00118892 0.00310534 0.000403324 -0.00138527 -0.00817474 -0.00636337 -0.00613572 -0.000180078 -0.00410856 -0.00186952 0.00541249 0.00156862 0.00559647 0.0107409 0.0047392 0.00624862 0.00856422 0.00649485 0.00467356 0.00553629 0.00424226 0.00475429 0.00594083 0.00671264 0.00589706 -0.000624294 0.005104 0.00191358 -0.00163051 0.00240668 -0.00199955 -0.0113341 -0.00365764 -0.0096372 0.00197821 0.00274464 0.00495336 0.00395963 0.00159085 0.0078318 0.00640552 0.0084114 0.00292024 0.0109186 0.00253564 0.00340206 0.00352076 0.00539706 0.00722141 0.000971297 0.00875778 0.00568455 -0.00198525 0.00320461 0.00573466 0.00177776 0.00370865 -0.00576865 -0.00121152 -0.00358514 -0.00271548 -0.00258852 0.00293694 0.00797014 -0.000234417 0.0051021 0.0104551 -0.000357184 0.00174095 0.00518559 0.00122134 0.00614905 0.00358533 0.00948454 0.00309837 0.00605873 0.00293633 0.00879139 0.00764172 0.00383612 0.00318795 0.00688776 0.0060832 0.00396556 -0.00219773 -0.00246522 0.00403743 -0.000919008 0.00529206 0.00126877 0.00573237 0.00946779 -0.00116839 0.00829905 0.00969125 0.00169562 7.98784e-05 0.0016694 0.00474904 0.00585065 0.00323226 0.000824742 0 0.00419913 0.00272404 0.00539396 0.00257245 0.00478308 0.00577318 0.00173126 0.00295606 0.00193093 0.00473909 0.000833642 0.00435806 0.00649035 0.00344627 -0.000713436 0.00751625 0.00449263 0.00304695 0.00385323 0.00328262 0.00193048 -0.000447352 0.0109191 0.00862584 0.00777969 0.0071572 0.00371134 0.000817665 0.00848065 0.0009756 0.0113208 0.0131041 0.0106602 0.00757835 0.00121036 -0.000182915 0.00392857 0.0023329 0.00290627 0.00146717 0.0101331 -0.00322266 -0.000784452 -0.00280128 0.000624804 0.00691395 0.00696566 -0.0012945 0.00326975 0.00151515 0.0103711 0.00743626 0.00131241 0.00320256 0.00639175 0.00729366 0.00501689 0.00748767 0.00182124 0.00483616 0.00405929 0.0042944 0.00510083 -0.00275874 0.00410304 0.00162659 0.0025471 0.00203084 0.00275613 -0.00615635 -0.00079578 0.00476724 0.00261249 0.00269236 -0.000263055 0.00290633 0.00926103 0.00976222 0.00365659 0.00892011 0.0080922 0.00628866 0.00701031 0.0057732 0.00174448 0.000813843 -2.59503e-05 0.00949211 0.00429947 0.00424605 0.000714596 -0.000889214 -0.000290833 -9.75113e-05 -0.00634225 -0.00562983 -0.000878351 -0.00644836 0.00158847 -0.00640215 -0.00282004 0.00910142 -0.000580405 0.00353521 0.00726185 0.009862 0.00687903 0.00430736 0.00594479 0.00618557 0.00257732 0.00185567 0.00615777 0.00434603 0.00701117 0.000985246 0.00280028 -0.001423 -0.00120791 0.00195467 -0.00115338 -0.00213428 -0.00483816 -0.000472914 -0.00254665 -0.00689317 -0.00278146 -0.00292195 0.00324908 0.00692169 0.00584649 -0.000770078 0.00185786 0.00442563 0.00430369 0.000977893 0.00747484 0.00938144 0.00154639 0.00948454 0.00139785 0.00821637 0.000681817 0.00784554 0.00223394 0.00637617 0.00155411 -0.00266425 0.00102235 -0.00289299 -0.00526634 -0.00719422 -0.00447049 -0.0101085 -0.00224615 -0.0057173 -0.00476358 0.00505777 0.000140487 0.000929992 0.00411973 0.00918765 0.000503989 0.00901395 0.000574512 0.00927835 0.00536082 0.00268041 0.00864393 0.00110746 0.00457502 0.00661994 0.00845777 0.00507954 0.00420404 0.00261021 0.00206886 0.00299877 -0.00330806 1.4811e-05 -0.00494419 -0.00592028 -0.00134519 0.00744541 0.00604755 0.00242996 0.00489614 0.00593886 -0.000566756 0.00251117 0.00910963 0.00973247 0.0079438 0.00154639 0.00525773 0.00556701 0.0010297 0.00990473 0.00138272 0.00247004 0.00322748 0.0092171 0.0014522 0.00111681 0.000512603 0.00677232 0.00137572 -0.00418365 -0.00386922 0.00504948 0.00400615 0.00736345 0.00718421 0.00679219 0.00336598 0.000106541 0.00627974 0.00447056 0.00900377 0.00330399 0.00773797 0.00762887 0.00628866 0.00917526 0.00278351 0.0102052 0.00657857 0.00717704 0.00593265 0.00202737 0.00589923 0.00627181 0.00378774 0.00803847 0.00832439 0.00296965 0.0042215 0.00275628 0.00190374 0.00580103 0.00331147 0.0068512 0.00567108 0.00961846 0.0047114 0.00135605 0.00133806 0 0.00979381 0.00845361 0.00587629 0.00309278 0.00814433 0.00175258 0.00103093 0.00731959 0.00401162 0.00249031 0.00288831 0.000127304 0.00443627 0.00672548 0.0044381 0.00103791 0.00209281 0.00613695 0.00873675 0.00579578 0.000268838 0.00757366 0.00205498 0.00837388 0.00443315 0.00154767 0.00360825 0.0028866 0.000206186 0.00742268 0.00670103 0.00896907 0.000515464 0.00237113 0.000103093 0.00113402 0.0014433 0.00402062 0.0056701 0.00701031 0.00886598 0.0085567 0.00772335 0.00633243 0.00450266 0.00422971 0.00618557 0.00371134 0.00443299 0.00360825 0.00804124 0.00845361 0.00938144 0.00969072 0.00103093 0.00886598 0.00752577 0.00278351 0.00670103 0.00278351 0.00701031 0.00278351 0.00103093 0.00762904 0.00340792 0.000207009 0.000781688 8.1514e-05 0.0091974 0.00931289 0.00673878 -0.00152239 -0.00111848 -0.000872764 0.00325067 0.00584286 0.00917406 0.00641672 0.00423388 0.00436115 0.00163816 0.00835005 0.0101031 0.00237113 0.00505155 0.01 0.00257732 0.00443299 0.000103093 0.00970231 0.00712064 0.00182244 0.00234595 0.00226117 0.00798574 0.00796204 0.00388148 0.0028993 0.00560828 0.00414684 -0.00022826 -0.00517539 -0.00800188 -0.01769 0.000113189 0.00697622 0.0118251 0.00939151 0.0035876 0.00670069 0.00917526 0.0056701 0.00670103 0.00412371 0.00257732 0.00298969 0.00876289 0.00194979 0.00336106 0.00122588 0.000722611 0.000322976 0.00462272 0.010572 0.00460144 0.00415711 0.0267346 0.0363716 0.0525122 0.0455516 0.035502 0.0268201 0.00776438 -0.0077794 -0.0145314 -0.00527329 0.00175902 0.00536271 0.00655531 0.000411481 0.00368518 0.00659794 0.00783505 0.00876289 0.00783949 0.00432553 0.0058375 0.0055599 0.00492988 -0.00156111 0.00365525 0.000903538 0.00395906 0.00955614 0.0293034 0.03979 0.0478954 0.0703387 0.0834234 0.0721555 0.0314352 0.0114223 0.0043294 -0.00279671 0.00267846 -0.0123197 -0.00431714 -0.00477944 0.00706851 0.00894594 0.00958763 0.00268041 0.00259424 0.00688268 0.00143414 -0.00632807 0.00120783 0.000505412 -0.0117028 -0.0130808 -0.0182689 -0.0208719 -0.00524311 -0.00427192 0.0036842 0.0299887 0.0375748 0.0357883 0.0448485 0.0463822 0.0336518 0.0366954 0.020801 -0.00524887 -0.00804998 0.00534073 0.00665327 0.00891828 0.00515464 0.00989787 0.0084914 0.00328471 -0.00161537 -0.000578806 -0.00545809 -0.005934 -0.0144925 -0.0249284 -0.0298619 -0.014011 -0.0145101 -0.019164 -0.0422639 -0.0261271 -0.0165119 0.0030237 0.00858527 0.00586498 0.00554579 0.0377874 0.0286796 -0.00587224 -0.000420851 -0.0036939 0.0060059 0.000179632 0.00649485 0.00976592 0.00844802 0.00255344 0.00709978 -0.00282319 -0.00580565 -0.00273851 -0.0112084 -0.00918022 -0.0140095 -0.00719167 -0.0210067 -0.036608 -0.0567841 -0.0484407 -0.0478696 -0.0181109 0.00795047 0.0401307 0.00977983 0.0208412 0.0261935 0.00915331 -0.000659971 -0.00181111 0.00621541 0.00968969 0.00418657 0.000738062 0.00444473 0.0087382 0.00354513 -0.000372511 -0.00576552 -0.00634934 -0.00511963 -0.0038382 -0.0208827 -0.0496095 -0.0527964 -0.0621781 -0.0305593 -0.0219263 -0.0251831 -0.0285199 0.0237736 0.0415804 0.0319637 0.0312328 0.0218972 0.0149806 -0.0139403 -0.00384269 0.00549411 0.00708291 0.00154639 0.00824428 0.00335808 0.00895613 -0.00102456 -0.0088913 -0.0146394 -0.0202044 -0.0157393 -0.023179 -0.0411388 -0.0603017 -0.0405894 0.000852325 6.46994e-06 -0.00610769 -0.013267 -0.021434 0.0090358 0.025125 0.02989 0.0334269 0.0396376 0.0225877 0.00493554 -0.000256735 0.00838209 0.00730439 0.00690722 0.0067831 0.00363235 0.010883 -0.00671688 -0.0135381 -0.00447658 -0.0118084 -0.0144234 -0.0157984 -0.0180827 -0.00795442 0.0137723 0.0187002 0.0176848 0.00360426 -0.00803681 -0.0211143 -0.0187749 0.00265246 0.0142729 0.0229222 0.051356 0.0215335 0.00406791 -0.00263581 0.00467164 0.00555667 0.00309278 0.00851397 0.00651751 0.000391369 -0.00508316 -0.011511 -0.0139961 0.00281957 0.0025133 0.016813 0.0245993 0.0267919 0.00547304 0.0152154 0.0173998 -0.0170413 -0.0322453 -0.0337753 -0.0474306 -0.0185041 -0.00690698 0.006038 0.0452803 0.0158684 0.00395589 0.00203506 0.00482177 0.0050632 0.00298969 0.00578862 0.000702605 0.00883275 -0.00918315 -0.0120703 -0.00274457 0.00174471 0.0296521 0.0325632 0.0332566 0.0240543 0.00852575 0.00365048 -0.0093625 -0.0400045 -0.0469087 -0.0378854 -0.0380019 -0.033906 -0.0207854 0.00167308 0.0326 0.0114797 0.00411102 0.00730225 0.00763966 0.000463407 0.00453608 0.00496828 0.00753462 0.00101771 -0.00921596 -0.0101273 -0.0165655 -0.0026469 0.0201386 -0.00181179 -0.00824532 -0.00143425 -0.0201368 -0.0234796 -0.0283751 -0.0315578 -0.0317405 -0.0487468 -0.0475487 -0.015087 -0.00134534 0.0105012 0.0153826 0.0142159 -0.00775593 0.00779425 0.00109098 0.00838646 0.00175258 0.00306018 0.00378008 0.00835143 -0.0039433 0.00903431 -0.0126698 0.00335874 0.00286097 -0.00288366 -0.0376969 -0.0281365 -0.0265916 -0.00644197 -0.0198058 -0.0443263 -0.0462116 -0.0280594 -0.0290164 0.0038003 0.00379755 0.0129903 0.0209273 0.000408543 -0.00543531 0.00331937 0.00792594 0.0012458 0.00412371 0.00909337 0.00461477 0.0119987 0.0153685 0.024553 -0.00748447 -0.0180402 -0.00555096 -0.00566556 -0.0310192 -0.0345494 -0.000250904 -0.00269328 -0.0269077 -0.0367651 -0.0449645 -0.0346118 -0.00437164 0.0155623 0.00516676 0.00863113 0.00328159 -0.00651783 0.00263656 0.000780103 0.00652013 0.000580514 0.000103093 0.00411721 0.000712482 0.00767631 0.0362916 0.0287653 -0.0259835 -0.00308409 -0.00187186 -0.0160784 -0.0230873 -0.00175937 0.00826084 0.00525615 -0.0130881 -0.0239478 -0.0228954 -0.00650895 0.0203252 0.0100228 0.00648944 -0.010423 -0.00528309 -0.00327011 -0.00506088 0.00401309 0.00355882 0.00512219 0.0071134 0.0101255 0.00348062 0.00382022 0.0371146 0.0154155 0.00503471 0.0177443 0.00920728 -0.0187061 -0.00279696 0.00526173 0.000489648 -0.016255 -0.0271945 -0.033118 -0.0191641 -0.00159681 0.0139561 0.0155178 -0.0262353 -0.0189879 -0.00723066 -0.00751378 -0.00251457 0.00883063 0.00727808 0.00947213 0.000515464 0.000721649 0.00662856 0.015363 0.0218923 0.0168859 0.00989439 0.0253667 0.0281115 0.0221579 -0.000614619 -0.00735369 -0.01935 -0.0389936 -0.0292383 -0.00291893 0.0194775 0.0141181 0.0250098 -0.0162628 -0.022431 -0.00215265 0.00440095 -0.0104992 0.00121585 0.00187735 0.00387329 0.00127393 0.00670103 0.00301487 0.00483493 0.00197879 0.0229949 0.0328745 0.00983106 0.0181626 0.0269503 0.0282447 0.00171391 -0.0051772 -0.00588423 -0.013218 0.0115262 0.0122469 0.00163581 0.0192969 0.000685035 -0.021232 -0.0217108 -0.0164014 -0.0114722 -0.00415914 -0.000281755 0.00800157 0.00402615 0.00309867 0.00453608 0.00158744 0.00920261 0.0196733 0.0187939 0.0192694 0.00220811 0.00298483 0.0224764 0.0339544 0.0186569 0.0194028 0.0265928 0.0260398 0.0337904 0.0141001 0.00593928 -0.00141504 -0.0116365 -0.0203213 -0.0264328 -0.0311132 -0.0248929 -0.0140554 0.00370774 0.00274088 0.00640932 0.00350515 0.00907216 0.000618557 0.00759681 0.0199994 0.0155595 0.00459809 -0.000810907 -0.00844402 0.023444 0.00712196 0.0158569 -0.00621612 0.000694222 0.0110221 0.0388982 0.0347045 0.00864131 -0.003857 -0.0147917 -0.00026971 -0.0256651 -0.0266186 -0.0265201 -0.00666951 0.00493725 0.0089546 0.0071941 0.0028866 0.00907216 0.00948454 0.00535809 0.01796 0.00321774 0.0107788 0.0142232 0.00294752 -0.00446769 -0.0143235 -0.0129506 0.00277661 0.0245314 0.0456239 0.0272701 0.0160988 -0.00988367 -0.00625054 -0.00238264 -0.0155576 -0.0194288 -0.0277048 -0.0100984 0.00607565 0.00587071 0.0077291 0.00767778 0.00195876 0.000309278 0.000927835 0.00661822 0.00546229 -0.00072171 0.00641904 0.0127233 0.00491431 0.00126442 0.00842575 0.0227799 0.013755 0.00399626 -0.00763681 -0.0195329 -0.0250912 -0.0409134 -0.0271717 -0.0175964 -0.0168803 -0.00540938 -0.00231253 0.00933566 0.00168299 0.00148494 0.00387195 0.00471985 0.00587629 0.000412371 0.00618557 -0.00132681 0.00349198 3.5482e-05 0.00039568 -0.00223404 0.00567193 0.00361233 0.00210484 -0.00154374 -0.0133313 -0.0194995 -0.02512 -0.0282924 -0.0132243 -0.0226071 -0.00383738 0.00310185 0.00268976 -0.000101034 0.0022086 0.00755823 0.00671346 0.00576982 0.00801779 0.00578166 0.00195876 0.00123711 0.000206186 0.00989711 0.00526821 0.00529309 0.00110592 -0.00113704 0.00348725 -0.00148733 0.00360934 0.00508156 -0.00217277 -0.00647389 -0.00947517 0.000113334 -0.00249843 0.0018088 0.00190106 0.0036687 0.00172021 0.0036787 0.00430002 0.00574248 0.00183209 0.0070028 0.00732711 0.00918426 0.00742268 0.00690722 0.00927835 0.00412371 0.00463936 0.000173948 0.00642527 0.00132774 0.00215969 0.00722399 0.00301312 -0.000520003 0.00362299 0.0043748 0.00497842 0.000463862 0.00381977 0.0012551 0.00568764 0.00806281 0.00802493 0.00239673 0.00892076 0.00834022 0.00267313 0.00175442 0.0102062 0.00773196 0.00195876 0.00226804 0.0028866 0.00896907 0.00195876 0.00824742 0.00103093 0.00725607 0.00858077 0.00226617 0.00644073 0.00144033 0.00506972 0.000713013 0.00572311 0.000893307 0.00705765 0.00396624 0.0102885 0.000959866 0.00565429 0.00349611 0.00435052 0.00691511 0.00424935 0.0043299 0.00670103 0.0043299 0.00608247 0.00659794 0.00402062 0.00804124 0.000515464 0.00391753 0.00659794 0.000618557 0.01 0.0014433 0.00762887 0.00649485 0.00134021 0.000831462 0.00115412 0.000418367 0.00237138 0.00969072 0.00969072 0.000206186 0.00154639 0.00340206 0.00731959 0.00309278 0.00175258 0.00340206 0.00412371 0.00618557 0.00103093 0.00731959 0.0101031 0.00907216 0.00123711 0.00752577 0.00371092 0.00724916 0.000148479 0.00453248 0.00535775 0.00800201 0.00363549 0.00652724 0.00129126 0.00689232 0.00246262 0.00568734 0.00380422 0.00059498 0.00575192 0.00143426 0.000819796 0.00421514 0.0074217 0.00113402 0.00546392 0.00865979 0.000515464 0.0101031 0.00216495 0.00989691 0.00103225 0.00185612 0.00121259 0.00372703 0.00964798 0.00105757 0.00449046 0.00805274 0.0054897 0.000471975 0.00960515 0.00270309 0.00421078 0.00718568 0.00367694 0.00876628 0.00940014 0.00344708 0.00383273 0.00477765 0.0051585 0.00814433 0.00123711 0.00474227 0.00402062 0.00257732 0.00463918 0.00649485 0.00289022 0.00980042 0.00115351 0.00295348 0.00794227 0.00489099 0.00443657 0.000633281 0.00706194 0.00704311 0.00957205 -0.000150462 0.00339118 0.00928719 0.00520295 0.00792282 0.0068072 0.00923332 0.00746729 0.0102631 0.00245234 0.00952221 0.000779057 0.00566387 0.000824742 0.00824742 0.000824742 0.00649539 0.00989251 0.00205019 0.00898902 0.00733504 0.00250817 0.00589894 0.00558056 0.00355935 0.000967978 0.000527159 0.00142419 0.00434899 0.0074747 0.00713133 0.00146623 0.00205282 0.00148383 0.00491249 0.00429617 0.00585526 0.00161191 0.00473309 0.00124239 0.00770934 0.00577352 0.00886598 0.0071134 0.00165157 0.0039653 0.00365958 0.0018472 -0.00158222 -0.00199155 0.00504545 -2.38705e-05 0.000371475 -0.00154865 -0.00552696 0.00256433 0.000535369 0.000523613 -0.00353826 3.37535e-05 -0.0035042 0.00563244 0.0052917 0.00566511 0.00613598 0.00981859 0.0060291 0.00826928 0.00535431 0.000310067 0.00618557 0.00319596 0.00804056 0.00166131 0.000775212 0.00218676 0.00323341 0.00648837 0.00370391 0.000419791 -0.00192447 0.00299174 0.00207259 -0.00184296 -0.00048579 -0.000283464 -0.00421208 -0.00106642 -0.00679883 0.00201652 0.00276894 0.00243793 0.00603013 0.00656773 0.000435057 0.00736872 0.00579486 0.00395033 0.00927835 0.00915634 0.00522224 0.0012054 0.00640878 0.000192947 0.00165561 0.00288562 0.00308048 0.000596032 0.00284779 -0.00373536 -0.00545447 -0.000799847 -0.00270781 -0.00961962 -0.00872929 -0.00455954 -0.00984712 0.000984298 0.000193473 0.000249945 0.00463575 0.0089813 0.00403159 0.00423567 0.007635 0.00651393 0.00466199 0.00311219 0.00929709 0.0020874 0.00221242 0.00155385 0.00198692 0.00385556 -0.00168847 -0.00329862 -0.002927 -0.000308322 -0.000208357 0.000169623 -0.00480726 -0.00388177 -0.00795474 -0.00799095 -0.00929253 -0.00057301 -0.00256552 0.00180443 -0.00123591 0.00995233 0.00561965 0.00494388 0.0066796 0.00587402 0.000309278 0.00414813 0.006076 8.20143e-05 0.00247411 0.00636316 0.00434663 -0.00259312 0.00114093 -0.00220271 -0.00416044 -0.00401786 -0.00185888 0.00436851 -0.00445329 0.0011176 -0.00282682 -0.011406 -0.00877586 -0.00251846 -0.00335388 -0.0029965 -0.000516088 0.00900738 0.000672795 0.00500375 0.00125559 0.00907952 0.00608247 0.00535315 0.00419016 0.00282327 0.00488787 0.00613026 0.00607663 0.00171166 0.00540266 -0.00295424 0.000115136 -0.00100472 0.00146552 -0.00235386 -0.00114596 -0.00443488 -0.0074263 -0.00503219 -0.00406209 -0.00378339 0.00151601 3.61275e-05 -0.00112047 0.0072424 0.00444218 0.00375008 0.00656681 0.0061874 0.000824742 0.00961977 0.00274766 0.00314813 0.00603641 -0.00128476 -0.00114771 0.00684512 0.00378324 -0.000419977 -0.00344492 0.00500187 0.000223525 -0.00329628 -0.0068195 0.000246493 -0.00793455 -0.00568066 -0.00371694 -0.00025111 -0.00425012 -0.00276143 0.00369472 0.00701818 0.00826463 0.00478883 0.00306199 0.00938119 0.0042268 0.00629991 0.00729094 0.00652068 0.000999823 -0.00240327 0.00544672 -0.000171448 0.00368051 -0.00142512 -0.00217363 0.000911489 0.00307919 0.00143992 -0.0044786 -0.00170935 -0.0105854 -0.00874213 -0.0017977 -0.00661392 -0.00162967 0.00117452 0.00397141 0.00269494 0.00998994 0.000869812 0.00222126 0.0064918 0.00340206 0.00567605 0.000377681 0.00465083 0.00570064 0.00129599 0.000856597 0.00166432 0.00194828 0.000745374 -0.00345966 -0.000674101 0.00463419 0.0033959 -0.00865976 -0.00646106 -0.00596576 -0.00573995 -0.00180441 -0.00882619 -0.00663179 0.00427262 0.000816799 0.00539483 0.00806766 0.00457733 0.00735891 0.00155076 0.00371134 0.00195539 0.00964469 0.00735063 0.00165101 0.0089565 -0.00112997 -9.60298e-05 0.00596983 0.0031084 0.000583351 0.00173384 -0.00738916 -0.00771451 -0.00656054 -0.0118942 -0.00541097 -0.00601563 -0.000835463 -0.00661185 -0.00192369 0.00696818 0.00432566 0.0104279 0.0121757 0.00346437 0.00662405 0.00556916 0.00907216 0.00359463 0.004897 0.00545872 0.00219054 0.000925029 0.00478787 0.00446433 0.00552534 -0.00192165 0.0016051 -0.00226766 -0.00871174 -0.00783528 -0.00414864 -0.00340044 -0.0127974 -0.00419711 -0.00499939 0.00109415 -0.00448799 8.7342e-05 0.00211734 0.00908843 0.0029066 0.00538041 0.00574589 0.00147891 0.00247423 0.00679588 0.00165822 0.00722253 0.00944684 0.00921713 0.00189245 0.000762196 0.00307607 0.0019161 0.00566312 0.00265799 -0.00351179 0.000766405 0.000757829 -0.000369044 -0.00645683 -0.00683362 -0.00167335 -0.00209262 0.00554428 0.00265559 0.00976924 0.00869 0.00159758 0.000881416 0.00118677 0.00206175 0.00907216 0.000513138 0.00248341 -9.47268e-05 0.00131001 0.00590191 -0.00152483 0.00369446 -0.00305339 0.0013823 0.00606375 0.00513294 -0.000457329 -0.000313236 0.00131658 0.00205137 -0.00926817 -0.00825263 0.00135318 0.00105172 -0.0017296 0.00592427 0.00252631 0.00476907 0.00183382 0.00524502 0.00302349 0.00621959 0.00659794 0.00226804 0.00753493 0.00403629 0.00180093 0.00458899 0.00150876 0.00196116 0.00504583 0.000395954 0.00856347 0.00551351 0.00598175 0.00334425 0.0065527 -0.00419824 -0.000740291 -0.00327299 -2.77789e-05 0.00553243 0.00681542 0.00453678 0.00261631 0.00363925 0.00249652 0.00749748 0.00188289 0.0100065 0.00886598 0.000214692 0.00176549 0.00355547 0.00326489 -0.0013418 0.00624585 0.00254423 -0.00335537 0.00599061 0.00792357 0.00338803 0.00682769 0.0068382 0.00603754 0.000854687 0.00501288 -0.000432507 0.00659942 0.00260024 0.00502783 -0.00238353 -0.000142777 0.00327975 0.000411088 0.0100503 0.000752569 0.00793568 0.00113402 0.00547592 0.00890722 0.00951595 0.00534492 0.00397325 0.00501824 -0.00413627 -0.00254085 -0.00199663 -0.00248417 -4.34961e-05 0.00877951 0.00226405 -0.00270509 -0.00129488 0.00277945 0.00144733 0.00252266 0.00382775 -0.00155178 0.00629472 0.00112523 0.00358457 0.00324644 0.00153856 0.00211769 0.00628866 0.00546392 0.0071134 0.0046359 0.00573537 0.00523848 0.00647591 -0.00110804 -0.00398883 -0.00517329 0.00179584 0.00200496 -0.00152744 -0.00461211 -0.00483391 -0.0035682 -0.00317005 0.00118285 -0.00177934 -0.00110247 -0.0035465 0.000450433 -0.00364836 0.00245531 0.0033296 -0.000710902 0.00497789 0.00497532 0.00793814 0.00938144 0.00701031 0.00120576 0.00274063 0.00261502 0.000199444 0.00323664 0.00537395 0.0010443 0.00334137 0.00126089 0.00131427 0.00172101 -0.00102743 -0.00938538 -0.000113393 -0.00555449 -0.000664039 -0.00260399 0.00532569 0.00360722 0.000740595 0.0040632 0.000416226 0.00586677 0.00949078 0.0090757 0.00113402 0.00948454 0.000618557 0.00330097 0.00758106 0.00910208 0.0022658 0.00160338 0.00488248 -0.00313449 0.00157219 -0.0051376 0.00235946 0.000778106 0.00392217 -0.00121509 0.00327725 0.00112227 -0.00093112 -0.00178099 0.00086929 0.0057418 0.000369133 0.00335133 0.0018885 0.00289017 0.00804132 7.40967e-05 0.00226804 0.00453608 0.00835052 0.00854081 0.0041925 0.00912508 0.000419125 0.00460629 0.00864414 0.00593719 -0.00096587 0.00139326 0.00523201 0.00755337 -0.00270288 -0.00581167 0.00610683 0.000703949 0.0010138 4.1959e-05 0.00486906 0.00697653 0.0051292 8.9781e-06 0.00337239 0.00365871 0.00908701 0.00309554 0 0.0057732 0.0101031 0.00865836 0.00443421 0.00764337 0.00229091 0.00794241 0.00303976 0.00470095 0.0054338 0.0067204 -0.000764686 0.00159871 0.000763857 0.00470082 -0.00051641 0.00485321 0.000596441 0.00886724 0.00690319 0.00594182 0.00576327 0.00195461 0.00010074 0.00285133 0.00340451 0.00278643 0.0014433 0.00824742 0.00298969 0.00381443 0.00639118 0.00512111 0.00946182 0.00617148 0.00110064 0.00351716 0.00243254 2.35419e-05 0.00312311 0.00238281 0.00929367 0.00404166 -0.00021121 0.00479355 0.00124721 0.00851127 0.00956093 0.00885576 0.00854369 0.0083739 0.00168773 0.00515344 0.00525773 0.0028866 0.00556701 0.00525773 0.00371134 0.00494845 0.00402062 0.00783505 0.00835052 0.00608052 0.00741529 0.00578079 0.00733591 0.00938845 0.00322475 0.00900433 0.00265674 0.00579879 0.00519548 0.00980031 0.000236105 0.00225774 0.0011082 0.00801771 0.00957995 0.00869483 0.00441546 0.0043299 0.00649485 0.00701031 0.00154639 0.00597938 0.00927835 0.00402062 0.000412371 0.00257732 0.00175258 0.00402062 0.00845361 0.00793814 0.00907216 0.00907216 0.00113402 0.000438132 0.00407659 0.0061215 0.00120869 0.00257732 0.00824742 0.01 0.00134021 0.00845361 0.00340206 0.00319588 0.00628866 0.00123711 0.000515464 0.00206186 0.00721649 0.00752577 0.01 0.00175258 0.000618557 0.000103093 0.000234199 0.0048067 0.0069631 0.00159898 0.000181691 0.00199515 0.00335066 0.00525993 0.00435521 0.0081305 0.00549132 4.04724e-05 0.00643899 0.00740388 0.0103507 0.00946419 0.00970788 0.00270377 0.00398134 0.00587629 0.00927835 0.0071134 0.000103093 0.00721649 0.00319588 0.00556701 0.00700983 0.00783489 0.00164461 0.00527278 0.00554795 0.0105419 0.0111732 0.0098249 0.00659558 0.00266059 0.0046547 0.00475194 0.0035146 0.00321323 0.00246274 0.0010045 0.00222861 0.00510288 0.0114538 0.00779459 0.00204787 0.000206186 0.00824742 0.00938144 0.000824742 0.00103093 0.00216495 0.00515464 0.00206107 0.00124035 0.00157768 0.00287572 0.00270883 0.00885487 0.00569204 0.0100851 0.0153597 0.0134206 0.00678016 0.00163758 -0.00538859 0.00097438 0.000729014 -0.0132361 -0.00558603 0.0111195 0.00592466 0.00718731 0.00847399 0.0115404 0.0040691 0.00419184 0.00701031 0.00628866 0.00835052 0.00918705 0.00206246 0.00651321 0.0103478 0.00955646 0.00857746 0.00147813 0.00254043 0.00192685 0.00205695 0.00408477 -0.00590024 -0.0163378 -0.00810551 -0.0212218 -0.0102637 -0.011069 -0.0119973 -0.0156997 -0.0176911 -0.00363742 -0.00256856 0.00394291 0.00808738 0.0100166 0.00317875 0.00340206 0.00195876 0.00942642 0.005932 0.00779305 0.00410684 0.00418011 -0.00651853 -0.0035105 -0.00446787 -0.0113837 -0.0021761 -0.00131248 -0.0231287 -0.0153784 -0.0146551 -0.00260886 0.00269439 -0.00739287 -0.0250191 -0.0179645 -0.00909937 0.00233784 0.0111406 0.00897134 0.00787484 0.00466347 0.00538538 0.0056701 0.00762903 0.00658946 0.00242644 0.00669323 0.00402063 0.00527472 -0.00931921 -0.0116111 -0.0154301 -0.0276172 -0.0132476 -0.0205787 -0.0386278 -0.0268938 -0.0105044 -0.00121465 0.00461201 -0.0125275 -0.0230702 -0.0226362 -0.0144505 0.0157249 0.0175527 0.0248827 0.026258 0.0148818 0.0061843 0.00216495 0.000820111 0.00211046 0.00106282 0.00893175 -0.000534521 -0.00686301 -0.0324535 -0.0150969 -0.0168131 -0.0205983 -0.0048457 -0.0172794 -0.0325379 -0.0282372 -0.0288865 -0.0112728 0.0032373 -0.014916 -0.0219152 -0.00379302 0.0110024 0.0150658 0.00466978 0.00859346 0.0052415 0.0106287 0.00462068 0.0098291 0.00449973 0.00252168 -0.00129756 -0.00415151 -0.0123481 -0.0119804 -0.0290348 -0.0164361 -0.0213966 -0.0114416 -0.00352992 -0.0442737 -0.0321486 -0.042123 -0.0398812 -0.0306992 0.00773234 0.0134052 0.00818217 0.00452874 -0.00743071 -0.0190537 -0.0154711 -0.00742267 0.0020596 4.35681e-05 0.00953713 0.00876289 0.00103577 0.00155223 0.00470468 -0.00787868 -0.0077466 -0.0193957 -0.0139566 -0.0284665 -0.028952 -0.0266941 -0.0128718 -0.0252584 -0.0538003 -0.0399876 -0.00250715 -0.0082945 0.0124708 0.024588 -0.00423343 -0.00544977 -0.0244002 -0.0389047 -0.0334216 -0.0146165 -0.0112867 0.0048151 0.000553127 0.0057732 0.00916228 0.00196481 -0.00409493 -0.0208567 0.000190084 0.00119683 -0.00745095 -0.0199494 -0.0277288 -0.0175201 0.00640555 -0.000261063 -0.0338627 -0.0110363 0.0366958 0.0493224 0.0256912 -0.00594149 -0.00915342 -0.0304309 -0.0332993 -0.0380044 -0.0199575 -0.00865761 -0.00464001 0.00345595 0.00024013 0.00113402 0.00561793 0.00926757 -0.00652502 -0.0180789 -0.0154443 -0.0134088 -0.0151391 -0.03255 -0.0293684 -0.00618017 0.00890581 -0.00580324 0.00685639 0.0316343 0.0382968 0.0370411 -0.0104493 -0.0305892 -0.0253868 -0.0424764 -0.0321426 -0.0178207 -0.00608143 -0.00424938 0.00346345 0.00203535 0.00460874 0.00824742 0.00713483 0.00656453 -0.00216471 -0.00650936 -0.0191312 -0.0192007 -0.0253555 -0.0326693 -0.0353663 -0.0214515 0.0105698 0.0153086 0.0440776 0.0360055 0.0057147 0.00739937 -0.0269827 -0.0162607 -0.0429605 -0.0354891 -0.0210994 -0.00618782 -0.0156911 -0.00425563 0.0129418 0.00486152 0.00844998 0.00762887 0.00484917 0.00182671 0.00408288 -0.00501163 -0.00819642 -0.0191757 -0.010297 -0.0241639 -0.0205145 -0.00501001 0.000856316 0.0157364 0.0396747 -0.000423287 -0.00790407 0.0109459 -0.0116589 -0.0088418 -0.0454942 -0.0192479 -0.0123955 -0.00157367 0.0153724 0.0192322 0.0180744 0.0118511 0.00298786 0.00515464 0.00225206 0.0100937 0.00139655 -0.00255356 0.000209428 -0.00718037 0.0036366 0.0109779 0.0346595 0.0241673 0.0163899 0.00614629 0.0133448 0.0236434 0.0339724 0.0258992 0.0203889 0.00152266 -0.0221316 -0.0122112 0.00731165 0.017452 0.02753 0.0231103 0.0176152 0.00998517 0.000872198 0.0085567 0.0012113 0.00708686 0.010734 0.00175339 0.00237879 -0.0115428 -0.00416218 0.014903 0.0429309 0.0391991 0.0192563 0.0249 0.0324248 -0.00575447 0.00941203 0.0235551 0.0151618 0.00742766 -0.0200013 -0.0253622 0.0044693 0.0171265 0.0294338 0.0294399 0.0259378 0.00922957 0.000615343 0.0014433 0.00480404 -0.000168611 0.00799814 0.000668428 -0.0102249 -0.0108421 0.00222051 0.00518933 0.0236629 0.0424539 0.0299027 0.0221949 0.0214659 0.0178471 0.0362911 0.0105389 0.0247632 -0.00772609 -0.0117085 -0.00321743 0.0287332 0.0268904 0.0169672 0.0237024 0.0343596 0.0184367 0.00450979 0.0042268 0.0102004 0.00409832 0.00362955 0.00540379 0.0164448 -0.0056678 0.00296574 -0.00324972 0.0366974 0.0493185 0.0378565 0.00559462 0.00936127 0.03133 0.041147 0.00246502 -0.00425779 0.0071019 -0.0145643 -0.00206599 0.00932532 -0.00740563 -0.003035 -0.00976385 0.0254008 0.0120803 0.00279364 0.00835052 0.0057732 0.00609665 0.00434263 0.0148381 0.026217 0.0105427 0.0271925 0.0171229 0.0379732 0.0491262 0.0124992 -0.0170275 -0.00617223 0.0415468 0.0454181 0.0180743 0.013384 0.0402011 0.0248318 0.0152406 0.0278126 0.0142903 0.0220224 0.00871844 0.0158096 0.00703943 0.00869103 0.00927835 0.00499533 0.000994237 0.00737406 0.0186139 0.0110286 -0.00758982 0.00807936 -0.000683506 0.0118811 0.00872832 -0.00934683 -0.0471167 -0.0388617 -0.009816 0.00536499 0.00860383 0.00893933 0.0346325 0.0241551 0.0196974 0.0311426 0.0348327 0.0382571 0.0313167 0.0211233 0.0143821 0.00209444 0.00824742 -0.000653476 0.00396283 0.0091922 0.012811 0.00900161 -0.0122036 -0.00727071 -0.0102817 -0.00700953 -0.0222144 -0.0304208 -0.0452961 -0.0427718 -0.0271296 -0.0369001 -0.0345233 -0.0259029 0.000838596 -0.00573872 -0.00280774 0.00103571 -0.0008984 0.0107924 0.0197415 0.013558 0.00952376 0.00824742 0.0028866 0.0043299 0.00194621 0.00810022 0.00343996 0.0037071 0.00109407 -0.00189181 -0.0156802 -0.0202623 -0.0219723 -0.0233025 -0.0354766 -0.0554966 -0.0657779 -0.0544681 -0.0493611 -0.0418736 -0.0179091 -0.0157531 -0.0102874 -0.0111487 -0.0215041 -0.0155399 0.00524836 0.000453223 0.00665811 0.000515464 0.00329897 0.00360825 0.00985476 0.00917707 0.00542785 0.0117847 0.00247685 -0.0125179 -0.0145278 -0.012974 -0.0135824 -0.0174658 -0.0430387 -0.0457252 -0.0584151 -0.0425042 -0.0413968 -0.0420992 -0.0284279 -0.0249598 -0.0176552 -0.0073632 -0.0152163 -0.0169421 0.000114 0.000346641 0.000192531 0.00690722 0.0043299 0.00639175 0.00271268 0.0057967 0.00337315 0.00792211 0.0120691 -0.00378692 -0.00589624 -0.0192351 -0.0198771 -0.0309185 -0.0433288 -0.0533656 -0.0431117 -0.0356282 -0.0340248 -0.0328391 -0.0276227 -0.0227327 -0.0185914 -0.0133972 -0.00714524 -0.0173635 -0.00716008 -0.00194784 0.00729781 0.00474227 0.00835052 0.00371134 0.00686424 0.00497541 0.00423753 -0.00170036 -0.00562997 -0.00288987 -0.0105671 -0.0224287 -0.0241651 -0.0211665 -0.0296482 -0.0324591 -0.0239354 -0.0165647 -0.0192707 -0.0220261 -0.00741699 -0.0134496 -0.0212932 -0.00490668 -0.00743454 -0.00560655 0.00134533 0.0100954 0.00398736 0.00608247 0.00886598 0.0028866 0.00442718 0.000927462 0.00236469 -0.00268445 -0.0026709 -0.00603395 -0.0101651 -0.00979525 -0.00443318 -0.0110702 -0.0109426 -0.0150111 -0.0203777 -0.000979362 -0.00459151 -0.013225 -0.0137551 -0.0174141 -0.00188025 0.00804667 0.0105735 0.00965373 0.0090056 0.0030517 0.00852781 0.00670103 0.00927835 0.0014433 0.00773196 0.00742293 0.000902017 0.00105067 0.0024557 0.00174602 0.00380494 0.00335966 0.000972218 -0.0051427 -0.00300553 -0.00341793 -0.00766022 0.00230277 -0.00169487 -0.000478731 -0.00358841 0.00405201 0.00121459 0.000826071 0.00428092 0.00708144 0.00215936 0.00340206 0.00701031 0.0014433 0.000412371 0.00649485 0.00257732 0.0043299 0.00608247 0.00494845 0.00966152 0.00354037 0.000204825 -0.00073221 0.00557313 0.00106879 -0.00107543 0.00043024 0.00803545 0.00583162 0.00763683 0.00444028 0.00696382 0.00919455 0.00532909 0.00554003 0.00489964 0.00854844 0.000824742 0.00247423 0.000309278 0.00639175 0.00175258 0.00123711 0.00206186 0.00206186 0.00639175 0.00989691 0.00917526 0.0042268 0.00948454 0.00835052 0.000206186 0.00628866 0.00483717 0.000607982 0.00495664 0.00443333 0.00917526 0.00113402 0.00515464 0.000515464 0.00402062 0.00917526 0.00257732 0.00525773 0.00340206 0.00371134 0.00979381 0.00845361 0.000618557 0.00494845 0.00505155 0.000721649 0.00742268 0.00216405 0.000387966 6.15343e-05 0.00825426 0.000373285 0.0045412 0.00917799 0.00848862 0.0104333 0.00724575 0.00942955 0.00184308 0.00177194 0.00778669 0.00080951 0.00761571 0.00379357 0.0096807 0.000720926 0.00989691 0.00814433 0.00979381 0.00340206 0.00876289 0.00814433 0.00752577 0.00422559 0.00206144 0.00870434 0.00341947 0.000563151 0.00797572 0.00627411 0.00364285 0.00858558 0.00438297 0.0016008 0.00530077 0.00109736 0.00297681 0.00731204 -0.000165444 0.000470553 0.00743479 0.00354194 0.00125238 0.00875264 0.00793814 0.00659794 0.00927835 0.00773196 0.00412371 0.00123711 0.00484536 0.00381004 0.000136342 0.00349023 0.00315695 0.00250851 0.00396423 0.000403936 0.00993964 0.00842978 0.0108782 0.00961063 0.0112275 0.00294631 0.00976406 0.00574809 0.00319972 0.00612265 0.00258536 1.65094e-05 0.0043998 0.00538607 0.00835571 0.00141199 0.00563377 0.000206186 0.00474227 0.00463918 0.00773549 0.00659608 0.00315096 0.000379821 0.00706402 0.00164621 0.00649543 0.00102081 0.00867774 0.00496189 0.00837674 0.00568664 0.00105595 0.00639218 0.000964706 0.00859835 0.00640585 0.00677183 0.00619498 0.00244348 0.00574117 0.00562526 0.00664822 0.000171372 0.000469572 0.00355319 0.00979381 0.00175258 0.00609595 0.00263979 0.00347535 0.00907281 0.00787409 0.00785564 0.0037233 0.00576893 0.00644432 -0.00252961 -0.00210525 7.62901e-05 -0.00165848 -0.00235882 -0.00253935 -0.000860997 0.00262023 0.00546992 0.00633453 0.00378931 0.00655506 0.00605371 0.0103227 0.0101434 0.00292215 0.00280141 0.00350515 0.00762912 0.00383103 0.00275672 -0.000398044 0.0077642 0.00317528 0.00674387 -0.00435928 -0.000587857 -0.00423638 -0.00168838 0.000339585 0.00100332 -0.00882194 -0.00415757 -0.00545123 -0.0022418 -0.0105284 -0.00301533 0.00251806 0.00694057 0.0123299 0.00700343 0.00748526 0.00106363 0.00120829 0.00646963 0.000824742 0.00609005 0.00674797 0.00570485 0.00394955 0.000535415 -0.00226522 0.00285269 -0.0039603 -0.000542413 0.000467455 -0.00427663 -0.00294761 -0.00423343 -0.00763752 -0.00929118 -0.00665361 -0.0106387 -0.00643972 0.0052255 0.007712 0.00972642 0.0114786 0.00553321 0.0111315 0.00430007 0.00394858 0.00544925 0.0097995 0.00695318 0.00100979 0.00631771 0.00800456 -0.000852029 -0.00109511 0.0027069 -0.00125068 -0.00274311 -0.00486511 -0.0074077 -0.00556247 -0.0116129 -0.00815427 -0.00213984 -0.0034484 -0.00398184 -0.00690317 0.00352426 -0.00196494 0.00869336 0.0113541 0.00575979 0.00611096 0.00426513 0.00855746 0.00823227 0.00123711 0.00552596 0.00655315 0.00406165 0.00811432 0.00498109 0.00622062 -0.0045572 -0.00020144 -0.0085754 -0.00891919 0.000153488 -0.000941652 -0.00566475 -0.00383286 0.00502597 -0.00260443 -0.0104034 0.000854548 -0.00263908 0.00972303 0.0100682 0.00926653 0.00121598 0.00164973 0.00292214 0.00157312 0.00392219 0.000206186 0.00823092 0.00667198 0.0033761 0.006205 0.00371919 0.00179717 -0.00265662 -0.00137997 -0.00460383 -0.00925933 -0.00441562 0.00227919 -0.0024495 0.00448767 0.000253924 0.00483801 0.00670157 0.00185675 0.00494476 0.00921296 0.00215279 0.00629018 0.00885606 0.000371669 0.00156731 0.00131978 0.00236832 0.000721649 0.00449187 0.00614557 0.00774889 -0.00018471 0.00406743 0.00446844 -0.00199546 -0.00381906 0.000345872 -0.00346173 0.00198392 0.000263407 0.00917461 0.00738965 -0.00116966 -0.00338237 -0.000274175 -0.00437551 -0.00389751 -0.00400764 0.00189393 0.00647671 0.00735424 0.00452219 0.0082627 0.00193572 0.00886385 0.00329897 0.000601994 0.000517722 0.00171991 0.00392943 -9.45708e-05 0.000609204 0.00160248 0.000435166 0.00025875 0.00196954 0.000800747 -0.000727888 0.00845963 0.00237707 0.000983667 -0.00857356 -0.00872709 -0.00140205 -0.00255487 -0.00262626 -0.00544723 0.0020515 0.00852125 0.0059618 0.0008569 0.00863131 0.00897135 0.00742268 0.00658859 0.00539969 0.00668282 -0.0012467 0.00260162 0.00444469 -0.00488222 0.000576955 0.000335558 -0.00323124 -0.00346666 -0.00270876 0.00333135 0.0025606 -0.00928149 -0.0063145 -0.00923909 -0.00411304 0.000194009 -0.0083755 -0.00451663 -0.00507576 0.00848582 0.0082566 0.00975503 0.00214076 0.00846118 0.00134021 0.00484997 0.010363 0.00621017 0.000285652 0.00227672 0.00416058 0.0068951 0.00668789 0.00208549 0.000986743 -0.00621373 -0.00144317 -0.00927191 -0.00960212 -0.0116392 -0.0149722 -0.00541188 -0.00234289 -0.00167537 -0.00268319 -0.00629252 0.00613742 0.00937747 0.00966321 0.00468439 0.000272114 0.00464157 0.00474227 0.00455798 0.00893969 0.000121866 0.00513 0.0068143 0.0111183 -0.00114015 -0.00143691 0.0016531 -0.00438995 -0.00506817 -0.00568357 -0.00529654 -0.0110091 -0.00431015 -0.00838312 -0.00186631 0.000335039 -0.00247917 -0.00205591 -0.00563502 -0.00275053 0.000849155 0.00209499 2.64401e-05 0.00623318 0.000753109 0.00649485 0.00825832 0.00718144 0.0103854 0.00766005 0.00924132 0.00297389 0.00993909 0.00616224 0.00355411 -0.0023789 -0.00265219 -0.000860881 0.00181169 0.00118858 -0.00439565 -0.00482413 0.00462108 0.00129251 -0.00392637 -0.00558157 0.00140839 0.003607 0.00521184 0.00418654 0.00424697 0.00334253 0.00204908 0.0014433 0.00464279 0.00895754 0.00919494 0.00408225 0.0115745 0.0134829 0.00337919 0.000655603 0.00306215 0.00404236 0.000230731 -0.0006135 -0.00269487 -0.00170244 -0.000605209 0.000530029 0.00218119 -0.00241734 0.00254208 -0.00320723 -0.00301628 0.00763646 0.00622692 -0.000348136 0.00929803 0.00411185 0.00230655 0.00556701 0.00701031 0.0101523 0.00212009 0.00790323 0.00418271 0.00596975 0.0137702 0.00917062 0.00552788 0.00403879 0.00192168 0.00825088 0.00656458 0.00670741 -0.00380845 0.00413273 -0.00046606 0.00408256 0.00084518 -0.00497854 0.00301043 0.00477326 0.000516951 0.00552814 0.00977397 0.00374399 0.00622603 0.0043299 0.0078316 0.00692883 0.0095844 0.00544622 0.0088982 0.0151602 0.00962296 0.00264757 0.00519622 0.000418669 0.00335105 0.000464284 0.0092059 0.00461688 0.00356065 -0.00223078 0.00232785 0.00350864 0.00155489 -0.00278522 0.00112875 0.0039115 0.00688992 0.00788758 0.0069138 0.00106544 0.00227228 0.00123711 0.00154726 0.0080774 0.00887133 0.00380994 0.00762897 0.00717009 0.00488405 0.00376342 -0.00162074 -0.0050192 0.00167353 0.00401618 0.0020692 0.00657817 -0.00592103 -0.00353325 -0.00268379 0.00159467 0.00190131 0.000919946 0.00143848 0.00200729 0.00793656 0.00240837 0.00211729 0.0053884 0.00814433 0.00463918 0.00896907 0.00110759 0.0119323 0.00882382 0.00921355 0.00732471 0.00983371 0.00466952 -0.000722407 0.00206055 -0.00695509 -0.0053318 -0.00677716 -0.00817437 -0.00708937 0.00205888 -0.00123732 -0.00123181 0.00119897 -0.00413249 0.000998107 0.00199738 0.000526069 0.00820304 0.00681317 0.000129896 0.00195876 0.00412371 0.00814433 0.00373889 0.0111746 0.00363514 0.0106289 0.00798679 0.00443057 0.000764362 -0.00181282 -0.00432035 -0.00147 0.00385803 5.68946e-05 -0.00442204 -0.0010861 -0.00100965 0.00340688 0.00444619 -0.00233842 -0.00276848 0.00704417 0.00312176 0.00598771 0.00410207 0.00554468 0.000752907 0.000927835 0.00639175 0.00360825 0.00116312 0.00384139 0.00665611 0.000427339 0.0051372 0.00165026 0.0050132 0.00546167 0.00515701 0.00106722 0.00460002 -0.00297371 -0.00473485 -0.00339411 0.00198247 -0.00283105 -0.00270423 -0.0040277 -0.00182789 0.00723479 0.00285279 0.00168659 0.00126224 -0.00015976 0.00940685 0.00618557 0.00824742 0.00453608 0.000901264 0.00577536 0.00864812 -0.000449976 0.00429702 0.00320545 0.000633595 0.00667486 0.00195229 -0.00152316 0.00421531 0.00449016 -0.00551898 0.00255576 0.00389341 -0.00120531 0.00655072 0.00136741 0.00775278 0.00696466 8.40776e-05 0.000794733 0.00102621 0.00568759 0.00474328 0.000515464 0.00752577 0.000103093 0.00824831 0.00134482 0.00280615 0.0081778 -0.00115239 0.0067421 0.00872774 0.00274855 0.00150663 0.00556085 0.00777523 0.00230747 0.00142334 0.0056694 0.0040569 0.00355769 0.000253351 0.00539089 -0.000919202 0.00871768 0.00883721 0.00494451 0.0024686 0.00433079 0.00278458 0.00597938 0.00587629 0.000206186 0.00938144 0.00690735 0.00115139 0.00480351 0.00272395 4.03225e-05 0.00429745 -0.000922482 0.00644652 0.00514744 0.00433931 0.00100775 0.0027276 0.00788419 0.00277778 0.00375851 0.000862319 0.00858092 0.000284872 0.00853212 0.00975775 0.0101995 0.000721459 0.00958763 0.00989691 0.00268041 0.0101031 0.00886598 0.00835052 0.00505155 0.00835052 0.00494845 0.00731552 0.00643324 0.00754487 0.00771031 0.00905685 -0.000707593 -0.000306551 0.00667361 0.00875647 0.00568945 0.00396974 0.00150298 0.00459106 0.00839084 0.00563266 0.00842936 0.00020025 0.00697176 0.01 0.00701031 0.00536082 0.00742268 0.01 0.00742268 0.00360825 0.00536082 0.00278351 0.00206186 0.01 0.00721649 0.00247423 0.00927835 0.000206186 0.0028866 0.00817597 0.00647735 0.0026986 0.00608323 0.0085567 0.0085567 0.00556701 0.0043299 0.00247423 0.00649485 0.00680412 0.00371134 0.00618557 0.000824742 0.00824742 0.00597938 0.00443299 0.00505155 0.00814433 0.00402062 0.00752577 0.0028911 0.00780531 0.00805348 0.00936476 4.27993e-05 0.00270339 0.0091864 0.00137586 0.00846713 0.0101341 0.00578631 0.00107254 0.00845178 0.00111414 0.00284014 0.00200977 0.00116088 0.00474453 0.00711341 0.00546392 0.00639175 0.00340206 0.00680412 0.00680412 0.00793814 0.0028866 0.00968864 0.00938073 0.00194363 0.00436165 0.0103368 0.00124755 0.00689184 0.00830213 0.00991593 0.00828469 0.0115255 0.00246312 0.0081039 0.00790442 0.00320702 0.0061374 0.0050812 0.00325512 0.00233914 0.0102704 0.00486255 0.00680412 0.0102062 0.00618557 0.00927835 0.00628866 0.00969072 0.00608247 0.00473609 0.00281078 0.0049662 0.00182151 0.00859668 0.00509318 0.0118898 0.007768 0.00913455 0.00827988 0.00740369 0.00748222 0.00320831 0.0041152 0.00439124 0.00381796 -0.000398404 0.00186275 0.00216079 0.00438396 0.000809624 0.0059621 0.00779864 0.00596443 0.00773196 0.00154639 0.00247423 0.00557004 0.00174228 0.00122228 0.00270652 0.00626202 0.00654096 0.000268272 0.00161525 0.0106355 0.00656511 0.00274983 0.00406803 0.00414893 0.0040157 0.0016 0.00248093 0.00696172 -0.00139922 0.00510747 0.00297884 0.000555165 0.000954415 0.00838881 0.00385474 0.0099586 0.00351468 0.00824742 0.00649485 0.00104248 0.00786076 0.00396632 0.00311908 0.00887097 -0.000963066 0.00229086 0.0131328 0.012441 0.00201967 0.00264239 -0.00420384 0.00396874 0.00681347 0.00713429 0.00454868 0.00458275 0.00272314 0.00361193 0.00527668 -0.00180294 0.00391716 0.00542376 0.00397427 0.00363086 0.00671541 0.00742268 0.000618513 0.00173758 0.000420145 0.00298418 -0.00057409 0.000930173 0.000741902 0.00096063 0.014948 0.00521286 0.00274741 -0.00365721 -0.00686366 -0.00673093 -0.00405884 -0.00365655 -0.00770821 -0.0155034 -0.000112577 -0.000657597 0.00309717 -0.00111819 -0.00147106 0.000596949 0.00591034 0.00504295 0.00871542 0.00958763 0.00298809 0.00530201 0.00807744 0.00035854 0.00474733 -0.000793763 0.00191419 0.00435846 0.00886975 -0.00668009 -0.00435454 -0.00858283 -0.0093489 -0.00526327 -0.00380805 -0.012555 -0.0182797 -0.0160763 -0.0104041 -0.0060711 -0.00262711 0.00226184 0.00362902 -0.00107704 0.0072464 0.00241836 0.00116541 0.00852997 0.000548165 0.00731429 0.00637817 0.00757384 0.00170483 0.0013573 0.00469387 0.00550349 -0.00249102 -0.00690256 -0.0105771 -0.00784074 -0.00466689 0.00219003 -0.00142227 -0.0156958 -0.0159371 -0.0171836 -0.00854021 -0.00208724 -0.00104599 0.000415288 0.00138595 0.000819153 -7.25223e-05 0.00825116 0.00316008 0.00886598 0.00662602 0.000483071 -0.000119461 0.00356131 0.00121471 -0.00353992 0.00732081 0.00647363 -0.00368581 -0.0119452 -0.0113928 0.000997474 0.00397644 0.00291271 0.00336047 -0.00936725 -0.00568836 -0.000957165 -0.00339946 -0.00138835 0.0016891 -0.000387671 -0.0024674 0.00110782 0.00557547 0.00241118 0.00264568 0.00278351 0.00174995 0.00643112 -0.000161136 -0.00175529 0.000926663 -0.00151807 0.00222538 -0.00137299 -0.0096386 -0.0200979 -0.0100886 0.00731878 0.0111544 0.00638907 -0.00168263 -0.00437346 -0.00631907 -0.000146918 -0.000676071 -0.0032459 0.0055508 0.00191307 0.0045017 0.0069344 0.00143663 0.00594131 0.00822633 0.00391753 0.00350281 0.00622453 0.0037309 -0.000816423 0.00159949 0.00490853 0.000174148 -0.000276642 -0.0105587 -0.0115886 0.00218914 0.0106397 0.00986288 -0.00143033 -0.00267979 -0.0140181 -0.0149538 -0.00619253 -0.00562286 -0.0059511 -0.000108073 0.00925925 0.00905813 0.00492178 0.0093105 0.0068333 0.00308281 0.00525773 0.00175415 0.00227309 0.00903744 -0.000617563 -0.000639926 -0.000228594 -0.000275226 0.000165194 -0.00443582 -0.00185424 0.0115566 0.0165781 0.00729511 -0.00444233 -0.000684632 -0.00350272 -0.0118205 -0.00882326 -0.00744115 -0.00440547 0.00430723 0.00521081 0.000733619 0.0031185 0.00575871 0.000688652 0.00927693 0.0085567 0.00907373 0.00230403 0.00723862 -0.00172265 0.00475547 0.00268166 0.00493674 0.00508028 0.00209958 0.00488009 0.00603231 0.0114751 0.00130066 0.00222712 -0.00438388 -0.0095338 -0.0131276 -0.0105211 -0.00643435 0.00214688 0.00107664 0.00651719 0.0023468 0.00457081 0.00497488 0.000147317 0.0100272 0.00391753 0.00411642 0.00116456 0.00873817 0.00444186 -0.000468114 0.00220896 0.00199999 0.00301917 0.00854718 0.00442652 -0.000950008 -0.00251568 -0.0127263 -0.0057867 -0.00195302 -0.00395492 -0.00605587 -0.00436691 -0.00661069 -0.000989961 -0.000810918 0.00694221 -0.00134461 0.00563539 0.00975728 0.00468443 0.00237518 0.00762887 0.00421103 0.00723117 0.0100137 0.00728967 0.00331236 0.00277296 0.00223163 -8.53803e-05 0.00105726 0.00279127 0.00280861 -0.00743894 -0.00120254 -0.00552161 0.00020775 -0.00207283 -0.00490656 -6.4998e-05 -0.00690944 -0.00246634 0.00130449 -0.00101658 0.00718991 0.00267806 0.00403535 0.00989054 0.00191083 0.000618557 0.00102211 0.0037907 0.00154969 0.00288863 0.00147268 0.00060952 -0.00172677 -0.00125669 0.00767165 0.00172058 0.00120891 -0.00679968 -0.000158932 0.00094416 0.00394368 -0.00167441 0.000638653 -0.00490405 -0.0064197 0.00508242 0.00151964 0.00723681 0.00227366 0.00726993 0.0128397 0.0045262 0.00682569 0.00206186 0.0101004 0.0063341 0.00104787 0.00771995 0.00163492 0.00223775 -0.00233813 -0.00441334 0.00799087 0.00651199 0.00542205 0.00558656 -0.00172281 0.00607198 -0.00272939 -0.00320636 -0.00685227 0.00239838 0.00215664 0.0015863 0.00427147 0.00201146 0.000279952 0.00354447 0.00411541 0.00798151 0.00456712 0.00690722 0.00402062 0.00572624 0.00275479 0.00092861 0.0036241 -0.00189691 -0.000663037 -0.00859282 0.000315547 0.00552535 0.00128305 0.00200843 0.000444395 0.00197644 0.00454929 0.000965674 0.000232135 0.00291096 0.00204853 0.0062333 -0.0025652 0.00475097 -0.00192214 0.00824398 0.00441946 0.0102623 0.00978008 0.00216495 0.00204152 0.00143214 0.00400425 0.0031877 0.00785023 0.000231489 -0.00574663 -0.00488857 0.00476611 0.00298827 0.00419756 -0.00190443 0.00702943 0.00428318 -0.000224981 0.0070574 0.00656281 0.00384234 0.00136487 -0.000442678 0.00322457 0.00492781 0.00459373 0.0032982 0.00905724 0.00806168 0.00752604 0.00824742 0.00829796 0.0011169 0.00679502 0.00962068 0.00445732 0.00368537 0.00112889 -0.00798306 -0.00987229 -0.00695105 -0.00435851 0.00142044 0.00643654 0.00455535 0.00339232 0.00629888 0.00877334 0.0105556 0.00632765 0.00402175 0.00282962 0.00943477 -8.49469e-05 0.00751711 0.00976372 0.00216606 0.00865979 0.0102062 0.00134021 0.00419162 0.00857901 0.0103103 0.0116193 -0.000163003 -0.00145186 -0.00743815 -0.00435761 -0.00658091 -0.00655006 0.00357154 0.000109383 0.00178998 -0.00338647 -0.00155473 0.00499832 0.00812231 0.00405805 0.00306799 0.00214471 0.00424684 0.00647905 0.0014818 0.00413035 0.00194433 0.00515464 0.00402062 0.00948454 0.00416877 0.00168878 0.00990345 0.00918281 0.00254837 7.15374e-05 0.00183509 0.00244338 -0.00101058 0.00136624 0.00143885 -0.000573967 -0.00231006 -0.00731349 -0.00273531 -0.00937729 -0.00490715 -0.00137916 0.00375976 0.00715005 -0.000106743 -0.00076153 0.0057537 0.00786271 0.00260913 0.00886598 0.00474227 0.0043299 0.00855775 0.00939463 0.00672916 0.00295979 0.00253209 0.00643073 0.00664065 -0.000300035 -0.000146576 -0.00427287 0.000271701 -0.00675381 -0.0120297 -0.00596148 -0.00698427 -0.00430756 -0.00126621 -0.000570167 0.00490884 0.00514624 0.00382784 0.00340067 0.00740504 0.00337179 0.00730071 0.00443299 0.0085567 0.00484536 0.00614492 0.00514033 0.00689689 0.00147203 0.000627076 0.0044846 0.00833006 0.00743784 -0.00255805 0.00082264 0.00155769 0.00133372 -0.00582911 -0.00348486 0.000930474 0.00649568 0.00671209 0.003056 0.00387669 0.00461965 0.00323727 0.000425241 0.000966564 0.000671328 0.00330121 0.0042268 0.00938144 0.00257732 0.00999964 0.00329821 0.00352122 0.00330604 0.00845899 0.00816599 0.0100972 0.00515354 0.00756086 0.000536327 0.00380931 0.00558695 -0.000629647 0.00342529 0.00117592 0.00774208 0.00833893 0.00313537 0.00512633 0.00923026 0.000611637 0.0100678 0.0095508 0.00804323 0.00113641 0.00690722 0.00443299 0.0085567 0.00979381 0.00164958 0.00471213 0.00269144 0.00400831 0.0101692 0.01009 0.000716523 0.00635702 0.00332705 0.00157432 0.00811949 0.00170422 0.00510349 0.000436806 0.00285921 0.00319595 -0.000514089 0.00304545 0.00378259 0.000716658 0.0101649 0.000927741 0.01 0.01 0.000412371 0.0102062 0.00969072 0.0014433 0.00505155 0.00938144 0.00484536 0.00835373 0.000164407 0.00128495 0.0085528 0.00845106 0.00950948 0.000660924 0.00532807 0.000902849 0.00669181 0.000334335 2.13275e-05 0.00546928 0.00134343 0.00743502 0.00241575 0.00678604 0.00888409 0.00463918 0.00463918 0.00237113 0.00989691 0.0043299 0.00793814 0.00371134 0.00360825 0.00453608 0.00453608 0.00618557 0.00927835 0.0028866 0.0101031 0.00134021 0.00474227 0.00753213 0.00833518 0.00152548 0.00917868 0.00123711 0.00804124 0.0043299 0.00618557 0.00690722 0.00639175 0.00319588 0.00103093 0.00443299 0.00175258 0.00268041 0.00494845 0.0102062 0.00907216 0.00113402 0.00876289 0.00762887 0.00598064 0.00911115 0.00293298 0.0082558 -5.01095e-06 0.0014966 0.00350338 0.00765072 0.000313489 0.0050268 0.00673106 0.00960517 0.00835304 0.00958913 0.00106801 0.00188836 0.00090058 0.00339996 0.00969074 0.00226804 0.00886598 0.00340206 0.00670103 0.00731959 0.00886598 0.00474227 0.00960591 0.00309907 0.00912796 0.00305988 0.00625479 0.00954009 0.0102388 0.00235753 0.00484225 0.00521258 0.00853381 3.82739e-05 0.00392918 0.000876664 -0.00322821 0.00543777 -0.0015906 0.00286794 0.0096866 2.56054e-06 0.000209831 0.00597938 0.00536082 0.0071134 0.0043299 0.00824742 0.00371134 0.00969072 0.000361836 0.00403636 0.000434881 -0.000190009 0.00436582 -0.00626543 -0.00103547 -0.000908149 -0.00887619 -0.0131112 0.0129367 0.0215072 0.00963182 0.0024327 -0.00358711 -0.0039007 -0.00258861 -0.00172464 0.00196431 0.0050243 0.000305838 0.00964249 0.00190379 0.00759739 0.00164948 0.0042268 0.000927835 0.00763032 0.00689782 0.00483611 0.0144944 0.0185343 0.038883 0.0200865 0.0128039 -0.00379832 -0.000376154 0.00329252 0.0203943 0.00226661 -0.0132999 -0.0150111 -0.00829532 -0.0108416 -0.0071877 -0.0137189 -0.00832517 -0.00264404 0.00433001 0.000231105 0.00560244 0.00202368 0.00463967 0.000206186 0.00402062 0.00701583 0.000852406 0.0102166 -0.0064995 0.00646843 0.0175546 0.00538716 0.0252986 0.0120299 0.0334026 0.0256225 0.00806565 0.0103471 -0.00722361 -0.0173102 -0.0135611 -0.0104183 -0.0149431 -0.0244819 -0.0110664 0.000421815 -0.00542292 -0.00260608 0.00086641 0.00301894 0.00246384 0.00226804 0.0021652 0.000737607 0.00555707 -0.00414179 -0.001798 0.00837649 0.0318009 0.0172674 0.0138642 0.0197566 0.0207706 0.0297121 0.0456521 0.043471 0.00366575 0.000345998 -0.0170407 -0.00195 -0.00675531 -0.0157524 -0.0182497 -0.00194384 -0.00832636 -0.0034466 0.000411743 0.00860982 0.00121351 0.00195876 0.00885221 0.00177094 0.000444738 -0.0023057 0.0155253 0.00924933 0.0141116 0.0111227 0.0285134 0.0206901 0.02185 0.013245 0.0303404 0.0230229 0.00507671 0.0119467 0.00532198 0.00837981 -0.0039367 -0.020223 -0.0208175 -0.00760836 -0.00970293 0.000257773 0.000339529 0.0039178 0.00275117 0.00568711 0.00343825 0.00358736 0.00382884 0.0228296 0.0195379 0.0195706 0.0105944 -0.00884698 0.00376796 0.0170842 0.00663773 -0.00842345 -0.0159166 -0.0110474 -0.00900519 0.00633215 0.012117 0.031052 0.0097214 -0.00532986 -0.00369971 -0.0125977 -0.00374973 -0.00100688 0.00373049 0.00674761 0.00774991 0.00195876 0.00517344 0.00517899 -0.000960678 0.0109454 0.00762639 -0.0014073 -0.00583547 -0.0159654 0.00684715 0.0123028 -0.0161627 -0.0396193 -0.0506873 -0.0615187 -0.0205498 -0.00245089 -0.00377869 0.014003 0.0136584 -0.0174669 -0.00403944 -0.00653932 -0.00887714 0.00532395 0.00664975 0.00752115 0.00178527 0.00402062 0.00432451 0.00796825 0.00354303 -0.00360128 -0.0113999 -0.00327157 -0.00610632 -0.013164 -0.0171351 -0.0249567 -0.0299619 -0.049371 -0.0408991 -0.0607524 -0.0376812 -0.00699275 0.0123426 0.0252762 0.0109318 -0.0215615 -0.0100529 -0.00160056 -0.00165208 0.00605011 0.00663778 0.00204072 0.00192813 0.00742268 0.00784986 0.00208557 -0.000223088 -0.00178676 -0.0140625 -0.00959359 -0.017476 -0.0334281 -0.0343809 -0.0278058 -0.0271912 -0.0500042 -0.0482923 -0.0658013 -0.0529663 -0.0464945 -0.0137399 0.00449143 0.0125472 -0.0119934 -0.00856556 -0.00169124 -0.000787329 0.00420287 0.00489549 0.000955132 0.00369892 0.00536082 0.00564709 0.000576182 -7.05452e-05 0.000835374 -0.0128502 -0.0113121 -0.0147564 -0.025202 -0.029032 -0.00814954 -0.0150813 -0.0316033 -0.0426821 -0.0522139 -0.0443159 -0.0436758 -0.0271358 -0.0162817 0.0245233 0.0204643 -0.00149674 -0.022127 -0.00327101 0.000916292 0.00837963 0.00513431 0.00464621 0.00556701 0.00536656 0.00611764 0.00576011 0.00594553 -0.0116792 -0.0139103 -0.0165101 -0.0245513 -0.028107 -0.0158662 -0.0187061 -0.027792 -0.0312515 -0.00839321 -0.0350248 -0.0680868 -0.056292 -0.0198885 0.00939016 0.0275707 0.00628828 -0.0204435 -0.0130021 0.00968066 0.0091608 0.00963553 0.00136335 0.00175258 0.00579279 0.00321835 0.0156991 0.0094989 0.0078525 0.00294933 0.00556471 -0.00151353 -0.0300584 -0.024916 -0.0100465 -0.015324 -0.0211492 -0.00784089 -0.0274271 -0.0556937 -0.0711347 -0.024468 -0.0125846 0.0092685 -0.00171944 -0.00870695 -0.00818907 0.0107238 0.00434276 0.00798898 0.0071416 0.00958763 2.76449e-05 0.000515532 0.0149422 0.0129489 0.0151384 0.00138168 0.0201625 0.0102265 -0.0187313 -0.00931011 0.000691561 0.00218123 -0.00384649 -0.0253811 -0.0292216 -0.0573825 -0.0418337 -0.0116705 0.00104901 0.0015976 -0.0031267 -0.0182185 -0.0158789 0.0113095 0.00929228 0.0118113 0.000616361 0.00773196 0.00380166 0.00508607 0.00741719 0.0142362 0.0107986 0.00133893 0.0201453 0.00648139 0.000128432 0.0153873 0.0127506 0.0153647 0.0112959 -0.0260238 -0.0412205 -0.0471927 -0.0271068 -0.0149563 0.00309372 0.0250554 -0.0134967 -0.0187169 0.00347846 0.00797777 0.0125931 0.0122237 0.00532879 0.00247423 0.00161857 0.00293506 0.0113348 0.017407 0.00612719 0.00326183 0.00872197 -0.0134972 0.010053 0.0299788 0.0260175 0.0296663 0.0105015 -0.0133183 -0.0377733 -0.0344862 -0.0281817 -0.0252176 0.00795635 0.0148284 -0.0103539 -0.0151743 0.0156497 0.0106113 0.0103893 0.00202354 0.0101186 0.00309278 0.00494845 0.00356475 0.00543794 -0.00369743 -0.00766951 -0.00639846 -0.00574051 -0.00504643 0.0203252 0.0476828 0.0358237 0.0289549 -0.0301629 -0.0417401 -0.0420148 -0.0322366 -0.0314977 0.00943242 0.0311117 0.0109838 0.00268577 0.0160782 0.0220302 0.00500573 0.00659207 0.00589021 0.00331565 0.00804124 0.00241934 0.00400428 -0.00231631 0.000301037 -0.00915397 -0.0153198 -0.00568924 -0.00575535 -4.7409e-05 -0.00429233 0.0364962 0.0290944 -0.0272609 -0.0525792 -0.0391558 -0.0192187 0.0150438 0.0315677 0.00851575 0.00705621 0.0088588 0.00987607 0.00452045 5.74004e-06 0.00197033 0.00890583 0.00833258 0.00340206 0.00422924 0.0070352 0.00829017 0.00193671 -0.00399095 -0.0112979 -0.0192362 -0.00447078 0.00104538 -0.000527168 0.0287714 0.0353814 0.0043659 -0.0136479 -0.00823657 0.00729561 0.0216784 -0.00140868 -0.0096741 -0.00814301 0.00328912 -0.00620212 -0.000199741 -0.00280327 0.00249662 0.00757227 0.00360825 0.00752577 0.00206186 0.00769674 0.0114675 0.00200386 -0.00875647 -0.0178469 -0.0343517 -0.0179963 -0.0095855 -0.0135369 0.0133106 0.0192344 0.0320761 0.0407134 0.0281811 0.033838 0.029148 0.000820044 0.00213957 -0.00970786 -0.00623106 0.0115929 0.0127842 0.00753252 0.00638501 0.00159024 0.00680412 0.00515464 0.00979381 0.00338235 0.0106737 0.00621942 -0.00234513 -0.00432181 -0.0244076 -0.0130919 -0.00117085 0.0095893 0.0365119 0.0401072 0.0317864 0.0178703 0.00752579 0.0265513 0.00727826 0.0112235 -0.00390383 0.00132859 0.00597864 0.0270937 0.0240573 0.00454047 0.0061812 0.000468844 0.00195876 0.00639175 0.00701031 0.00103878 0.00291267 0.00107236 -0.000828735 -0.00721621 -0.00937023 -0.00700695 -0.00297908 0.0187143 0.0394979 0.0416254 0.0290038 0.0204692 0.0163809 0.0157086 0.004923 0.000739973 0.0015563 -0.00143838 0.015643 0.0215033 0.0251715 0.00396676 0.00168013 0.00043557 0.00412371 0.00463918 0.00515464 0.00324745 -0.000454475 0.000658353 0.00303779 -0.00677395 -0.0230525 -0.0288349 -0.0391804 -0.0355781 -0.0110113 0.0219572 0.010395 0.00594619 0.0113471 0.0194754 0.02085 0.0128745 0.0110159 0.0133573 0.0128039 0.00855287 0.00790395 0.00832208 0.00699002 0.00166105 0.01 0.000515464 0.00546392 0.00215768 0.0100002 0.00773481 0.00325817 0.000760787 -0.00193916 -0.004482 -0.00714011 -0.00929284 -0.0057838 -0.00283738 -0.0100855 -0.0102669 0.000377556 0.00176595 0.0136006 0.0176961 0.00947046 -0.00105019 -0.0011882 -0.00428456 0.00319516 0.00940529 0.00444326 0.00485765 0.00237113 0.00752577 0.00587629 0.00649485 0.00876303 0.00605632 0.00542012 0.00876645 0.00588296 0.000957568 0.0074481 0.000527502 0.00149718 0.00285382 1.84209e-05 0.00588906 0.00410512 0.00822799 -0.000188535 0.00744618 0.0019079 0.00315932 0.00623627 0.00323826 0.00237708 0.00577335 0.000206186 0.00701031 0.00216495 0.0056701 0.00329897 0.00515464 0.00525773 0.00979381 0.0042268 0.00753651 0.00272631 0.00209195 0.00327647 0.00954835 0.00860135 0.000570172 0.00768707 0.00397365 0.00884258 0.00634044 0.00515595 0.00120636 0.00153788 0.00386673 0.000778394 0.00868014 0.00933842 0.00979381 0.00154639 0.000206186 0.0028866 0.00814433 0.00587629 0.00515464 0.00659794 0.0043299 0.000309278 0.00969072 0.0101031 0.00350515 0.00907216 0.000927835 0.00907216 0.00782953 0.00119915 0.00945575 0.00886478 0.00670103 0.00793814 0.00103093 0.00938144 0.0028866 0.00226804 0.00783505 0.00123711 0.00731959 0.00371134 0.00298969 0.00649485 0.00185567 0.00195876 0.00412371 0.00391753 0.00876289 0.00257702 0.00493234 0.00203278 0.00383536 0.000991439 0.00671437 0.00854098 0.00745597 0.00675502 0.0067425 0.000237691 0.0026733 0.00161249 0.00396414 0.003385 0.00977617 0.00255086 0.00184965 0.00113369 0.0056701 0.00216495 0.00216495 0.00731959 0.00618557 0.00360825 0.00525773 0.00515248 0.00680338 0.00656042 0.00307157 -0.000435536 0.00849016 0.00240034 0.00932005 0.0039047 0.00249355 0.00179472 0.00618967 0.006385 0.00233552 0.00243693 0.00711822 0.00813635 0.00580443 0.00633936 0.00548332 0.0099763 0.00731959 0.00793814 0.000721649 0.00371134 0.00917526 0.00608247 0.00979381 0.00999339 0.00212255 0.0081615 0.00630073 0.002713 0.00798629 0.00306448 0.00389566 0.000491538 0.00677005 -1.07359e-07 0.00224511 0.00706306 0.00615443 0.00499768 0.0097624 0.000921646 0.00597828 0.00986586 0.010011 0.00336064 -0.00024844 0.00110551 0.0079311 0.00216495 0.00175258 0.00608247 0.00257838 0.00856291 0.00775739 0.0064982 2.75149e-05 0.0106895 0.0109458 0.00317036 0.00874222 0.000681581 0.0067791 -0.000451861 0.0044586 0.00511045 0.00849878 0.00723825 0.00400136 0.00954658 0.00972901 0.00174792 0.0105265 0.000209328 -0.000390291 0.00942254 0.00442173 0.00288525 0.0014433 0.000927835 0.00979785 0.00967615 0.00743756 0.0118468 0.00527643 0.0129747 0.0081163 0.0046569 0.00690874 0.00253842 0.00200136 0.00497832 0.00552135 -0.00301895 0.00417391 -0.00116944 0.00314343 0.000774012 0.00240166 0.00386109 0.00787828 0.00866257 0.0096176 0.00067765 0.00379368 0.0071105 0.00762887 0.00195935 0.00274599 0.00260641 0.00936827 0.0114211 0.0114675 0.00921416 0.00703391 0.00789878 0.000280885 -0.00180386 0.00232654 0.00355433 -0.00416447 0.000242305 0.000389916 0.00212153 0.00340162 0.000929745 0.00112737 -0.00113224 0.00286277 0.0066466 0.00359291 0.00847545 0.00276775 0.00198161 0.0014433 0.00683616 0.00914294 0.00515635 0.00842419 0.0063214 0.00572034 0.00689549 0.00257215 0.00116544 0.000453316 0.00149177 -0.00664918 -0.00984752 -0.00629587 -0.00291764 -0.00538501 -0.00441558 0.000545392 0.00551871 0.000289688 -5.38222e-05 0.00681438 -0.00145926 -0.000606948 8.15703e-05 0.00928133 0.00743644 0.00307673 0.00282081 0.000752822 0.00924793 0.0034308 0.00582625 0.0077647 0.0050765 0.00042515 0.0024575 3.56705e-06 -0.003164 -0.000620903 -0.000461566 0.00115508 0.000875968 0.000417768 -0.00389606 0.00343111 0.00485938 -0.000957677 0.00383872 0.00304461 0.00441547 0.00293114 0.00720376 0.00616046 0.000604224 0.00721649 0.00368075 0.00268743 0.00520716 0.00444588 0.00460538 0.00106097 0.00305181 -0.00106453 -0.0105772 -0.00604675 -0.00803197 -0.00358756 -0.0042484 -0.00139751 0.00836318 0.00722512 0.000285382 0.00037132 -0.00271896 0.00581201 0.0043059 0.00517448 0.0057345 0.00106495 0.00950251 0.00345667 0.00151579 0.00247423 0.00147353 0.00627631 0.00480493 0.00664836 0.000570655 -0.00573444 -0.00946632 -0.00236592 -0.0115157 -0.00520119 -0.00896577 -0.00443014 -0.00362084 0.00766755 0.0068993 0.00350865 -0.00163409 0.00651005 0.00252856 -0.00218276 0.0046652 0.00555607 0.00576644 0.00580262 0.00145026 0.00994219 0.00805828 0.000618557 0.00311956 0.000599192 0.00188764 0.00289819 -0.000719507 -0.00330304 -0.00569921 -0.00538977 -0.00593081 -0.00419347 -0.00758295 0.00110093 0.00229868 0.0100915 0.00315981 0.00142244 -0.00397668 0.0019208 -0.00543711 0.000191326 -0.000119084 -0.00514034 -0.00234404 0.0067695 0.00818859 0.00722058 0.00753063 0.00185567 0.0020126 0.000423872 0.000330526 -0.00128511 -0.00167401 -0.00706488 -0.00422789 -0.00138112 -0.00813248 -0.00329315 -0.000582725 1.90183e-05 0.00402846 0.00116182 0.00405955 0.000981071 -0.0111907 -0.00329117 -0.00225197 -0.0045425 0.00242143 0.00336415 0.00407653 0.00377882 0.00525771 0.00287953 0.00589959 0.00701031 0.00157676 0.00800597 0.00616174 0.00146159 -0.000593293 -0.00395621 -0.0102526 -0.0030159 -0.00986096 -0.00939127 -0.000820362 -0.00295657 0.00366519 0.00454258 -1.58718e-05 0.000478147 -0.00774496 -0.00300788 -0.00695767 0.00137039 0.00238915 0.00228363 0.00472117 0.00297692 0.00169917 0.0087973 0.00743085 0.0056701 0.00199562 0.0089558 0.00545603 0.00441314 -0.00412621 -0.000498326 -0.00405591 -0.000122453 -0.0069033 -0.000184927 -0.00769338 -0.00657009 -0.00425769 -0.0057679 -0.00331166 -0.00872756 -0.00281398 -0.00632941 -0.00191549 0.00201063 -0.00359415 0.00123746 0.00563382 0.00623177 0.00182211 0.000861336 0.00144281 0 0.000666508 0.00635692 0.00412582 0.00689357 -0.000551275 0.00180973 -0.00865992 -0.00887588 -0.00746872 0.00287882 -0.00628718 -0.00618502 0.000902899 -0.00829918 0.00223445 -0.00278556 0.00249357 0.00427162 -0.00186167 0.00801786 0.00295773 0.000135473 0.00511277 0.002158 0.0097932 0.00895499 0.00402499 0.00731959 0.00044119 0.00838224 0.00728641 0.00802202 0.00296156 0.0035034 -0.00591935 0.00205168 0.00228155 -0.00712546 -0.00374341 0.00116881 0.00443876 0.00185167 -0.00672963 -0.00156411 0.00406884 0.00412566 0.000858 0.00373712 0.00140749 0.00360724 0.00468391 0.0103094 0.00274549 0.00721047 0.00660251 0.00773196 0.00155457 0.0011238 0.00974111 0.00241823 0.000749684 0.000647354 0.00165797 -0.00394661 -0.00639379 -0.00789087 -0.00483134 0.000368005 -0.00209048 0.00497886 -0.00414052 0.00405671 0.000916913 0.00673 0.000217626 0.00453484 0.00592923 -3.76391e-05 0.00720734 0.00807216 0.00229864 0.0064252 0.00565053 0.00371134 0.00639175 0.00225634 0.00696983 0.0100826 0.00939112 -0.00144935 0.00221402 0.00287586 -0.00544667 -0.00529018 -0.00347844 0.00317867 0.00332254 0.00601783 0.00061686 0.00204646 0.00136116 0.00936195 0.005096 -6.6506e-05 0.0073609 0.00295745 0.00743776 0.0113774 0.00765951 0.00529005 0.00618715 0.00350515 0.00195899 0.0059168 0.003509 0.0044275 0.00285604 0.00382928 -0.000588828 0.0060007 0.00293588 0.00601922 0.000457146 0.00395523 0.00445243 0.00087645 -0.000377137 0.00186016 0.00360127 0.00427156 -0.00130429 0.00384143 0.00686653 0.00234352 0.00767597 0.0105056 0.00957356 0.00367443 0.00999936 0.00206186 0.00863974 0.00207948 0.0041188 0.00465381 0.00344951 0.00506456 0.000852306 0.00422276 0.0057203 -0.00321006 -0.0026402 0.00105499 -0.00106162 0.00326211 -0.0100044 -0.00381142 -0.00199815 0.00271239 0.0037308 0.00147507 0.00247866 0.00198761 0.0024377 0.00385955 0.00465095 0.00265003 0.00298969 0.0043299 0.00505155 0.00315681 0.00634897 0.00287847 0.00868347 0.00487792 0.00262802 -0.00344508 0.000224456 -0.00866429 -0.00543304 -0.000686136 -0.00278479 -0.011346 -0.0058 -0.00688336 -0.00127398 -0.00338036 0.00459848 0.00694175 0.00539321 0.00438703 0.00609988 0.00379973 0.000562643 0.0086009 0.00494845 0.00824742 0.00762887 0.000281119 0.000663856 0.00432481 -7.43309e-05 0.00772127 0.00442518 -0.000927409 -0.00494972 -0.00337777 -0.00763269 -0.00470095 -0.00872696 -0.00868091 -0.000380927 -0.00251866 -0.00326276 -0.00153491 0.00186575 0.00101553 0.00363991 0.00769533 0.00309883 0.00976036 0.00169222 0.00862253 0.00876289 0.00154639 0.00845361 0.00169683 0.006624 0.00384727 0.00618952 0.00698168 0.00902688 0.0012204 0.00137586 0.000882623 -0.00590472 -0.00545876 -0.00565634 -0.00918533 -0.0031232 -0.000411186 0.00331187 0.00922715 0.00635117 0.00718231 0.00360043 -0.00120001 -0.000927823 0.00160317 0.00919801 0.00101335 0.0071134 0.00670103 0.00103093 0.00176277 0.00342264 0.00807782 0.0101562 0.0110589 0.00203905 0.0041315 0.00325015 0.00771205 -0.000164333 0.00433945 -0.00212063 -0.00343743 0.000612044 0.00061397 0.00913856 0.0092899 0.0090969 0.00722321 0.0004592 0.00883182 0.00344173 0.00359679 0.00466126 0.00979726 0.00247423 0.000824742 0.00731959 0.00742192 0.00733843 0.00269559 0.00631567 0.00363589 0.000461108 0.00411252 0.00308637 0.00863685 0.00226405 0.00171299 0.00644363 -0.00252419 0.00243425 0.00594569 0.0050542 0.00878806 0.0112522 0.00619893 0.00252137 0.0071279 0.00864844 0.00570132 0.00495152 0.00907583 0.00298969 0.00319588 0.00835052 0.000824742 0.00103018 0.00435955 0.000259533 0.00122078 0.00194495 0.00473217 0.00458811 0.00185592 0.00830645 -0.00077015 0.00175515 -5.26605e-05 0.00208632 0.00169086 0.00527741 0.00968384 0.0111268 0.00838336 0.00694148 0.00342338 0.00977012 0.00257633 0.00835052 0.00134021 0.00268041 0.00618557 0.00835052 0.00742268 0.00546392 0.00804124 0.000721649 0.00577857 0.0063771 0.00970968 0.00899465 0.00268589 0.00944317 0.00611248 0.00356713 0.00215539 0.00270455 0.0040129 0.00645978 0.00400236 0.00933832 0.00391466 0.0103509 0.00706813 0.00115513 0.00639175 0.00247423 0.00742268 0 0.00123711 0.00752577 0.00701031 0.00969072 0.00525773 0.00659794 0.000206186 0.00773196 0.00515464 0.000824742 0.00474227 0.00505155 0.00364361 0.0045304 0.006414 0.00154732 0.00690722 0.00793814 0.0057732 0.00886598 0.000412371 0.00164948 0.000412371 0.00216495 0.00742268 0.0056701 0.00649485 0.00113402 0.00412371 0.00103093 0.00896907 0.00453608 0.00505155 0.000208098 0.00864668 0.00698112 0.0056723 0.00378352 0.00879674 0.00333762 0.00287671 0.00346468 0.00294659 0.00913564 0.00943872 0.00646551 0.00163014 0.00385102 0.00102416 0.00904934 0.00277167 0.00876202 0.00958763 0.00670103 0.0057732 0.00886598 0.0056701 0.00639175 0.00783505 0.000721841 0.00855677 0.0083139 0.000207394 0.00404277 0.00558838 0.00439567 0.00267525 0.00625659 0.001774 0.0106245 0.00962806 0.000375934 0.00256641 0.00266611 0.00791752 0.00172338 0.00972055 0.00272951 0.00762795 0.00693065 0.00494845 0.0056701 0.00402062 0.0071134 0.00958763 0.000412371 0.0101031 0.000206823 0.000257575 0.00690018 0.0095191 0.00668175 0.00611527 0.00540585 0.00600028 0.0112216 0.0104573 0.00954163 0.00465985 0.000928281 0.00766995 0.00311242 0.00417219 0.00035145 0.000218455 0.00836412 0.00972481 0.0014047 0.00919884 0.00253922 0.004456 0.00402062 0.00865979 0.0028866 3.09892e-07 0.00442816 0.00524164 0.00126223 0.00191528 0.00468597 -0.0013122 0.00701352 0.00630639 0.00700159 0.00864386 0.000250491 0.00614596 -0.000105461 0.00397126 0.00993604 0.002841 0.00221147 -0.00081736 0.00465421 0.00196283 0.00215895 0.00891298 0.00858813 0.00481348 0.00687756 0.0071134 0.0043299 0.00165067 0.000528795 0.00619279 0.000741491 0.00333971 0.00390937 0.00450774 0.00596301 0.000641177 0.00102783 -0.00209285 -0.00130298 0.004194 -0.00113498 0.00186537 0.00833884 0.000253 0.00159996 0.00515604 0.00178102 0.0083785 0.00360925 0.0089874 0.00919159 0.00977967 0.00789561 0.00917526 0.00340206 0.00448938 0.00189121 -0.000895956 0.00458791 0.00105351 0.0055224 0.00562218 -0.00110972 0.00485216 -0.00215993 0.000234115 -0.00461031 -0.00235382 0.00107024 -0.00252108 0.00189387 -0.0109293 -0.00586232 0.00254947 -0.000828316 -5.99927e-05 0.00200251 0.00774487 0.00539128 0.0030663 0.00750178 0.0028866 0.00534476 0.00833546 0.00834734 -0.000955524 0.000956716 -0.00216106 0.00432631 -0.0028678 0.000606648 -0.00306681 -0.001965 -0.00772063 -0.00109263 -0.00290818 -0.0007393 -0.00409314 -0.009708 -0.00705603 -0.00521329 -0.0061744 -0.00569673 -0.000974729 0.00306494 0.00858135 0.0014387 0.0100836 0.0031768 0.00916812 0.000631884 0.00282624 0.00942615 0.00616681 0.00735353 0.00384986 -0.00433165 -0.0051168 0.00078365 -0.00956689 -0.00497906 -0.00102181 -0.00440496 0.000550831 0.000419005 0.000383242 -0.0119251 -0.0091188 -0.00417973 -0.00809655 -0.00466509 -0.00466769 -0.00169603 0.00597946 0.00695623 0.0032592 0.00988717 0.00969072 0.000392524 0.00145212 0.00971495 0.000105941 0.00212343 -9.65367e-05 -0.00220915 -0.00223052 -0.00717296 -0.00590657 -0.00109667 -0.00243875 0.00648925 0.000696844 0.00460904 -0.00687839 -0.00734959 -0.00707208 -0.00359428 -0.00531407 -0.0041183 -0.00601361 0.0034746 0.00115565 0.00188731 0.00374392 0.00832024 0.000206186 7.45938e-05 0.00719454 0.00642935 0.00802513 0.00327554 0.00169918 0.002588 0.00143111 -0.00836607 -0.0106846 0.00124719 -0.000731731 0.00205857 0.00641192 -0.000971879 -0.00467059 -0.0115585 -0.00467654 -0.00890308 -0.00427332 -0.00197331 0.000507563 -0.00201818 0.0037937 0.00729801 0.00211717 0.00265947 0.00969072 0.00349571 0.00954929 0.00610068 0.00607291 0.00166921 -0.00323847 -0.000868842 -0.00458653 -0.0049582 -0.00383721 0.00356092 0.00220662 -0.00103557 0.00570543 -0.00275796 -0.00605931 -0.0108922 -0.00312707 -0.00808192 -0.00586253 0.00360429 -0.00113338 -0.00203965 0.00320845 0.0101057 0.00440275 0.00010379 0.00175258 0.00102364 0.00892478 0.00510665 0.00541205 0.00572864 0.00376137 -0.00103632 -0.0012231 -0.00878058 -0.00621666 0.0068908 0.0050236 0.00524877 -8.9393e-05 0.00021842 -0.00774449 -0.00190787 -0.00743789 -0.00248172 -0.00453848 0.00216531 0.002862 0.000720333 0.00307766 0.0114886 0.00738745 0.00991071 0.00237113 0.00174715 0.00227618 0.0001225 0.00563545 0.00463555 0.00174789 0.00130352 -0.00380301 0.00204624 -0.000732473 0.00325793 0.00106333 0.00584167 0.00345883 